
//===------------------------------------------------------------*- C++ -*-===//
//
// Automatically generated file for High-level Synthesis (HLS).
//
//===----------------------------------------------------------------------===//
#include <algorithm>
#include <ap_axi_sdata.h>
#include <ap_fixed.h>
#include <ap_int.h>
#include <hls_math.h>
#include <hls_stream.h>
#include <math.h>
#include <stdint.h>
using namespace std;
float encoder_0_weight[128][256] = {2.443222e-02, -6.083351e-02, 1.860233e-02, -4.298039e-02, 1.756141e-02, -2.546278e-02, 6.106786e-02, 5.336152e-02, 2.831820e-02, -4.477696e-02, -5.614906e-02, 1.850605e-02, -4.748559e-02, -1.344994e-03, -4.078589e-03, 1.606448e-02, 6.061383e-02, 4.132848e-02, -2.493133e-02, -2.655225e-02, -7.912658e-03, 5.788439e-02, 6.104244e-02, -2.902191e-02, -2.720769e-02, 1.719474e-02, -2.476925e-02, -4.461505e-02, -2.567917e-02, 1.059067e-02, 5.353133e-02, -4.127242e-03, 1.431550e-02, -3.618139e-02, 4.673488e-02, 3.692918e-03, 1.931856e-02, 5.871207e-02, 5.083077e-02, -5.356966e-02, -3.948713e-02, -3.476284e-02, 3.307208e-02, 4.126011e-02, 2.060223e-02, -1.941448e-02, 3.930779e-02, 3.679987e-02, 4.189671e-02, 5.855309e-02, -2.455109e-02, -1.074751e-02, -6.092501e-02, -4.245630e-02, 2.235539e-03, 4.138714e-02, -4.785462e-02, -5.521908e-03, -2.997893e-02, -2.467711e-02, 4.705844e-02, -2.793471e-02, -4.091037e-02, 5.116060e-02, -4.767814e-02, 1.765863e-02, -3.476873e-03, -7.343337e-03, -8.002609e-03, 4.266478e-03, -5.188877e-02, -4.000629e-02, 1.543221e-02, 5.415691e-02, -4.024804e-04, -1.929798e-02, 1.936586e-02, 4.433206e-02, 2.214024e-02, 1.804358e-02, 6.128160e-02, 2.924974e-02, 6.031039e-02, -4.654370e-03, 7.377222e-03, 3.445376e-02, 3.223746e-02, 4.345162e-02, -6.508201e-03, -4.162261e-02, -3.178978e-02, -2.499609e-02, 2.311130e-02, 4.217677e-03, -6.126932e-02, -1.153813e-02, 4.265657e-02, 1.298195e-02, -5.261558e-02, -5.742424e-02, -4.701091e-02, 1.934290e-03, 3.717365e-02, -7.869370e-03, -2.827355e-02, -2.385574e-02, 3.895245e-03, 1.665816e-03, -7.243663e-03, -3.652392e-02, -1.743668e-02, -5.508533e-02, 2.598250e-02, -1.548316e-02, -1.201809e-02, 1.367279e-02, 5.773712e-02, -2.848580e-03, -2.533370e-02, 2.535403e-02, 6.214619e-03, 5.096802e-02, 4.141308e-02, 3.143997e-02, 2.939824e-02, 7.765368e-04, 9.593360e-03, 2.470981e-02, -3.910065e-02, -3.569026e-02, 3.489662e-02, 1.641762e-02, -1.230074e-02, -1.982123e-03, -5.873294e-02, -5.566733e-02, 3.355270e-02, -3.617516e-02, -4.017402e-02, 8.032411e-03, 2.349278e-02, -4.745062e-02, 2.222180e-02, 3.510177e-02, -3.369493e-02, 2.037050e-02, -8.706950e-03, 3.605679e-02, 5.655022e-02, -3.999898e-02, 1.203955e-02, 4.923047e-02, -4.761106e-02, -3.178429e-02, -2.813855e-02, -3.390999e-02, 3.147006e-02, -6.019566e-02, -2.285385e-02, 4.424884e-02, 2.700542e-02, 9.362467e-03, 4.563024e-02, 4.618584e-02, 5.703437e-02, 1.839973e-03, -3.704274e-02, 3.235018e-02, 4.099375e-02, 3.189258e-02, -5.607859e-02, 5.484298e-03, -4.762429e-02, -9.992309e-03, 3.459545e-02, 1.047675e-02, 2.508800e-02, 3.660768e-03, 4.262530e-02, -1.032617e-02, 2.021556e-02, 3.883785e-02, 3.190514e-02, -2.437218e-02, -4.079930e-03, -5.910169e-02, -5.402123e-02, 5.979180e-02, 4.602735e-02, -2.819419e-02, -4.438525e-02, 1.008876e-02, 5.541103e-02, -2.652112e-02, -5.307201e-02, 1.950461e-02, -5.325232e-02, 1.205491e-02, 1.335166e-02, 5.205633e-02, 1.857308e-02, -1.643113e-02, 4.490159e-02, -1.098678e-03, -4.004250e-02, 6.754614e-03, 4.767694e-02, 4.347954e-02, 5.523476e-02, -2.784639e-02, -3.215285e-02, 5.967316e-02, -5.899094e-02, -1.098149e-02, 1.636446e-04, -4.927260e-02, 5.415555e-02, -2.704693e-02, -4.046763e-02, -2.014334e-02, -4.849078e-02, 8.323558e-03, 1.962768e-02, 6.150536e-02, 5.451602e-02, 6.078289e-02, 1.929874e-02, 6.106860e-02, -5.754763e-02, 2.605041e-02, -1.514962e-02, 3.010875e-02, -4.028334e-02, -7.426850e-03, -3.433524e-02, 4.506968e-02, 2.617528e-02, -6.103187e-02, -5.286692e-02, 6.183557e-03, -3.655753e-02, 1.397925e-02, -3.258102e-03, -2.214776e-02, 2.408361e-02, -5.823886e-02, -5.189133e-02, -3.334270e-02, 3.660878e-02, -1.678556e-02, -2.467044e-02, -2.885303e-02, -3.442037e-02, 2.235640e-02, -4.338802e-02, 3.694776e-02, 1.001392e-02, 4.584691e-02, -4.329165e-02, -1.174508e-02, -3.901673e-02, -2.865756e-02, -3.187538e-02, 4.020812e-02, -2.217928e-02, 1.137688e-02, 5.298828e-02, 4.101516e-02, 1.546964e-03, -4.284900e-02, 3.979104e-02, -3.528198e-02, -3.364049e-02, -5.996823e-02, -2.840411e-02, 4.218142e-02, -2.479928e-02, 2.239912e-02, 3.996369e-02, -6.110615e-02, -5.543934e-02, 4.562084e-02, -2.601010e-02, 5.868408e-02, 3.643364e-02, -1.205295e-02, 3.056701e-02, -9.865135e-03, 8.609004e-03, 1.087370e-02, -1.717450e-02, -7.108562e-03, -2.994988e-02, -4.776046e-02, 2.633165e-02, 3.103780e-02, -3.083228e-02, -5.974086e-02, 4.758087e-02, 4.647300e-04, -2.194881e-03, -4.112400e-03, -4.668434e-02, 2.417208e-02, 4.447773e-04, -2.604261e-03, 3.592764e-02, 7.217146e-03, 4.821099e-03, -3.669133e-02, -2.227568e-02, 1.930223e-02, -4.699484e-02, 4.035904e-02, 2.009705e-02, 1.783943e-02, -1.890227e-02, -2.152839e-02, -5.060434e-02, -5.197784e-02, 3.610723e-02, 5.221051e-02, -6.178663e-02, -6.096192e-02, 4.625119e-02, -5.956428e-02, 1.776119e-02, -9.547770e-03, -4.050846e-02, -6.143339e-02, -8.077994e-03, -2.932224e-02, 4.145192e-02, -4.816384e-02, -5.420097e-02, -4.746579e-03, -1.722579e-02, -3.800046e-02, -5.868318e-02, 5.224541e-02, -3.838885e-02, -4.149827e-02, -1.195390e-02, 3.713030e-02, -2.443109e-02, -1.292458e-02, 5.562510e-02, 3.927997e-02, 2.432761e-02, -1.520798e-02, 3.304575e-02, -2.630651e-02, -5.633152e-02, 2.888516e-02, -3.647759e-02, 4.386762e-02, 4.475903e-02, 3.354353e-02, -1.635925e-02, 5.935779e-02, -2.694599e-03, -6.138451e-03, 3.131186e-02, 4.378916e-02, -3.646335e-02, -4.331812e-02, -3.265550e-02, -3.303349e-03, 3.372299e-02, 4.929300e-02, -5.682188e-02, -4.661151e-02, -2.086440e-02, 4.443849e-02, -4.161018e-02, -3.748223e-02, -5.058540e-02, -2.204139e-02, 6.160359e-02, 1.863090e-02, 3.801558e-02, -5.619524e-02, -4.675468e-02, -1.473479e-02, -1.287781e-03, -2.315907e-02, 4.653815e-02, -3.551756e-02, 4.152248e-02, 4.116207e-03, -2.290302e-02, -1.500019e-02, -6.225761e-02, 7.004932e-03, -6.213787e-02, -3.053322e-04, -8.985385e-03, -3.698058e-03, 2.996213e-02, -1.272927e-02, 5.186680e-02, 2.237201e-02, 4.215884e-02, -4.264202e-02, -2.732828e-03, 2.070598e-03, 5.816616e-02, 4.902110e-02, 1.556957e-02, -4.320343e-02, 4.967412e-02, 2.852579e-02, -4.789060e-02, -2.827320e-02, -3.563970e-02, 4.665790e-02, 2.754781e-02, -9.251676e-03, 1.700760e-02, -2.700853e-02, -3.726870e-03, 2.653600e-02, 5.787095e-02, -6.943673e-03, -5.469513e-02, -4.043134e-02, 5.337328e-03, -3.763799e-02, 9.062886e-05, -1.499390e-02, 3.141969e-02, -4.850140e-02, -3.217117e-02, 3.582597e-03, -2.784559e-02, -3.196418e-02, 2.685238e-02, 4.835618e-02, -5.745186e-02, 3.112397e-02, 5.440700e-02, 3.655681e-02, -2.156814e-02, -3.170351e-02, 5.647928e-02, -5.589411e-03, -1.275961e-02, 3.500052e-03, 4.903845e-03, 2.656608e-02, -3.664544e-02, -2.543226e-02, 2.327255e-02, -3.831696e-02, -2.729172e-02, 3.814877e-02, 5.331484e-02, -4.626750e-02, 4.713719e-02, 9.637602e-03, 3.938607e-02, 6.034353e-02, -3.632022e-02, -3.215247e-02, -5.912416e-03, -4.134137e-02, -3.783418e-02, -4.712718e-02, -2.239121e-02, -4.684235e-02, -6.035589e-02, -1.841629e-02, -4.402476e-02, -5.034956e-02, 1.023664e-02, -1.443055e-02, 2.673468e-02, -5.841959e-02, 1.166233e-02, 5.805831e-02, -1.647405e-02, 5.072907e-02, -5.231658e-02, -4.909880e-02, -6.498978e-03, 4.710367e-02, -3.757051e-02, -4.978158e-02, -4.138529e-02, -5.627934e-02, 2.480809e-02, 5.092092e-03, 2.910454e-02, -9.795666e-03, -3.555067e-02, 9.096190e-04, -3.996269e-02, 2.375500e-02, 6.308876e-03, 9.933285e-03, -5.039610e-03, 5.343100e-02, -3.534380e-02, -1.121457e-02, 9.965867e-03, 3.394742e-02, -4.740290e-02, -9.874135e-03, -1.250286e-02, 5.956890e-02, -5.619974e-02, 2.062526e-02, -2.163343e-03, 3.178624e-02, 3.698707e-03, 1.093899e-02, -2.902765e-02, -1.397112e-02, 5.895445e-02, -5.691596e-02, -1.966000e-03, 6.185523e-02, -1.169860e-02, -3.864079e-02, 1.000696e-02, 5.186480e-02, 5.458333e-02, -4.027323e-02, 2.727436e-02, 3.941496e-02, -2.822729e-02, -5.330387e-02, -4.919889e-02, 7.305831e-03, -4.058312e-02, 8.252479e-03, 4.769629e-02, 5.101424e-02, 2.491326e-02, -3.303093e-02, 7.077426e-03, -5.291966e-02, -8.565649e-03, 4.131141e-02, -1.549439e-02, 2.507000e-02, -1.840489e-02, 4.398747e-02, -7.695101e-03, -5.816779e-02, 2.753099e-02, 2.203054e-02, 2.396772e-02, 3.784299e-02, 3.117342e-02, -5.748779e-03, 3.339192e-02, 9.087980e-03, 1.665898e-02, 2.723124e-02, -2.574708e-02, 2.450811e-02, 6.971009e-03, 1.072513e-02, 3.975076e-02, -5.749471e-02, 4.770803e-02, -7.784188e-03, 4.581162e-02, -5.089790e-03, -5.598197e-02, 4.032746e-02, 4.529713e-02, 1.235873e-03, 4.042961e-03, -2.124206e-02, 5.722388e-02, 6.019616e-02, -5.613383e-02, 2.027851e-02, -2.676103e-02, -5.038448e-02, -3.903382e-02, 5.880576e-02, 3.783754e-02, 2.957020e-02, 3.458870e-02, -2.580811e-02, -1.375592e-02, 4.473431e-02, -3.725253e-03, -4.803355e-02, 2.037229e-02, -4.698990e-02, 1.871362e-02, 1.244992e-03, 1.649269e-02, -3.130943e-03, 4.360063e-02, -4.886820e-02, -7.783763e-03, 6.106213e-02, -5.334732e-02, -1.288662e-02, -2.213940e-02, 2.565818e-02, 4.555715e-02, 5.575407e-02, 6.114444e-02, -3.838634e-02, -1.215906e-02, -1.916522e-02, 1.607068e-02, 1.064885e-02, -1.485842e-02, -4.552136e-02, -3.904386e-02, -5.587554e-02, 3.394434e-02, -2.128882e-02, 4.434509e-02, 3.727354e-03, -4.920425e-02, 6.882250e-04, 6.236286e-02, 1.149299e-02, -5.204969e-02, -5.534250e-02, -1.437017e-02, -4.230194e-02, -5.569868e-03, -1.337752e-02, 6.226892e-02, -5.356408e-02, 2.493099e-02, 4.865548e-02, -3.977447e-02, 5.477086e-02, 3.692120e-03, -1.704238e-02, -1.965141e-02, 3.105000e-03, 3.753272e-02, -1.099144e-02, -1.780340e-02, -3.880934e-02, -1.883470e-02, 2.469078e-02, 5.316772e-03, 9.830900e-03, -1.118802e-02, 4.682642e-02, 4.337753e-02, 1.129624e-02, 5.375518e-02, -1.260258e-02, -1.424954e-02, 2.590892e-02, 8.675136e-03, 5.439326e-02, 9.926431e-03, 1.752015e-02, 3.767454e-02, 1.479794e-02, 3.435229e-02, 9.815097e-04, 2.944762e-02, -7.908970e-03, 2.728131e-02, 4.333925e-02, 3.489190e-02, -5.974771e-02, 4.232980e-02, 1.131972e-02, -1.370601e-03, -3.057668e-02, -4.715584e-03, 3.878178e-02, 3.058302e-02, -3.839837e-02, 3.917391e-02, 4.731888e-02, 3.600825e-02, 6.662712e-03, -2.151387e-02, -2.842823e-02, -1.352601e-02, 1.571564e-02, 5.604021e-03, 7.680804e-04, -1.526293e-02, -3.650589e-02, -3.142759e-02, -1.741019e-02, 1.405443e-02, -1.189466e-02, -4.729792e-02, 3.999356e-02, 1.459555e-02, -6.052494e-02, -6.071036e-02, -5.107635e-02, 1.953553e-02, -5.077814e-02, 4.223839e-02, -3.214053e-02, 4.770862e-02, -3.440601e-02, -3.975137e-02, -3.183149e-02, 5.959654e-02, -1.773617e-02, -5.640889e-02, -2.378747e-02, -1.471651e-02, 5.991778e-02, -1.267068e-02, -2.842339e-02, -4.469128e-02, -2.449121e-02, 4.024160e-02, 2.043103e-02, -5.586036e-03, -3.888684e-02, -2.676338e-02, -2.389322e-02, -6.179535e-02, 4.906616e-02, 1.909915e-02, -5.181670e-02, 5.079198e-02, -4.846396e-02, 1.580166e-02, -3.122500e-02, 6.556168e-03, -4.113524e-02, 3.002518e-02, -2.749736e-02, -2.790869e-02, 1.960798e-02, 3.534325e-02, -2.937838e-02, -1.706545e-02, -2.591213e-02, 3.535316e-02, 3.797241e-02, -5.694449e-02, 5.476938e-02, 2.068356e-03, 3.822819e-02, -4.372165e-02, -4.540496e-02, -4.365581e-02, 1.957984e-02, -6.239787e-04, 3.796484e-02, -5.533125e-02, 2.123180e-02, 4.207152e-02, -4.780645e-02, -3.612243e-02, 3.090832e-02, 5.607034e-02, -5.367657e-02, -5.523514e-02, 1.137443e-03, -1.309589e-04, -4.745289e-02, 5.029692e-02, 1.792394e-03, -1.218304e-02, -1.919074e-02, 3.783248e-02, 3.851400e-02, -3.107124e-02, 2.245161e-02, -1.718652e-02, 1.083933e-02, -3.137517e-02, -2.771944e-02, -4.797240e-02, -4.199060e-02, -4.763260e-02, -4.740477e-03, -3.112544e-02, -2.811527e-02, 3.680582e-02, 5.727097e-02, 5.828870e-02, 4.499617e-02, 5.616509e-02, 1.966059e-02, 1.586198e-02, -2.520055e-03, -3.440078e-02, -5.641185e-02, 5.720474e-02, -3.986813e-02, -2.029887e-02, 3.979182e-02, -7.609859e-03, -5.867884e-02, -5.176865e-02, -4.725064e-02, -9.441853e-03, 2.737942e-02, -3.895863e-02, -7.754117e-04, -5.175879e-02, -4.179180e-02, -2.243899e-02, -5.056596e-02, 2.950689e-02, -1.058728e-04, -2.226735e-02, -2.194913e-02, 6.626561e-03, -1.968537e-02, -8.421093e-04, -2.741729e-02, 4.967988e-02, 4.318876e-02, -4.706949e-03, -2.177037e-03, 3.412286e-02, 3.583134e-02, -4.867066e-02, 4.428297e-02, 6.088515e-02, 2.329712e-02, -2.705780e-02, -5.668304e-02, -3.906206e-02, 4.308394e-02, -2.119809e-02, 5.449720e-03, -5.003594e-02, 8.592404e-03, 6.714426e-03, 3.613455e-02, -3.264674e-02, -2.265657e-02, 6.164107e-02, -3.412646e-02, 5.752323e-02, 1.687925e-02, -4.614747e-02, 5.048256e-02, 3.708009e-02, 4.616528e-02, -5.102656e-02, 2.291866e-03, -3.343318e-02, -3.418105e-02, 2.117655e-02, -3.932640e-04, 5.065471e-03, -2.489143e-02, 2.774697e-02, 3.714551e-02, -5.575225e-02, 4.777373e-02, -3.936353e-02, -7.266991e-03, 2.427205e-02, -7.986248e-03, -4.724406e-02, 5.632877e-02, -3.044204e-02, -1.524243e-02, -8.293390e-04, -5.503437e-02, -1.396060e-02, -5.699909e-02, 1.080541e-02, 4.126611e-02, 1.226018e-02, -3.699484e-02, 4.429813e-02, -3.766382e-02, -5.651195e-02, -2.378239e-02, 3.018568e-02, 2.401524e-02, 2.358774e-02, -3.558912e-02, 3.965205e-02, -1.190039e-02, 2.409562e-02, 2.736187e-02, -2.383944e-02, 5.690531e-02, -2.913302e-02, 1.002529e-02, 3.921091e-02, 1.914786e-02, 3.533593e-02, -8.956656e-03, -3.976091e-02, -4.104047e-02, 4.461562e-02, -3.915911e-02, -4.529887e-02, -4.383765e-03, 3.590240e-02, 2.696244e-02, -4.253545e-02, 5.341389e-02, 3.263248e-02, -5.065098e-02, 4.622141e-02, 2.436666e-02, 3.825054e-02, 3.790401e-02, -3.612722e-02, -2.943374e-03, 3.672965e-03, -2.005085e-03, 4.462335e-02, 1.862242e-02, 4.986025e-02, 3.777659e-02, -1.883481e-02, 4.305162e-02, -3.162261e-02, -1.040334e-02, -2.071272e-02, 5.490010e-02, 1.951799e-02, -1.855698e-02, 3.100655e-02, -2.008487e-02, 2.905681e-02, 4.790804e-02, -3.197339e-02, 2.054621e-02, -4.713184e-02, -1.554221e-02, -3.727500e-02, -2.499767e-02, 3.647203e-02, 2.495874e-02, -1.949653e-02, 1.481830e-02, -1.298090e-02, -1.239116e-02, 1.200606e-02, 2.637704e-02, 2.640545e-03, 6.120548e-02, -2.155166e-02, -1.626829e-02, -6.101565e-02, 1.373831e-02, 4.960172e-03, 2.204885e-02, -3.847402e-02, -2.434801e-02, -4.774833e-02, 2.490520e-03, -1.473817e-02, 1.862978e-02, -4.603548e-02, 1.408167e-03, 5.159989e-03, 1.486383e-02, 1.253457e-02, 3.195882e-02, 3.321778e-02, 4.910245e-02, -3.359228e-02, -4.250737e-02, -1.601404e-02, 4.782090e-02, 2.218574e-02, 5.667543e-02, 5.645894e-02, 1.298394e-02, 5.743101e-03, -3.058740e-02, 4.009199e-02, 4.740497e-02, 4.739783e-02, 3.958711e-02, 4.916190e-02, -2.512008e-02, 3.883198e-03, 2.643190e-03, -4.102976e-02, -5.883363e-02, 5.368108e-02, -3.196553e-02, -3.147508e-02, 1.247497e-02, -4.664811e-02, -4.948471e-02, -5.036563e-02, 2.235495e-02, -2.110761e-02, 5.525640e-02, 1.576243e-02, 2.251126e-03, -1.254766e-02, 6.022226e-02, -5.881403e-02, 2.212241e-02, -5.581275e-02, 4.623599e-02, 4.454611e-02, 1.950701e-02, -4.551344e-02, -3.649236e-02, 3.252925e-02, 5.602217e-02, 5.801294e-02, 3.229015e-02, -3.388983e-02, -2.036089e-02, -4.822601e-02, -4.349045e-02, 5.339375e-02, -5.377050e-02, -3.299117e-03, -5.175255e-03, -6.204760e-02, -4.403172e-02, -5.655083e-02, 5.897404e-02, 1.424187e-02, -3.167477e-02, 3.531135e-02, 5.264022e-02, -6.279826e-03, 6.237838e-02, 2.831295e-02, 5.844029e-02, 2.728095e-02, 4.720768e-02, 2.650534e-02, 2.940618e-03, -5.746350e-02, -3.293841e-02, 2.109743e-02, 5.975490e-02, 1.947325e-02, 2.395407e-02, 4.525007e-02, -3.803416e-02, 3.335542e-02, -3.025927e-02, -4.018589e-02, -5.025130e-02, -1.538910e-02, -4.639331e-02, 4.547827e-03, 6.217683e-02, 5.185734e-02, 3.849738e-02, 4.207768e-02, 3.943816e-03, -3.435320e-02, -2.506457e-03, -4.358254e-02, -3.327866e-02, 2.432097e-02, 3.036290e-02, 3.945271e-02, -7.528812e-04, 2.783839e-02, 7.478595e-03, -9.555101e-03, -4.497604e-02, -5.948566e-02, -4.820496e-02, -3.234233e-02, -2.208950e-02, 5.723830e-02, 1.863674e-02, -4.900814e-02, 2.041048e-02, -6.189344e-02, -5.456266e-02, 2.716780e-02, 4.594774e-02, -1.620829e-02, -1.806863e-03, -5.157865e-02, 2.872674e-02, -6.123960e-03, -2.753206e-02, 2.326835e-02, 3.278509e-02, -4.341060e-02, 1.210684e-02, -5.597928e-02, 5.991808e-02, -4.728023e-02, 4.739448e-02, 1.127350e-02, 1.281570e-02, 3.462335e-02, -1.960993e-05, -1.659368e-02, 6.372668e-03, 3.945824e-02, -5.951308e-02, 2.101970e-02, 4.711168e-02, -1.714768e-02, -5.356015e-02, 4.308093e-02, 5.166565e-02, -5.616356e-02, 1.391213e-02, -7.223576e-03, -3.492209e-02, 5.383051e-02, 1.440845e-03, -1.309417e-02, 4.451000e-02, -4.639194e-02, -4.378112e-02, 7.484592e-03, -3.805989e-02, -4.849798e-02, 1.995859e-02, 4.655823e-03, -5.120265e-02, 3.162657e-02, 1.110412e-02, 1.472989e-02, -4.416997e-02, -2.122796e-02, 1.036383e-03, -5.774868e-02, 5.075991e-03, 4.279771e-02, -3.575505e-02, -4.155823e-02, 1.798657e-02, 5.594511e-02, 1.944365e-02, -3.545532e-02, -2.857174e-02, -1.108377e-02, -3.880111e-02, 3.058033e-02, 5.675736e-02, 9.511359e-03, -5.441286e-02, 4.651024e-02, 2.773640e-02, 4.290979e-02, 4.896543e-02, -1.239146e-02, -2.150282e-02, 4.211945e-02, -3.426653e-02, -4.923009e-02, -2.396054e-02, 3.145669e-02, 4.290608e-02, 1.899526e-03, 1.534777e-02, 1.114459e-02, -5.201729e-02, -2.327684e-02, -5.344297e-02, -3.767189e-02, 2.361251e-02, -8.957773e-03, -2.104682e-02, -2.894337e-02, -1.832180e-02, 2.787679e-02, -1.648284e-02, -3.102325e-02, -3.189742e-02, -1.100744e-02, 5.748492e-02, -2.622093e-02, 2.086704e-02, 1.283813e-02, 3.539676e-02, -2.867089e-02, -5.435720e-02, -5.967697e-02, 1.441804e-02, -4.469319e-02, 1.285537e-02, 2.812461e-02, -3.587238e-03, 2.510497e-02, -5.141073e-02, -4.009877e-02, -4.706559e-02, -5.811881e-02, 1.349472e-02, 5.963963e-02, 6.222309e-02, 3.663022e-02, 3.189433e-02, -6.349452e-03, 7.969230e-03, 2.510822e-02, -2.389776e-02, -4.056577e-02, -8.228347e-04, 3.266915e-02, -5.740590e-02, 3.793416e-02, 2.366817e-02, -5.967490e-03, -2.330033e-02, 1.567914e-02, 5.141624e-02, 1.491416e-02, 6.216509e-02, -2.389288e-02, -6.001841e-02, 4.727170e-02, 8.797795e-04, 3.679665e-02, -3.428381e-02, -6.204604e-02, -1.171327e-02, -5.548544e-02, 3.073504e-02, -6.007808e-02, -2.167995e-02, 3.338568e-03, -4.037344e-02, -5.136243e-02, -7.145084e-03, 2.453986e-02, 3.191561e-02, -8.907482e-03, 2.258850e-02, 3.241037e-02, -5.334470e-02, -3.310058e-02, -3.477036e-02, -3.218746e-02, -3.572455e-02, 2.380749e-02, 2.706105e-02, -1.240402e-02, 1.734940e-02, 1.889945e-02, 4.520302e-02, -2.607798e-02, -4.758280e-02, -6.124190e-02, 2.331413e-03, 4.994041e-02, -5.766772e-02, 4.665017e-02, -5.678137e-02, -3.852565e-02, 1.059551e-02, 2.355386e-02, 3.936476e-02, 3.331659e-02, 1.121205e-02, 4.484921e-02, -3.462780e-02, 2.980751e-02, 6.048835e-02, 4.768614e-02, 4.454284e-02, 1.593068e-02, -6.164573e-02, 4.392558e-02, -5.552596e-02, -4.734427e-02, -2.107710e-02, 2.755085e-02, 3.249641e-02, -3.056350e-02, 1.316050e-02, -1.856336e-02, 3.328244e-02, 5.383991e-02, 4.680824e-02, 4.920659e-02, 6.637529e-03, -2.246893e-02, -5.292650e-02, -5.961986e-02, 2.532653e-02, -1.102655e-02, -2.728993e-02, 1.519743e-02, 2.076899e-02, -6.057711e-02, -4.344098e-02, -5.966540e-02, 2.464703e-02, -1.356095e-03, -5.414034e-02, -1.323037e-03, -2.590749e-02, -3.489576e-02, -3.801796e-02, -2.553565e-02, 5.989061e-02, -2.128720e-02, 2.718568e-02, 5.004205e-03, 1.064934e-03, 1.039956e-02, 1.373456e-02, 3.768971e-02, -4.542460e-02, -1.152951e-02, -6.095093e-02, 1.156973e-02, -1.112518e-02, -5.579323e-02, 5.031323e-02, 4.983507e-02, -3.727864e-02, 3.931831e-02, -2.905256e-02, -1.248847e-02, -1.464857e-02, 2.759299e-02, -5.879834e-02, -2.621229e-02, 5.159703e-02, 2.852980e-02, 3.268040e-02, -3.913958e-02, 2.292842e-03, -3.603587e-02, -1.551350e-02, 4.946674e-02, 2.726531e-02, 5.053411e-02, 5.775154e-02, 2.060867e-02, 1.977281e-02, -2.814820e-02, 2.526698e-02, 5.804840e-02, 5.549550e-03, 4.872777e-02, 5.874771e-02, -5.381159e-02, 1.871167e-02, 5.818751e-02, 5.475093e-02, -4.351290e-02, 2.536724e-02, 6.230436e-03, -1.271250e-02, 3.195330e-02, -2.563965e-02, 1.060404e-02, 6.218720e-02, -9.255916e-03, 5.061694e-02, 4.695721e-02, -4.186441e-02, 1.954986e-02, 2.104648e-02, 4.731958e-02, -7.605165e-03, 4.126932e-02, 4.537213e-02, 3.579476e-02, -2.010124e-02, 6.284647e-03, 2.509554e-02, 3.202630e-02, 2.333086e-02, -6.419085e-03, 4.926758e-02, 3.899563e-02, 1.567313e-02, 5.910286e-02, 4.409395e-03, 5.617049e-02, -4.673008e-02, -4.683227e-02, 5.719784e-02, -3.116169e-02, 1.211490e-02, 3.079708e-02, 2.420001e-02, 4.691286e-02, 3.510080e-03, 6.546408e-03, -6.535374e-03, 1.353160e-03, -2.454333e-03, -2.732407e-02, 5.186212e-02, 4.258432e-02, -6.050339e-02, -9.328425e-03, -2.718477e-02, 6.060971e-02, -4.128981e-02, 4.066262e-02, 2.814215e-02, -2.543622e-02, 1.604404e-02, 2.229498e-02, 1.672759e-02, -1.479685e-02, -4.695497e-02, -3.961037e-02, 9.028383e-03, -5.837127e-02, -3.956171e-02, -6.087497e-04, 1.397903e-02, 6.413549e-03, 1.409918e-02, -4.923826e-02, -4.440983e-02, -2.367971e-02, 3.935818e-02, 6.144714e-02, -2.856408e-02, -2.487741e-02, 2.279201e-02, -1.002295e-02, -1.646161e-03, 1.042695e-02, -3.521623e-02, -2.506022e-02, -2.985112e-02, -4.524710e-02, -2.199109e-02, -6.249908e-02, 2.188659e-02, -1.758639e-02, -4.749883e-02, 5.262956e-03, 5.137086e-03, -4.155843e-02, -5.847700e-03, -1.166888e-03, 3.808776e-02, 2.261603e-02, 2.799684e-02, -5.117293e-02, -1.823162e-02, -2.769680e-02, -2.359843e-02, 2.784374e-02, 6.216434e-02, -6.006834e-02, 5.940160e-02, -2.934198e-02, -5.187967e-02, 3.060121e-02, 4.549846e-03, -3.437834e-02, 3.358243e-02, 5.860563e-02, 2.099239e-02, -2.201173e-02, 5.141590e-02, 5.128603e-02, -2.798774e-02, 1.596041e-03, 5.350810e-02, 1.280648e-02, 3.799563e-02, -4.750125e-03, 2.031386e-02, -1.441348e-02, 7.644087e-03, -5.008014e-02, -1.457298e-02, 5.190077e-02, 1.506674e-02, -2.242168e-02, 3.122844e-02, 4.794754e-02, -4.787545e-02, 2.897736e-02, 3.622808e-02, -6.144176e-02, -2.617836e-03, 1.338042e-02, -4.712128e-02, -3.881954e-03, -4.465899e-02, -3.405612e-02, 4.247949e-02, 2.705420e-02, 4.077551e-02, 4.588151e-02, -5.151891e-02, -2.819745e-02, 8.385703e-03, 2.037293e-02, -3.223605e-03, -5.843359e-02, -6.088137e-02, 2.343696e-02, 5.251943e-02, 1.194144e-02, 2.819651e-02, 4.673376e-02, -4.585180e-02, 5.319515e-02, -6.057730e-02, 6.397754e-03, 1.495980e-02, -2.736488e-02, 8.603089e-03, -5.993651e-02, -1.431275e-02, 6.191920e-02, -5.471806e-02, -3.632048e-02, -2.552179e-02, -2.291106e-03, 4.602241e-02, -1.379162e-02, 4.734810e-02, 1.783644e-02, 2.935147e-02, 3.875970e-02, -6.676719e-03, 3.879915e-02, 1.515552e-02, -3.279094e-02, -3.336467e-03, 2.207591e-02, 1.972188e-02, 5.970040e-02, -1.932934e-03, -4.374243e-02, 2.697536e-02, -5.474710e-02, 6.241887e-02, 6.831102e-03, -1.033559e-02, -1.119561e-03, 1.779097e-02, 1.571193e-02, -4.085612e-02, 2.526709e-02, -5.131074e-02, 6.082954e-02, 1.115248e-02, 1.394836e-02, 5.519807e-03, 3.666725e-02, 1.506905e-02, -5.290204e-02, 5.151123e-02, 3.803366e-02, -2.095552e-02, -3.941960e-02, 5.702341e-02, 5.228422e-02, 5.481530e-02, 5.930863e-02, 2.494795e-02, 7.128142e-03, 1.270516e-02, -3.852084e-03, 3.068882e-02, 3.113106e-03, 2.084590e-03, 2.643978e-02, 4.347964e-02, 4.099641e-02, -1.263694e-02, 1.088377e-02, -5.524968e-02, 1.136850e-02, 2.207080e-02, -1.422420e-03, -4.972927e-02, 1.296469e-02, 5.326211e-02, -1.212143e-02, -2.267887e-02, 2.919803e-02, 3.036678e-02, 6.414264e-03, -3.343533e-02, 4.523834e-02, -5.425946e-02, -5.246311e-02, -3.899222e-02, 3.464922e-03, -3.328253e-02, 7.201247e-03, 5.762514e-02, 4.517730e-02, 1.201339e-02, 5.625153e-02, 1.636079e-02, 1.179501e-03, 4.971176e-04, -1.874649e-02, 2.269503e-02, -1.795275e-02, -6.802462e-03, -1.993471e-02, 4.430922e-02, 4.204303e-03, 7.495724e-03, 4.122015e-02, -1.897369e-02, -3.552321e-02, -3.833491e-02, -2.458359e-02, -1.043454e-02, 3.064285e-02, 2.676465e-02, 9.102389e-03, 1.167388e-02, 5.674720e-03, 3.269143e-03, 2.095275e-02, 5.588795e-02, 6.127986e-02, 1.998306e-02, -5.524708e-02, -1.807500e-02, 1.434524e-02, 9.340890e-03, 1.968576e-02, -5.808418e-02, -2.428424e-02, 2.502621e-02, 4.121697e-02, 2.599534e-02, -4.681320e-02, -1.336519e-02, 1.349637e-02, -5.238254e-02, -1.489008e-02, -2.116976e-02, 4.602379e-02, 4.560725e-02, -4.414947e-02, -3.952136e-02, 4.607987e-02, 5.405307e-03, -2.130888e-02, 8.258261e-03, -4.792061e-02, -5.484067e-03, -1.905432e-02, -2.915035e-02, -4.527137e-03, -4.095010e-02, -5.018189e-02, -2.319954e-02, 4.063085e-03, 1.282395e-02, -3.123172e-02, -1.448763e-02, 5.667159e-02, 4.500066e-02, -1.681445e-02, -2.300923e-02, 4.372562e-02, 1.155883e-04, 3.948315e-02, 8.011229e-03, 1.573741e-02, 5.251603e-02, -4.361175e-03, -7.751197e-03, 2.600778e-02, -3.584238e-02, -4.482865e-03, -1.327479e-02, -5.626474e-02, 1.720255e-02, -5.159529e-02, 1.247911e-02, 4.849091e-02, 3.212448e-02, -3.446365e-02, -4.872108e-02, 3.012896e-03, -4.694109e-02, -4.497050e-02, -5.748384e-02, 4.725306e-02, 2.017124e-02, 2.198793e-03, -2.245608e-02, -4.763290e-02, -3.758422e-02, -4.752775e-02, 5.756356e-02, -2.148044e-02, 3.325889e-02, 1.429100e-02, 4.608378e-02, -2.921700e-02, -4.173955e-02, -4.335976e-02, 4.669376e-03, 2.748396e-02, -3.857217e-02, 3.446925e-02, -3.401972e-02, 2.290750e-02, 2.813006e-02, -4.581591e-02, -5.146795e-02, 2.945523e-02, 1.476301e-02, -5.273125e-02, -4.616165e-02, 1.264468e-03, -2.247272e-02, -5.503680e-02, 5.008057e-03, -8.191548e-03, 3.832735e-02, -5.342751e-02, 3.589727e-03, 1.959623e-02, 7.652730e-03, 8.978739e-03, -2.083927e-04, 2.474543e-02, 6.472044e-03, 5.581570e-02, -2.279932e-02, 3.636552e-02, 5.101914e-02, 4.013173e-02, 1.538858e-02, -5.860379e-02, -4.615158e-02, 6.137646e-02, -1.923161e-02, 3.062396e-02, -1.659717e-02, -3.903784e-02, -3.501274e-02, -1.497356e-02, 1.599351e-02, 4.657790e-02, 3.183548e-02, -2.313504e-02, -5.183307e-02, 5.940615e-02, 5.655655e-02, -4.099808e-02, -1.299659e-02, -5.741016e-02, -1.699100e-02, 9.029865e-03, 3.838293e-02, 5.232456e-02, 4.687858e-02, 5.687857e-02, 4.724491e-02, -4.266784e-03, -4.038631e-02, -5.793047e-02, -5.256623e-03, 2.297986e-02, -6.185113e-02, -5.873772e-02, -2.489475e-02, -4.470424e-02, -5.970686e-02, -3.947981e-03, 1.304127e-02, -4.716994e-02, -9.288199e-03, 6.214898e-02, 1.937088e-02, -4.918117e-02, -8.150876e-03, -5.925981e-02, -5.227372e-03, -6.117544e-02, 1.797941e-02, -5.751546e-02, 2.738331e-02, 2.474431e-02, 4.507953e-02, 4.017835e-02, -4.188254e-03, -3.940182e-02, 1.623355e-03, -1.814373e-02, -3.886338e-02, -5.911076e-02, -1.175634e-02, -3.569026e-02, -1.950630e-02, -3.298582e-02, -4.765791e-02, 3.674009e-02, -4.533994e-02, 2.290637e-02, 2.360407e-02, 2.333828e-02, 2.207085e-02, -6.716669e-03, -1.351530e-02, 1.172543e-02, 1.039650e-02, 3.779127e-02, 5.046504e-02, -5.480658e-02, -1.346546e-02, 4.755234e-02, -5.889543e-02, -2.915274e-02, -2.442562e-02, 4.810946e-02, -4.153638e-02, -3.449368e-02, 9.972036e-03, 3.547128e-02, 1.683369e-02, -1.374856e-02, 1.271158e-02, -2.593569e-02, 4.147398e-02, -4.667573e-02, 3.488223e-02, -5.983831e-02, 3.896517e-02, -4.569719e-02, -5.713915e-02, 3.907058e-02, -1.382110e-02, -1.362135e-02, 3.355132e-02, 6.814949e-03, -5.533662e-02, 5.085418e-02, 4.954103e-02, -2.113079e-02, -4.041219e-02, -4.813731e-02, 7.704757e-03, -5.177543e-03, 1.528554e-02, 1.737719e-02, -2.950512e-03, 3.630331e-02, -1.491611e-02, -4.325131e-02, -1.071385e-02, 4.983235e-02, 4.337683e-03, -5.554404e-02, -1.764790e-02, -2.280276e-02, 4.916110e-02, -2.812100e-02, 3.312386e-02, -1.660510e-02, 2.397862e-02, 3.692789e-02, 4.250976e-02, 2.850072e-02, -5.722129e-02, 1.915002e-02, -2.404580e-02, 4.521572e-02, -4.230846e-02, 3.829261e-02, 1.805138e-02, -9.924389e-03, -5.344143e-02, -3.313318e-02, -4.491200e-02, 8.631893e-03, -2.876230e-03, -1.810353e-02, -1.566193e-02, -5.561820e-02, 4.499923e-02, -6.197383e-02, 6.043877e-02, 4.358339e-02, -6.065203e-02, -3.509683e-02, -3.443690e-02, 2.350879e-02, -1.564844e-02, 6.218588e-02, -5.183426e-02, 4.872236e-02, 1.949457e-02, 3.880384e-02, -3.095140e-02, 6.210928e-02, -1.876215e-02, 3.627039e-02, 7.326998e-03, -4.464903e-02, 4.506020e-02, 4.489974e-02, -1.414955e-03, -4.180305e-02, -3.865216e-02, 2.455261e-02, -3.043991e-02, 5.587877e-02, -6.139838e-02, -1.866286e-02, 4.746605e-02, -2.953689e-02, 5.139856e-02, 3.129712e-02, 3.607269e-02, -5.027752e-02, 6.052993e-02, -5.835595e-02, 1.795739e-04, 3.677022e-02, -1.218433e-02, 5.138502e-03, 2.632332e-02, 1.243867e-02, -2.238936e-02, -1.624152e-03, 4.611531e-02, -1.372767e-02, 6.205322e-02, 1.517393e-03, 6.032712e-02, -5.252879e-02, -5.226354e-02, -6.217681e-02, -9.364709e-03, 5.301549e-02, -5.871980e-02, 5.419881e-02, 1.772306e-02, -3.956522e-02, -2.951057e-02, -3.813821e-02, -5.539043e-02, 1.719087e-02, 4.361482e-02, -4.757509e-03, -3.984760e-02, -1.773701e-02, -3.877787e-02, -8.102275e-03, -9.974882e-03, -2.005957e-02, 4.010499e-02, 5.097628e-02, -4.449297e-02, 6.197326e-03, 3.778175e-02, -1.927117e-02, -2.847088e-02, -5.767420e-03, 6.103151e-02, 1.420923e-03, -2.773307e-03, 6.235614e-02, -2.291773e-02, -1.771696e-02, 3.061928e-02, 2.994776e-02, -1.825081e-02, 5.895449e-02, -4.918342e-02, 3.154090e-02, 4.289860e-02, 4.677416e-02, 5.255240e-02, -1.117454e-02, 4.886790e-02, -1.508437e-02, -6.139642e-02, -8.212537e-03, 4.085026e-02, -3.965041e-02, -1.839543e-02, -3.823377e-03, -1.394869e-02, -1.673474e-02, -2.491511e-02, -4.068632e-02, -1.178390e-02, 4.688021e-02, 3.594602e-02, -2.267772e-02, 1.604345e-02, -2.365734e-02, -5.171061e-02, -1.048332e-02, 5.810826e-02, -2.916287e-02, 6.126609e-02, 4.275195e-03, -4.601051e-02, 3.176068e-02, 2.258447e-02, 2.146275e-02, 4.963404e-02, 5.873588e-02, -1.907810e-02, 1.031442e-02, 1.939051e-03, 2.784510e-02, -4.687070e-02, -3.414248e-02, 1.377241e-02, 3.528175e-02, -5.477415e-02, -4.800258e-02, 2.358317e-03, 1.641402e-02, 6.063438e-02, 3.108252e-02, 5.418625e-02, 2.313564e-02, 3.299537e-02, -5.191349e-02, 8.062541e-03, -5.955145e-02, 1.344771e-02, 1.703163e-02, 7.409319e-03, 3.970990e-02, 2.595957e-02, 1.195975e-03, -3.767890e-02, 2.855372e-02, 5.819931e-02, -2.622191e-02, -5.268455e-03, -1.253475e-02, 3.875033e-02, -1.506838e-02, -6.205678e-02, 5.275428e-03, -1.811139e-03, -3.484582e-02, -6.136060e-02, 4.756989e-02, -6.112028e-02, -3.716881e-02, -1.166306e-02, 3.647548e-02, -3.039352e-02, 1.575847e-02, 1.272954e-03, -6.212726e-03, -5.975151e-02, 3.480296e-02, -2.029938e-02, -5.392267e-02, -2.768248e-02, -3.313879e-02, -2.611279e-02, 5.049881e-02, 1.414089e-02, 1.799474e-02, 1.474565e-02, 3.562543e-02, -4.292365e-02, 4.846694e-02, 2.906558e-02, 2.536744e-02, -2.130365e-02, -5.077226e-02, -7.658556e-03, 4.429191e-02, 4.681029e-02, -4.931311e-02, 4.355817e-02, 2.276389e-02, -5.408503e-02, 3.965472e-02, 4.290289e-02, -1.259346e-02, 1.534651e-02, -1.341756e-02, -3.133830e-02, 9.013973e-03, 4.373255e-02, 5.118734e-02, -1.875740e-02, -2.065392e-02, -4.146118e-02, 1.456898e-02, 5.870979e-02, 5.097544e-02, 1.644579e-02, 3.699119e-02, -2.467970e-02, 3.609040e-02, -1.923494e-02, -3.738979e-02, -3.619356e-02, 5.788579e-02, -1.237192e-02, -5.489996e-02, 1.171512e-02, -4.854100e-02, -1.455116e-02, 5.314688e-02, -1.593488e-02, 2.218851e-02, 1.549530e-02, -2.710348e-02, -5.254115e-02, -5.637357e-02, 5.333979e-02, -1.300972e-02, 5.948567e-02, -3.477059e-02, -3.344412e-02, 2.148765e-02, 2.744431e-02, -4.305241e-02, 5.347818e-02, -1.166788e-02, 7.090464e-03, -3.118853e-02, 2.521919e-02, 3.749209e-02, 4.082058e-02, -4.989681e-02, -3.448849e-02, 9.748332e-03, 4.153551e-02, 1.875087e-02, 2.773888e-02, 2.080239e-03, -2.390954e-02, -1.501942e-02, 2.461766e-02, -3.339220e-02, -6.993234e-03, 3.518875e-02, 2.743901e-02, -1.880604e-02, 5.703703e-02, -2.850237e-02, -5.278224e-02, 1.555901e-02, 2.914864e-02, -3.143602e-02, -4.963540e-03, 8.827649e-03, 6.076090e-02, -1.965741e-02, -3.883594e-02, 1.039154e-02, 4.757641e-02, -4.986289e-02, 5.587115e-02, 5.319022e-02, -4.190645e-02, 1.827825e-02, -1.432136e-02, 4.773884e-02, 2.021825e-02, 2.392245e-02, 4.124903e-02, -3.367713e-02, 1.655189e-02, 1.532172e-02, -3.229320e-03, -1.736586e-02, 4.722042e-02, 2.871446e-02, -4.211029e-02, -1.093593e-02, 4.762237e-02, 2.373762e-02, -2.712770e-02, -3.772689e-02, -2.311046e-02, 3.213010e-02, -2.067744e-02, -3.960119e-02, -4.648641e-04, -2.951648e-02, 3.860734e-02, -4.805248e-02, -5.651544e-02, 2.360046e-04, 2.336766e-02, -3.615795e-02, 6.226695e-02, -4.593977e-02, -5.727375e-02, 5.008908e-02, 4.221291e-02, 2.697912e-02, 2.295464e-02, 1.868426e-02, -2.341463e-02, -1.227875e-02, 5.914520e-02, 5.554241e-02, 3.450939e-02, -4.526997e-02, 2.253623e-02, -6.004281e-02, 6.843530e-03, 5.997077e-02, 5.316264e-02, 4.832952e-02, -4.370469e-02, -1.981346e-02, -1.390278e-04, 3.380165e-03, 5.571768e-03, 5.103044e-03, -2.114169e-03, 3.903903e-03, -3.223757e-02, 5.032786e-02, 3.252646e-02, 4.707070e-02, 5.307983e-02, 2.216978e-02, 1.552219e-02, -2.261151e-02, 3.618570e-02, 2.045327e-02, 6.113830e-02, -1.556168e-02, -1.853727e-02, -5.113623e-02, 5.084518e-02, -4.596508e-02, 6.606929e-03, -1.612985e-02, 1.640020e-02, 5.014478e-02, 5.946718e-03, 6.872088e-03, 3.734110e-02, -4.813533e-02, 1.644136e-02, 4.916640e-02, -6.763071e-03, 1.027025e-03, -1.882705e-02, -3.768405e-02, -2.656259e-03, 6.055699e-02, -7.463440e-03, -5.425729e-03, -1.078106e-02, -1.106228e-02, 4.639156e-02, -2.371073e-03, -1.147639e-02, 5.652335e-02, -3.329741e-02, -6.039198e-02, 2.623137e-02, -4.514773e-02, 7.189579e-03, 6.088221e-02, 1.647310e-02, 4.538440e-02, -1.748389e-02, -3.769189e-03, 6.224719e-02, -1.842434e-02, 2.677915e-02, 6.477572e-03, 4.737972e-02, -3.490850e-02, -5.892588e-02, -4.109696e-02, -2.023735e-02, 3.755758e-02, 6.301939e-03, -7.757604e-03, -1.493242e-02, 4.451374e-02, 5.922869e-03, 5.928273e-02, 1.110464e-02, 3.104441e-02, -4.855496e-02, -1.469816e-02, -4.810057e-02, 1.964266e-02, 1.983895e-02, 2.955589e-02, 4.224766e-02, 6.942838e-03, 9.723842e-03, -1.130021e-02, 4.161045e-02, 1.019274e-02, 4.893854e-03, -2.607612e-02, 2.922150e-02, -2.191919e-02, 4.801046e-02, -5.675586e-02, 3.782216e-02, 2.551682e-03, 4.643284e-02, 5.167379e-02, 1.967496e-02, 3.084886e-02, 3.262692e-02, 9.339824e-03, 5.465252e-02, -2.810085e-02, 6.020884e-02, -2.337696e-02, 6.984800e-03, -2.792338e-02, 3.999435e-02, 4.210614e-02, 2.861097e-02, -3.944576e-03, 2.683552e-02, 2.379017e-02, 6.146634e-02, -5.245084e-02, -1.861575e-02, -2.269290e-03, -3.506424e-02, 1.768127e-03, 4.561165e-02, -3.401103e-02, -1.793253e-02, 5.349541e-02, 1.449161e-02, -2.254944e-02, 4.153556e-02, 5.021214e-02, -2.423552e-02, 2.244069e-02, 4.464632e-02, 6.218687e-03, -1.408890e-03, -5.707642e-02, 4.897989e-03, -5.571362e-02, 3.477476e-02, -5.663507e-02, -5.280419e-02, 3.604039e-02, -2.792899e-02, -4.961541e-02, -3.627580e-02, -8.738466e-03, 1.045043e-02, -5.163411e-02, 2.547742e-02, -4.306149e-02, -2.280317e-02, -2.922665e-02, -8.726016e-03, 4.032458e-02, -6.229538e-02, -1.036157e-02, -5.783439e-02, 6.149245e-02, 5.486539e-02, 4.593186e-02, 1.777057e-02, 6.147948e-02, -2.617697e-02, -1.923065e-02, 2.098571e-02, -5.641336e-02, -7.919319e-03, 4.896142e-02, -4.653531e-02, 7.997043e-03, 9.188086e-03, -2.225598e-02, 5.455378e-02, -3.602222e-02, -2.296324e-02, -1.242428e-02, 4.269323e-02, 5.237928e-02, -3.223713e-02, 5.686960e-02, -5.182754e-02, 5.669683e-03, -2.014720e-02, -2.319696e-02, 4.486889e-04, 2.603998e-02, 3.169188e-02, 3.639010e-02, -1.821555e-03, -4.034583e-02, -4.769139e-03, 6.149348e-02, 2.416046e-02, 5.291194e-02, -3.858316e-02, -5.461198e-02, -2.912343e-02, 4.509177e-02, 5.910816e-02, -3.527000e-02, 3.646477e-02, -2.596671e-02, 4.126936e-02, 6.000576e-02, -3.875975e-02, 6.031506e-02, 6.195580e-02, 6.056188e-02, 1.351101e-02, -2.759439e-02, -6.091960e-02, 1.830547e-02, -2.646326e-02, 2.463838e-02, -2.100226e-02, 4.518174e-03, 1.677230e-02, -4.067791e-02, -2.526982e-02, -1.915475e-02, -3.349267e-02, 3.598846e-02, 4.326588e-02, 9.740442e-03, -5.922254e-02, -3.150162e-02, 3.258748e-02, 2.748952e-02, -2.994638e-02, -3.637847e-02, 1.914126e-02, 2.859499e-02, -1.887873e-02, -5.763780e-02, 8.416787e-03, -2.842348e-02, -5.594568e-02, 2.545152e-02, 8.381240e-03, 5.084158e-02, -4.402217e-02, 5.918907e-02, -2.523109e-02, 4.660905e-02, 7.009424e-03, -8.491069e-03, -3.634453e-03, -2.845302e-02, 3.130771e-03, -4.605220e-02, -3.406873e-02, -6.128496e-02, 2.804951e-02, -2.103635e-02, 1.827303e-02, 4.208708e-02, 2.468682e-02, 5.678138e-02, -3.847798e-02, -4.160284e-02, 2.297208e-02, -2.213539e-02, 1.230153e-02, 5.493806e-02, 5.220886e-02, 2.008557e-02, -1.593709e-03, 5.584102e-02, -4.087759e-02, -1.425289e-03, -5.011322e-02, -5.471863e-02, -4.773090e-02, -5.673108e-02, 2.563982e-02, -1.198640e-02, 2.474242e-02, -7.482216e-03, -1.951948e-02, -2.656610e-02, -2.912287e-02, 1.236056e-02, 2.256674e-02, 1.318713e-02, 6.001344e-02, 3.171302e-02, 3.163472e-03, 2.638952e-02, 1.059934e-03, -4.688481e-02, -2.571493e-04, -9.578124e-03, 2.844915e-03, 4.428622e-02, -5.293737e-02, 1.156403e-02, 3.003463e-02, -4.015565e-03, -2.912938e-02, 1.666534e-02, 2.750918e-02, -5.170997e-02, 5.081463e-02, 1.246376e-02, -4.488535e-03, 5.781265e-02, -3.523044e-02, -2.354240e-02, 3.689692e-02, 2.987146e-02, -3.411809e-02, 5.641146e-02, 2.598429e-02, 2.638698e-02, -1.792821e-02, 2.103031e-02, -4.999760e-02, 4.619766e-02, 4.821580e-02, 1.509435e-03, 3.057823e-02, 3.656819e-02, 4.287153e-02, -1.248650e-02, 4.640641e-02, 2.585979e-02, 1.283489e-03, 5.232671e-02, -6.017745e-02, 1.685505e-02, -1.748224e-02, 5.794844e-02, 4.594921e-02, -5.480430e-02, -3.314815e-02, -2.842563e-02, -5.722132e-02, 1.108926e-02, 3.346753e-02, -3.393856e-02, -6.218017e-02, -2.069607e-03, -1.289099e-04, 5.115919e-02, -5.353468e-02, -4.858062e-02, 1.392744e-03, 1.863752e-02, -2.658179e-02, -5.710687e-02, 6.837398e-04, -4.877560e-02, -9.778842e-03, 5.212808e-02, -2.168421e-02, 5.903888e-02, 6.144857e-02, -3.830286e-02, -1.956408e-02, 4.780193e-02, 2.877198e-03, 2.340639e-02, 4.552901e-03, -5.654033e-02, -2.545692e-02, 2.216212e-02, 9.677358e-03, 5.142874e-02, -6.191452e-02, 5.829618e-02, -3.250347e-02, -3.027228e-02, -4.505891e-02, 3.344798e-02, 5.926475e-02, 4.533317e-02, 6.027556e-02, 2.411872e-02, -2.039900e-02, 3.155783e-03, 5.716857e-02, -3.319018e-02, -4.487567e-02, 4.930748e-02, -3.374903e-02, 1.998082e-02, 4.064947e-02, -3.730522e-02, -2.970720e-02, -7.938549e-03, 7.942177e-03, -3.142614e-02, -6.331697e-03, -4.305774e-02, -5.976947e-02, 2.717263e-02, 1.587166e-02, -3.014872e-02, -5.891690e-02, -2.896357e-02, -4.627336e-02, 3.295304e-02, -5.584963e-03, -2.948695e-02, 4.716003e-02, 5.396705e-02, -3.477447e-02, -1.137483e-02, -1.725358e-02, 4.435586e-02, 2.660117e-02, 4.942024e-02, 5.744824e-02, 1.144959e-02, 5.144913e-02, -1.851007e-02, -6.352216e-03, 2.780499e-02, 3.807469e-02, -1.133785e-02, -2.938440e-02, -6.062548e-02, -5.972430e-03, 5.674034e-02, 4.193233e-02, 5.615276e-02, 3.075862e-02, -7.028058e-04, -2.401599e-02, 1.813761e-02, 2.802443e-02, 4.796229e-03, 4.528231e-02, -1.823329e-02, 6.177608e-02, -1.897088e-02, -2.002119e-02, -2.129342e-02, -3.657388e-02, -2.669682e-02, 1.213877e-02, -3.209996e-02, 5.475670e-02, -4.503066e-02, 5.967193e-02, 3.093647e-02, 1.771363e-02, -5.163581e-02, 4.440815e-02, -1.224464e-02, 3.244312e-02, 1.455528e-02, 2.685010e-02, 4.158287e-02, -3.368151e-02, 2.833218e-02, 4.410559e-02, 3.031372e-02, 1.177739e-02, -4.551718e-02, -2.516092e-02, 1.309524e-02, -2.784345e-02, 5.645090e-02, 1.059122e-03, 3.746667e-02, 1.885481e-03, -6.201299e-02, -2.615762e-02, 5.847416e-02, -3.994160e-02, 7.003307e-03, -2.227831e-02, 2.048645e-02, 2.292363e-02, 3.403321e-02, 5.512109e-02, 2.065545e-02, -5.220716e-02, 4.386499e-02, -1.099391e-02, -3.960325e-02, 2.867127e-02, -5.838433e-02, 4.079333e-02, -5.541146e-03, -3.452317e-02, 3.598706e-02, 3.539674e-02, -2.137913e-02, -3.546238e-03, 2.520066e-02, 2.638420e-02, -4.090475e-02, -4.883257e-02, 5.493102e-02, 3.689527e-02, 5.048458e-02, -5.457396e-02, -3.116667e-03, 1.369683e-02, -1.228371e-02, -5.171800e-02, -5.783921e-02, -4.696965e-02, 2.953387e-02, 5.578307e-02, -5.165630e-02, -1.599221e-02, -4.643120e-02, -2.441241e-02, -1.168472e-02, 2.825056e-02, 3.291702e-02, 4.665881e-03, 1.081152e-02, 4.564551e-02, -6.157578e-02, -3.447178e-02, -3.254028e-02, 3.810775e-02, 3.740265e-02, -2.884842e-02, 2.893256e-02, -3.303863e-02, 1.739410e-02, 5.948506e-03, -2.765914e-02, 1.435451e-02, 3.979970e-02, 2.773058e-02, 4.227950e-02, -5.724189e-02, 2.014159e-02, -1.909951e-02, 3.382396e-02, 3.810173e-02, 5.927244e-02, 5.774148e-03, 9.068370e-03, -2.089129e-02, -4.736202e-02, 6.078020e-02, 4.673754e-02, -5.214825e-03, -2.290124e-02, -3.204114e-02, 3.439135e-02, -4.106595e-02, 2.207173e-02, -5.472551e-02, -2.066123e-02, 1.519626e-02, -3.953044e-02, 5.974919e-04, 3.016723e-02, -8.231863e-03, 1.357515e-02, 3.197371e-02, -1.717609e-02, -2.617391e-02, 2.318130e-02, 8.278720e-03, 3.054313e-03, -3.932572e-02, -4.823951e-02, -2.703244e-02, 2.558262e-02, 8.908644e-03, 1.361722e-02, 2.062138e-02, 3.119323e-02, 5.948061e-02, 4.734698e-02, -2.207342e-02, -5.842626e-03, 2.664504e-02, -5.265693e-02, 5.995616e-02, -1.078577e-02, 1.017820e-02, -5.670086e-02, 2.670591e-02, 1.732245e-03, -5.327580e-02, 1.549250e-02, -6.012006e-02, -2.553596e-02, 3.426851e-02, 1.305672e-02, 1.100589e-02, 4.256673e-02, -8.852802e-03, 6.161447e-02, 5.551621e-03, 3.346503e-04, 5.664886e-02, 1.230000e-02, 5.735440e-02, 7.384211e-03, 8.329168e-03, 6.114648e-02, -3.982860e-02, -4.231507e-02, -1.403098e-02, 5.218759e-02, 2.813991e-02, -3.731229e-02, -5.714489e-02, 5.389272e-02, 1.508612e-02, 2.881780e-02, -4.555472e-02, 1.478478e-03, 3.237432e-02, 7.667273e-03, 5.653083e-03, -1.966701e-02, 4.752382e-02, 1.092702e-04, 4.378281e-02, 5.134233e-02, -4.432940e-02, 2.988748e-02, 4.583497e-02, -3.831100e-02, -4.699075e-02, -8.427881e-03, -2.886357e-02, 5.751632e-03, -6.169746e-02, -4.769653e-02, -3.334015e-02, 1.340862e-02, -1.214306e-02, 6.239180e-02, -4.351526e-03, -2.015437e-02, 4.182675e-02, 5.714145e-02, -1.364402e-02, 1.866267e-02, 1.549591e-02, 4.990968e-02, 3.777494e-02, -1.682445e-02, 4.060061e-02, -1.029819e-02, -3.953352e-02, -6.172293e-02, 3.940783e-03, -4.106991e-02, -1.249075e-03, 4.267674e-02, 4.149775e-02, -1.754714e-02, 5.492516e-03, -6.168458e-02, 1.092437e-02, 5.076649e-02, -5.632950e-02, 4.144758e-05, 4.486679e-02, 3.859767e-02, 4.596023e-02, 3.922670e-02, -3.393590e-02, 1.818558e-02, -4.804479e-02, 1.519635e-02, 3.756256e-02, -4.600956e-02, 5.497348e-02, 5.315582e-02, -2.177574e-02, 5.151002e-02, 2.627774e-02, -1.996653e-02, -3.248120e-02, -3.261098e-02, 1.396699e-02, 4.570007e-02, 5.388127e-02, -1.273392e-02, 2.025147e-02, 3.952274e-02, -5.699026e-02, -2.340970e-02, 3.458654e-02, 1.557055e-02, 5.568171e-02, -5.345362e-02, 4.859113e-02, 1.706257e-04, -5.069244e-02, -1.485509e-02, 3.432792e-02, -7.873386e-03, -1.843043e-03, 5.923792e-02, 3.135773e-02, 6.213702e-03, 1.834868e-02, 3.352793e-02, 1.763109e-02, -3.918707e-04, -2.729560e-02, -5.303077e-02, 1.027904e-02, -1.077269e-02, 5.164629e-02, 2.583015e-02, -2.803289e-02, -1.478052e-02, -1.118646e-02, -5.217288e-02, -1.703373e-02, -1.393709e-02, -6.089009e-02, 1.094729e-02, -2.872389e-02, 5.739108e-02, 1.792786e-02, -2.525295e-02, 5.075856e-02, -6.160521e-02, -3.205933e-03, 2.333584e-02, 5.190187e-02, -2.757090e-02, 4.389685e-02, 1.647967e-02, 1.259571e-02, 3.357307e-02, 2.688041e-02, 4.299353e-02, -6.053879e-02, 5.764558e-02, -2.851988e-02, -5.556211e-02, -4.630764e-02, -1.914778e-02, -2.521355e-02, -2.295049e-02, 1.582567e-02, 2.544307e-02, 3.791500e-02, -5.604764e-02, -3.039703e-02, 2.714272e-02, -5.212526e-02, 5.965674e-02, 2.125160e-02, -4.112877e-03, -3.295954e-02, 2.320305e-02, -4.705296e-02, -5.677594e-02, 1.445575e-02, 8.212194e-03, -1.898187e-02, 2.367549e-02, -2.280129e-02, -1.276805e-02, -4.479559e-02, -1.013305e-02, 4.864085e-02, 6.013312e-02, -3.949348e-02, 2.338569e-02, 2.521225e-02, -4.865859e-02, -1.525176e-02, 3.410180e-02, -1.742769e-02, 2.910030e-02, -4.816701e-02, -4.432805e-03, 4.680485e-02, 2.187724e-02, 2.888531e-02, 5.044823e-02, 3.456252e-02, 3.997257e-02, 3.098707e-02, -2.931796e-02, -2.436803e-02, 9.801745e-03, -3.494935e-02, 9.880513e-03, 6.612904e-03, -5.930552e-02, 5.941505e-02, 2.629757e-02, 4.386656e-03, 1.700772e-02, -4.454792e-02, 3.425271e-02, 3.443577e-02, 8.780412e-03, 4.097943e-02, -4.005689e-02, -5.065671e-02, 4.058706e-02, 2.383164e-02, 4.721242e-02, 5.652598e-02, 2.943160e-02, -3.198903e-02, 5.167924e-02, -3.704192e-02, -5.448681e-02, -5.415276e-02, -4.626653e-02, 1.835732e-02, 5.755959e-02, 2.121317e-02, -4.385464e-02, -2.230795e-02, 2.681918e-03, -5.693873e-02, -6.135292e-03, 2.447739e-04, -3.878530e-02, 1.036393e-02, -3.520228e-02, 1.477463e-02, -9.721473e-03, -5.434512e-02, 5.606757e-02, -2.769027e-02, -2.060688e-02, 1.565818e-02, -1.134732e-02, -4.203691e-02, 4.274887e-02, 6.171755e-03, 1.212323e-02, -2.948769e-02, -2.513155e-04, 6.897263e-03, -1.300178e-03, -1.049094e-03, -4.058309e-02, 3.679875e-02, 3.924102e-02, -1.637244e-02, 4.804540e-02, -6.124905e-02, 1.373537e-02, -3.578914e-02, 6.197052e-02, 2.203103e-02, -2.530870e-02, 4.302397e-03, 1.067988e-02, 1.018039e-02, -3.609761e-02, 2.200139e-02, 1.410369e-02, -3.055897e-02, -1.154157e-02, -5.587562e-02, -3.343150e-04, -5.359400e-02, -3.181645e-02, -3.036990e-02, -1.872832e-02, -1.151993e-02, 5.800968e-02, -6.954260e-03, -3.867910e-02, -4.434527e-02, -3.313255e-02, 6.045848e-02, 2.819607e-02, 1.946038e-02, -2.354583e-02, 5.067160e-02, 1.533376e-02, 3.312841e-03, 4.397912e-02, 1.231309e-02, 2.658513e-02, 3.465062e-02, -4.251887e-02, -5.199827e-02, 3.688966e-02, 1.008555e-02, 2.291432e-02, 5.072822e-02, 3.156592e-02, 1.790591e-02, 2.684437e-03, -4.392645e-02, 3.079168e-03, 9.430453e-03, 3.360579e-02, -3.485745e-02, -3.935781e-02, 2.514978e-02, 2.173726e-02, 4.751622e-02, -1.964504e-02, 3.666297e-03, -3.341939e-02, -5.044989e-03, 4.163852e-02, -6.993197e-03, -4.914328e-04, -4.325373e-02, -3.490666e-02, -2.461161e-02, -5.109233e-02, -7.150546e-04, 5.052292e-02, 8.284703e-03, -3.451288e-02, -4.588050e-02, 5.717429e-02, -5.494230e-02, 1.577185e-02, -5.923321e-02, 1.923116e-02, -1.366012e-03, -1.092716e-02, -2.606553e-02, 2.891552e-02, -3.444789e-02, -2.290529e-02, 1.416294e-02, 2.204818e-02, -2.087051e-02, -3.943462e-02, 1.857838e-02, -2.682753e-02, -3.335845e-02, 1.757647e-02, 3.099155e-02, 8.275807e-04, -2.160496e-02, 5.144659e-02, -1.101670e-02, -3.841497e-03, -7.305779e-03, 2.179715e-02, 5.826664e-02, -3.707065e-02, -8.107774e-03, -4.416924e-02, -2.499019e-02, -9.686641e-03, -4.762214e-02, -7.240765e-03, 4.421143e-02, 1.034769e-02, -4.539596e-02, -1.610400e-02, -4.325160e-02, -3.749244e-03, -2.517302e-02, -1.569934e-03, -6.211889e-02, -2.313168e-02, 4.406375e-02, 4.731301e-02, -1.916356e-02, -4.135107e-02, 3.399069e-02, -4.495911e-03, -4.028724e-02, -2.713023e-02, -2.485431e-02, 5.224756e-02, 7.889062e-03, 3.436864e-02, -3.674180e-02, 4.686069e-02, -1.400762e-02, 5.610950e-02, 5.606394e-02, -1.707405e-02, -5.993368e-02, 2.006640e-02, 2.326538e-02, -5.229566e-02, 4.482954e-02, -2.736241e-02, -4.880600e-02, 1.175662e-02, -6.116405e-04, -2.813295e-02, -5.113570e-02, -1.188261e-02, -5.088469e-02, 1.105253e-02, -1.656524e-02, -6.030007e-02, -2.466443e-02, -1.456703e-02, 1.260488e-02, 3.748487e-02, -4.812261e-02, -1.259647e-02, -1.743187e-02, -4.219105e-02, -5.403154e-02, -4.429010e-02, -5.721718e-03, -1.009031e-02, -4.031763e-02, 4.012837e-02, -2.717370e-02, -4.801713e-02, -4.111759e-02, 5.565245e-02, 2.048775e-02, 7.941931e-03, -1.487596e-02, 5.848055e-02, -1.037301e-02, -3.610282e-02, 2.968524e-02, 5.612469e-02, -6.914519e-03, 1.118223e-02, -3.399902e-02, 9.340495e-04, -1.158380e-02, -1.202054e-02, -5.987073e-02, 5.258831e-02, -5.092417e-02, -3.861841e-02, -1.001409e-02, 5.897081e-02, 5.688932e-02, 5.523286e-02, 3.850960e-02, 1.577895e-02, 4.589662e-02, 4.855206e-02, -4.323742e-02, 8.708291e-03, 4.972529e-02, 1.693030e-02, -5.128472e-02, -3.722109e-02, -4.379790e-02, -4.638395e-02, -4.594614e-02, -3.058856e-02, -1.184739e-03, 6.187064e-02, -4.925622e-02, 1.072910e-02, 1.210784e-02, -4.939176e-03, 3.316225e-02, -3.309375e-02, 3.770513e-02, -6.245398e-02, 5.278617e-02, -1.495364e-02, -2.881801e-02, 7.321090e-03, 2.531613e-02, -6.388567e-03, -6.024799e-02, 5.857690e-02, -9.824172e-03, -3.348306e-03, -1.281060e-03, 3.451671e-02, 5.586679e-02, 4.364786e-02, -5.444121e-02, -3.042862e-02, 3.445628e-02, -5.114143e-02, -4.727536e-02, 5.592418e-02, 2.621611e-02, -5.067562e-02, 2.099817e-02, -6.025344e-02, 3.634031e-02, 1.574851e-02, -3.829972e-02, 6.052128e-02, 5.845731e-02, 6.097010e-02, 3.577662e-02, 7.540211e-03, 3.567656e-02, -2.045685e-02, -2.101978e-02, 4.468156e-02, -4.536204e-03, -2.570592e-03, 3.920195e-02, 6.676517e-03, -7.764064e-03, 1.894876e-03, 5.848384e-02, -2.144753e-02, -2.631190e-02, 6.217667e-02, 3.977747e-02, 3.197536e-03, 5.566268e-02, 1.077037e-02, 4.233477e-02, 4.756251e-02, 4.527308e-03, -5.535270e-02, 2.685558e-02, -3.061666e-02, -5.317242e-02, 4.959682e-02, -8.964129e-03, -1.074959e-02, 5.783672e-02, -7.310346e-03, 5.041926e-02, 1.299085e-02, 4.176187e-02, -1.314309e-02, 8.576259e-03, 1.963094e-03, 5.773836e-02, -5.698270e-02, -1.522712e-02, -2.543843e-02, 2.373278e-03, 2.867191e-02, -3.134802e-03, -4.439583e-02, -1.891575e-02, -3.083004e-02, 5.142371e-02, -3.591275e-02, -5.553313e-02, 3.649624e-02, 4.634732e-02, 5.629769e-02, -3.271853e-02, 1.361094e-03, -4.203409e-03, 4.352438e-02, 6.965540e-03, 2.814651e-02, -5.558725e-02, -3.674931e-02, 2.777447e-02, 2.825030e-02, 1.598118e-02, -5.456007e-02, -3.759468e-02, 1.593868e-02, -3.997044e-02, 1.666949e-02, -4.031237e-02, 6.140061e-02, -3.494427e-03, 1.398500e-02, -6.685823e-03, 2.778063e-02, 6.086265e-02, 4.311445e-02, 2.493600e-02, -1.873342e-02, 4.217969e-02, -3.318772e-03, -4.287980e-02, 3.394189e-02, -3.240009e-02, 6.153879e-02, 3.884767e-02, -4.665457e-02, -5.452891e-02, -2.859892e-02, -1.656043e-02, -1.517528e-02, -2.261735e-02, -4.548222e-02, -2.640069e-02, -2.178452e-02, 3.381710e-02, 1.940306e-02, 2.943735e-02, 3.710818e-02, -1.963079e-04, -3.901526e-02, 1.311355e-02, -3.748856e-03, 9.032361e-03, -3.909690e-02, 3.546990e-02, 2.088286e-03, 1.767273e-02, 2.956509e-02, 5.871374e-02, 7.143110e-03, -3.020874e-02, -2.126878e-02, -9.220332e-03, 6.373659e-03, -2.828825e-02, -7.061176e-03, 1.752065e-02, 5.131873e-02, 3.192370e-02, 5.761273e-03, 4.734706e-02, 3.332068e-02, -1.869917e-02, 6.733447e-03, 2.106199e-02, 5.656896e-02, 2.863435e-02, 4.002331e-02, -4.600792e-02, 5.349758e-02, -5.098300e-02, 2.929307e-02, -5.989261e-02, 4.175732e-02, -2.600521e-02, -2.081826e-02, -8.727424e-03, 3.321032e-02, 3.435627e-02, -4.520147e-02, -1.676372e-02, -1.159366e-02, -1.371786e-02, -1.645771e-02, 5.214120e-02, 6.066144e-02, 5.604269e-02, 1.139794e-02, 3.319132e-02, -5.142713e-02, 5.511484e-02, 4.142670e-02, 5.141715e-02, -4.437903e-02, -4.281794e-02, -8.667938e-03, 1.887815e-02, -2.010183e-02, 5.916569e-02, -8.250922e-03, -2.242476e-04, -5.541531e-02, -4.701788e-02, 3.768811e-02, 3.929519e-02, 2.743138e-02, -3.118338e-02, -4.290156e-02, 4.522710e-02, 1.506084e-02, -3.935385e-02, -4.112252e-02, -1.836106e-03, -3.280094e-02, -5.673790e-02, -3.716101e-02, -2.781855e-02, -4.852811e-02, -5.980386e-02, 6.193649e-02, -3.808898e-02, -3.101416e-02, -4.350189e-02, -3.929801e-02, -1.978809e-02, -1.942308e-02, 3.642832e-02, 5.748519e-02, 1.665631e-02, -5.935550e-02, 4.882523e-02, 1.380957e-02, 1.631243e-02, -3.211250e-02, 2.633920e-02, 2.139115e-02, 4.787491e-02, 3.489359e-02, 9.445265e-03, -1.841624e-02, 6.208721e-02, -8.838542e-03, 1.599617e-02, -2.636538e-02, 2.407154e-02, 3.543101e-02, 2.360272e-02, -3.481507e-03, -6.066675e-02, -4.878613e-02, 3.081869e-02, -2.684413e-02, -5.920663e-03, -3.775239e-03, 1.710296e-02, -1.872110e-02, -1.562461e-03, 2.520584e-03, 1.531475e-02, 1.359112e-02, -4.299022e-02, 1.782874e-02, -5.541919e-02, 1.237250e-02, -2.843932e-02, -4.191497e-02, 3.999387e-02, -1.431808e-03, -4.496355e-02, -3.183231e-03, 4.749696e-02, -1.102003e-02, 5.313251e-02, -3.463232e-02, -5.999178e-03, 3.941502e-02, 5.213769e-02, 4.549538e-02, 5.304065e-02, -2.656631e-03, -3.498647e-02, -2.853390e-02, 6.673165e-03, 4.546124e-02, 4.008207e-02, 3.372507e-02, 3.302415e-02, 5.769643e-02, -6.216541e-03, -3.706340e-02, 1.253604e-02, 3.993669e-02, 6.101629e-02, 3.328475e-02, 3.276161e-02, 6.145478e-02, -5.512503e-02, 1.391351e-03, -4.156104e-02, 3.614699e-02, 8.339658e-04, 4.345302e-02, 5.997311e-02, -4.370683e-02, 4.648511e-02, 3.134230e-02, -1.058604e-02, -1.914298e-02, -4.170008e-03, -4.085329e-02, -2.864343e-02, -2.991796e-03, -4.935675e-02, -3.114313e-03, -5.469336e-02, 9.351023e-03, -4.152912e-02, 4.560001e-02, 5.882052e-02, -2.398054e-02, 2.579213e-02, 5.060863e-02, -5.968926e-02, -5.166691e-02, -6.100308e-02, -4.134012e-02, 2.842933e-03, -3.063463e-02, 9.960145e-03, 3.959880e-02, -5.097713e-02, 5.190684e-02, -3.686005e-02, -2.672150e-02, 6.101234e-02, -2.008296e-02, 2.679031e-02, -1.220121e-02, 5.283911e-02, -2.111776e-02, 1.969351e-02, -2.888092e-02, 4.617435e-02, -3.271149e-02, 4.464629e-02, 6.315388e-03, -4.610369e-02, 2.009758e-02, -4.975317e-02, -5.595230e-02, 4.443033e-02, -2.613433e-02, 1.170173e-02, -2.848894e-02, 1.508696e-02, -2.466121e-02, 3.740750e-03, 3.780349e-02, 4.368069e-02, 4.854819e-02, 3.554969e-02, 3.160278e-02, -9.536155e-03, 3.260742e-02, -4.917301e-02, 2.890622e-02, 5.424272e-02, 1.852334e-02, 3.288182e-02, 1.680579e-02, 2.848223e-02, -1.849322e-02, -5.672262e-02, 5.282366e-02, 3.370810e-02, -5.098154e-02, -5.900227e-03, -4.996598e-02, 9.871647e-04, 5.023795e-02, -3.524856e-02, 2.132681e-02, -1.070939e-03, -4.697002e-02, 3.800102e-02, 4.937880e-03, -9.033680e-03, 6.052358e-02, -4.937714e-02, 3.202476e-03, -5.645998e-03, 3.208640e-02, 4.566295e-02, -5.758730e-02, -6.055491e-02, -3.518349e-02, -1.512802e-02, -1.007593e-02, -5.310372e-02, 4.064365e-02, -9.710185e-03, -4.865061e-02, -4.805359e-02, 8.565046e-03, -4.454571e-02, 2.955163e-02, 1.968613e-02, 4.827219e-02, 3.111447e-02, -5.746182e-02, -3.378279e-02, 4.644543e-04, 4.126039e-02, 4.013991e-02, 5.278496e-02, 1.639070e-02, -1.348644e-02, -6.302036e-03, -4.384848e-02, -4.958242e-02, 3.985908e-02, -2.700554e-02, -5.395808e-02, 3.672776e-02, 8.858584e-03, 7.454216e-03, 5.474805e-02, -7.473283e-03, 2.387813e-02, -5.196892e-02, 2.552232e-02, -3.982733e-02, 6.027597e-02, 2.574798e-02, 4.442818e-02, -2.497467e-02, -6.147946e-02, 4.688406e-02, 1.002818e-02, -5.143269e-02, -1.150914e-02, -1.441055e-02, -1.006158e-02, 3.396649e-02, 3.028436e-02, 4.977446e-02, -4.010867e-02, 2.998523e-03, -3.136840e-02, 7.681727e-03, 1.652076e-02, 2.116430e-02, -5.226880e-02, -3.524259e-02, -1.709047e-02, 5.435892e-02, 3.291316e-02, -5.360618e-04, -3.436281e-02, 1.919582e-02, -5.740636e-02, -6.060529e-02, -4.747798e-02, 5.185396e-02, -7.225126e-04, 1.827144e-02, 2.401181e-02, 2.757184e-02, 1.796203e-02, 1.858654e-02, 6.241471e-03, -4.538574e-02, -3.579812e-02, -5.980822e-02, 5.410901e-02, -5.873016e-02, 6.192932e-02, 1.368468e-02, -3.554405e-02, 2.588010e-02, 1.731440e-04, -1.925802e-02, 1.160225e-02, 3.875748e-02, 3.360348e-02, -5.460394e-02, 5.078144e-02, 4.680674e-02, 1.227201e-02, -1.401106e-02, -5.774970e-02, -2.263808e-02, -4.380996e-02, 2.827044e-02, 5.416363e-02, -1.809546e-02, -1.075094e-02, -2.955913e-02, -5.401403e-03, -8.624405e-03, -4.507889e-02, 5.182043e-02, 4.765869e-02, -5.595666e-02, 5.786466e-02, -6.168641e-02, 6.084278e-02, 6.052657e-02, 1.949541e-03, -2.696060e-03, 3.561969e-02, 1.579235e-02, 3.502316e-02, -6.154865e-02, -2.591705e-02, 2.808787e-03, 5.670246e-02, 5.674566e-02, -1.702953e-02, 1.995653e-02, -4.219574e-02, 1.984871e-02, -1.946755e-02, 3.716317e-02, 5.753905e-02, 3.773796e-02, -1.126483e-03, 1.989102e-02, 1.840184e-02, -1.835241e-02, 4.645996e-03, -6.792620e-04, 4.940204e-03, -1.649114e-02, 1.668388e-02, -1.590570e-02, -5.934898e-02, 1.869158e-02, 4.598393e-02, -3.703614e-02, 5.761581e-02, 1.374617e-02, 8.139163e-04, -1.920494e-02, -4.471943e-02, 1.484323e-02, -4.919700e-02, 2.089309e-02, 6.078514e-02, 3.087265e-02, -7.791594e-03, 6.098498e-02, -2.035446e-03, -2.728841e-02, 4.066972e-02, -4.766010e-03, -2.201109e-02, 2.015094e-02, -4.076645e-02, 3.629886e-03, 3.955374e-02, 9.945661e-03, 6.865129e-03, 1.134656e-02, -3.407107e-02, 6.164887e-02, 2.356140e-02, 5.743183e-02, 3.465347e-03, -5.259870e-02, 5.467279e-02, 7.905111e-03, 5.075081e-02, 2.159418e-02, -2.601970e-02, -5.647451e-02, -4.162036e-02, 5.519951e-02, 1.428919e-02, 2.305441e-02, -2.241057e-02, -2.970879e-02, 6.086203e-02, -6.137161e-02, -4.170876e-02, -5.642683e-02, 2.091261e-02, -4.233592e-02, -1.430660e-02, -1.257534e-02, 2.011375e-02, -6.303340e-04, -2.770318e-02, 3.603875e-02, -6.209146e-02, -3.185172e-02, -5.749897e-02, 4.958432e-02, -3.180471e-02, 3.590206e-02, 4.846989e-02, -9.919874e-03, 3.157131e-03, -2.830666e-02, -3.847346e-02, -3.879639e-02, 2.737492e-02, 3.328723e-02, -5.932021e-02, -2.471527e-02, 2.053594e-02, 3.171998e-02, -4.947214e-02, 5.306425e-02, 3.841374e-02, 2.989804e-02, -1.215544e-02, 3.375306e-02, 1.986511e-02, 4.808902e-02, 2.904776e-02, -4.081366e-02, -5.198995e-02, -2.574665e-02, 2.810927e-02, -2.583861e-02, 7.454291e-03, -1.055330e-02, 5.033904e-02, 2.393897e-02, 2.815598e-02, -3.678998e-02, -4.557839e-02, -3.530958e-02, 4.263344e-02, -1.233768e-02, 2.207580e-02, -8.368768e-03, -5.169836e-02, 5.286372e-02, -2.198425e-02, 5.387174e-02, 3.363639e-04, 5.350978e-02, 4.079436e-02, 7.463194e-03, 1.234785e-04, 5.634686e-02, -3.915390e-02, 4.122730e-02, 1.917500e-02, -4.888915e-02, -1.950635e-02, 2.479900e-02, -1.887305e-02, 5.935963e-02, 6.129882e-02, -2.190098e-04, 4.659161e-03, 1.768640e-02, -3.364114e-02, 3.904103e-02, -5.384824e-02, 5.598151e-02, 4.004951e-02, -6.017993e-02, -1.746633e-02, 5.348727e-02, -5.028169e-02, -4.460579e-02, -6.008551e-02, 1.563597e-02, -5.850568e-04, -2.674849e-02, -4.817305e-02, -9.924062e-03, 1.020804e-03, 5.582143e-02, -4.226310e-02, 2.325871e-02, 7.253431e-03, 1.288056e-02, 2.101878e-02, -3.079243e-02, -2.412080e-02, 2.730779e-02, -3.472056e-02, -3.105215e-02, -2.538648e-02, -4.752135e-02, 3.393722e-02, -6.079443e-02, 4.481754e-02, 2.438495e-02, 4.789741e-02, 1.466617e-02, 1.677186e-02, 1.764437e-02, 3.081089e-02, 5.222481e-02, 2.785677e-02, -4.525078e-02, -4.062474e-03, 1.108720e-02, 3.653352e-02, -4.602028e-02, 2.896720e-02, 1.842281e-02, 7.637575e-03, 4.289129e-02, -9.152807e-03, -8.267000e-03, -2.786434e-02, -1.748276e-02, -4.222937e-02, 4.579620e-02, 3.323478e-02, -3.403760e-02, -3.291096e-02, -2.220146e-02, 6.070018e-03, 7.470921e-03, 1.982925e-02, -5.825651e-02, 7.111311e-03, 5.373996e-02, -2.321757e-03, -4.163615e-02, 5.334945e-02, 4.167578e-02, -2.968609e-02, 2.611339e-02, 4.515227e-02, -2.838933e-02, -3.969854e-02, 7.488258e-03, 5.764901e-02, -6.001168e-02, -4.964095e-02, 2.646971e-02, 1.175475e-02, -2.623519e-02, -6.047759e-02, -1.149184e-02, -3.785399e-02, -9.588733e-03, -6.066266e-02, -1.042527e-02, 5.927897e-02, -4.311656e-02, -4.501522e-02, 2.646650e-02, 4.619224e-02, 1.203897e-02, -5.462409e-02, 1.769712e-02, -5.618212e-02, 1.359714e-02, -1.927294e-02, -1.637788e-02, -4.662480e-02, 3.235671e-02, -6.429531e-03, -2.410245e-02, -2.559809e-02, 5.606083e-02, -4.449561e-02, 4.490171e-02, 5.319404e-02, -3.011016e-02, -4.544054e-02, 2.086619e-02, -5.464110e-02, -3.270473e-02, -4.026043e-02, -3.888096e-02, -2.255164e-02, 5.917922e-02, 4.617007e-02, 3.250059e-02, -4.660868e-02, 4.429369e-02, -2.718757e-02, -2.041517e-02, -5.106805e-02, 4.558577e-02, 6.350540e-03, -1.274166e-02, 3.212971e-02, -5.535887e-02, 2.711930e-02, -1.612256e-02, -1.551794e-02, 3.750292e-02, 5.928116e-02, -2.789399e-02, 3.566009e-02, -4.760677e-02, 1.928519e-02, 7.413834e-03, -4.243630e-02, -3.774879e-02, 3.930037e-02, -1.486972e-02, -3.591747e-02, -5.560526e-02, 2.373044e-02, 8.430034e-03, 3.722976e-02, 4.726269e-02, 3.999586e-02, 5.916522e-02, 1.358540e-02, 5.539295e-02, 1.038241e-02, 3.462259e-02, -3.487115e-02, -3.292079e-02, -3.628927e-02, 4.849905e-02, -4.767117e-02, 2.437714e-02, -6.046273e-03, 1.379739e-02, 4.260115e-02, 2.305126e-02, 3.512096e-02, -3.374003e-03, -3.381995e-02, -6.194687e-02, -2.950028e-03, 5.319203e-02, 1.700579e-02, -8.960187e-03, 8.424722e-03, 2.944974e-02, -3.944369e-02, 4.282952e-02, -4.919457e-02, 4.064209e-02, -2.981067e-03, 2.685836e-02, -1.472109e-02, -4.802818e-02, 1.067773e-02, -1.085237e-03, -8.387849e-03, -5.655856e-02, -5.981290e-02, -3.940843e-03, -5.567600e-02, 5.867729e-02, -3.781944e-02, -4.068521e-02, -2.577106e-02, -4.275277e-02, -1.258089e-02, 3.934067e-02, -2.172566e-02, 3.661576e-02, -4.567429e-02, -4.934222e-03, -9.927966e-03, -3.477976e-02, -3.087006e-02, 4.410487e-02, 4.238301e-02, 5.399735e-02, -2.768859e-04, -1.264635e-02, 1.208403e-02, 1.225399e-02, 5.024134e-02, 5.672801e-02, 5.974984e-02, 3.701952e-02, -3.355940e-02, 4.245353e-02, 6.249113e-02, -1.531161e-02, -4.011644e-02, -3.872284e-02, -1.596805e-02, -4.247127e-02, -5.415588e-02, -4.616585e-02, 1.263994e-02, -4.815310e-03, -5.094968e-02, 9.216428e-03, 3.544842e-02, 7.387064e-03, -3.567934e-02, -1.783222e-04, -3.137131e-02, -6.172653e-02, 5.613729e-02, 2.779381e-02, 1.728524e-02, 1.292106e-02, -5.289784e-02, 3.569688e-02, -5.372851e-02, -6.213786e-02, 5.836590e-02, -3.233249e-02, 7.455200e-04, -2.816793e-02, 1.840571e-02, -4.461042e-02, -5.188505e-02, 2.374797e-02, 4.162811e-02, -7.612564e-03, -3.639842e-02, 6.144685e-02, -1.489258e-02, 5.437918e-03, -6.114405e-02, -5.711134e-02, 3.974867e-02, -3.082553e-02, -2.638675e-02, -1.669866e-02, 5.793452e-03, -1.777292e-02, -2.152925e-02, -1.795536e-02, -1.865707e-02, -1.371122e-02, 4.783199e-02, -3.583892e-02, -1.300922e-02, -4.505937e-02, -2.852707e-02, 5.487242e-02, 1.392610e-02, -8.545965e-03, -4.959178e-02, -4.990368e-02, -4.586953e-02, 2.421580e-02, 5.794024e-02, -6.203993e-02, 8.275434e-03, -1.875050e-03, -2.485881e-02, 3.051899e-03, 4.036963e-03, 5.012480e-02, -2.924725e-02, -2.001534e-02, -4.952400e-02, 4.818625e-02, 6.043496e-02, 5.972699e-02, -6.108690e-02, 3.235896e-02, 3.702011e-02, -1.511164e-03, -9.347253e-03, -6.090973e-02, 5.215716e-02, -3.199124e-02, -5.769694e-02, -3.806642e-02, 9.772822e-03, 1.250476e-02, -9.412184e-03, 3.005251e-02, -1.842214e-02, -4.510769e-02, -3.384475e-02, -2.263879e-02, -4.929353e-02, 1.024653e-02, 5.659007e-02, 3.955752e-03, -2.244689e-02, 4.618226e-02, 4.178277e-02, 3.310025e-02, -1.785142e-02, 5.366374e-02, -1.597062e-02, -6.856337e-03, -2.711263e-02, -5.504213e-02, 7.992990e-03, -3.538095e-02, 3.728442e-03, 4.119015e-02, 5.492938e-02, 1.657480e-02, -1.558879e-02, 4.243273e-02, -4.840351e-02, 4.108994e-02, 3.270920e-02, -6.169662e-02, 3.174639e-02, -4.189981e-02, 6.924734e-03, -5.985633e-02, -2.452804e-02, -4.468685e-02, 4.440391e-02, -2.429463e-02, 2.879406e-02, 1.921747e-02, -2.405251e-02, -2.565000e-02, -5.604609e-02, -7.388443e-03, -5.465612e-02, 3.734820e-03, -1.591772e-02, -2.419418e-02, 3.922435e-02, 4.717092e-02, 6.074157e-02, -5.186568e-02, -1.877751e-02, 1.311791e-02, -3.904641e-02, 3.222757e-02, 5.749886e-02, -3.931581e-02, -4.209642e-02, 1.150467e-02, 4.407339e-03, -3.576678e-02, 5.267952e-02, 5.729586e-03, -5.532650e-02, -3.821212e-02, -5.303767e-02, 3.486759e-02, -1.577859e-02, -6.172848e-02, 2.460526e-02, -4.642203e-02, -5.891675e-02, -3.474645e-02, 1.417451e-02, -5.040944e-02, -3.034831e-02, -5.199870e-02, -4.600015e-02, 5.667670e-02, -6.202743e-02, 5.213588e-03, 4.428761e-02, -4.016201e-02, -1.357140e-02, -3.343975e-02, 3.654196e-02, 8.594766e-03, 1.246580e-02, -1.606751e-02, 3.090911e-03, 2.888381e-02, 7.238090e-03, -4.495489e-02, 3.565382e-02, -4.978216e-02, -3.318001e-02, 1.093727e-02, 3.824681e-04, -4.658636e-02, 1.654210e-02, -3.124058e-02, 4.389941e-02, -1.253965e-02, -3.143091e-02, -3.951361e-02, 5.864267e-02, -2.227189e-02, 3.997989e-03, -1.510780e-02, 3.440484e-03, 3.202379e-02, -2.982473e-02, -5.536050e-02, -5.467594e-03, 5.033892e-02, 5.767509e-02, 1.779737e-02, 3.528625e-02, 4.384730e-02, -1.316018e-02, -2.268744e-02, 3.945232e-02, -2.845794e-02, 4.889662e-02, 1.618070e-02, -1.577520e-02, -3.673662e-02, -3.891824e-02, 5.067675e-02, -5.674804e-02, -5.266783e-02, -4.410398e-02, 2.235300e-02, 1.937930e-02, -1.909591e-02, 5.386876e-02, -5.114959e-02, -1.045770e-02, -3.681226e-02, 5.011440e-02, -3.865258e-02, 1.269925e-02, 2.257960e-02, 4.889312e-02, 4.874170e-02, 5.009817e-02, 4.292148e-02, 5.642805e-02, -1.745150e-02, 4.703412e-02, 1.002312e-03, 3.802599e-02, 2.222078e-02, -3.681205e-02, 4.574443e-02, 4.424481e-02, 2.385692e-02, 9.066842e-03, 1.358513e-02, -2.127628e-02, 5.792543e-02, -3.079372e-02, 4.293572e-02, -2.966751e-02, 4.591249e-02, 2.919579e-02, -1.238443e-02, -1.821677e-02, 6.146543e-02, 6.391481e-04, -3.202760e-02, 5.968732e-02, -2.166317e-02, 7.097334e-03, 3.652520e-03, -5.562124e-02, 2.573778e-02, -6.081720e-02, -3.188983e-03, 4.474899e-02, -2.169665e-02, -3.939672e-02, 1.963732e-02, 4.079022e-02, 5.620927e-03, -3.558163e-02, -4.030866e-02, -7.167779e-03, 1.257467e-02, 4.090476e-02, -4.383188e-02, -4.704818e-02, -4.587656e-02, -9.841047e-03, -3.583498e-02, -3.014106e-02, 2.885097e-02, 8.946531e-03, 4.377207e-02, -8.060828e-03, 4.590730e-02, 3.766424e-02, 3.089853e-02, -6.094249e-02, -5.180494e-02, -7.294767e-03, -8.603938e-03, 4.496432e-02, 3.643520e-03, -2.383789e-02, -3.835870e-02, -8.789800e-03, 6.170580e-02, -3.892358e-02, 1.562059e-02, 5.132472e-02, -2.189707e-02, -2.491445e-02, -4.246338e-02, 1.954933e-02, 1.999624e-02, -3.053246e-02, -6.234656e-02, 8.601293e-03, 3.564499e-02, -2.753799e-02, -3.670633e-03, -1.367658e-02, 1.356135e-02, -4.019009e-02, 4.682433e-02, -1.055840e-02, -2.053659e-02, 3.527951e-02, -5.495590e-02, 1.776043e-02, -6.016439e-02, -1.037680e-02, -5.476401e-02, 4.553743e-03, -1.345357e-02, 6.672487e-03, -3.791954e-02, -6.035283e-02, -1.415495e-02, 3.717924e-02, 7.028967e-03, -2.795403e-02, -1.024381e-02, 1.171299e-02, -4.811941e-02, -1.307659e-03, 1.071095e-02, -3.929409e-02, -1.237407e-02, 2.319403e-03, -6.700449e-03, 2.338030e-02, -5.114231e-02, 5.818227e-02, -2.404298e-02, 5.943189e-02, 2.088885e-02, -2.566156e-02, 1.598627e-02, 3.189945e-02, -3.538452e-03, 1.668334e-04, 1.253672e-02, 4.788042e-02, 4.590075e-02, -4.578403e-02, 4.544905e-02, 5.587664e-02, 2.518728e-02, 4.871378e-02, -5.088291e-02, 5.948967e-02, -3.143462e-02, 4.209711e-02, 2.100360e-02, 4.778513e-02, -4.727972e-02, -3.579639e-02, 1.260677e-02, 1.286536e-02, -4.098949e-02, -6.073659e-02, 4.315267e-02, 3.402643e-03, 4.989438e-03, -4.687500e-02, 3.042492e-02, 1.314411e-02, 5.660164e-02, -6.027497e-02, 2.818102e-02, -6.233709e-02, -3.118951e-02, -5.188374e-02, -3.968820e-03, -4.871535e-02, -5.291669e-02, 9.404831e-03, -6.074875e-02, -5.757157e-02, -5.003467e-02, 3.663044e-02, 3.216809e-02, -1.082794e-02, -4.568321e-02, 5.033631e-02, 4.175978e-02, -4.169725e-03, 1.616314e-03, -1.153282e-02, 2.156170e-02, -3.066326e-02, -1.918119e-02, -3.816725e-02, 3.977923e-02, 1.247166e-02, -5.834477e-02, -1.967326e-03, -5.219862e-02, 2.592529e-02, 2.853810e-02, -6.490417e-03, 5.630330e-02, -3.231505e-02, 5.763978e-03, 3.769368e-02, 1.296061e-02, -2.427726e-02, 7.180445e-03, -3.200432e-02, -1.937203e-03, 1.663122e-02, 9.419538e-03, 3.187757e-02, 1.061761e-02, 2.896728e-02, 1.300412e-02, 5.886339e-02, 3.203814e-02, 1.048379e-02, -2.360132e-02, -2.890337e-02, 1.088960e-02, -1.765378e-02, 1.390608e-02, 4.724352e-02, -2.128475e-02, 5.001658e-02, 3.286302e-04, 4.303183e-02, 4.575783e-02, -2.519686e-02, 3.323689e-03, 5.077010e-02, -1.558194e-02, 2.384523e-02, 4.738233e-02, -5.675302e-02, -5.007603e-02, -2.239516e-02, -2.196698e-02, -2.068959e-02, -2.367598e-02, -5.901261e-02, 5.585103e-02, -5.068320e-02, 5.617639e-02, -5.481479e-02, -1.905718e-02, 3.748447e-02, 5.049119e-02, -5.105039e-02, -1.691781e-03, 5.355708e-03, -1.568329e-02, -4.730936e-02, -1.895745e-02, 3.656575e-02, 3.341270e-02, -5.013105e-02, 1.783095e-02, -1.115625e-02, 3.900828e-02, -9.334534e-03, 2.291074e-02, 2.124211e-02, 8.464821e-03, -4.420766e-02, 2.510298e-02, -4.221258e-02, 4.943403e-02, 6.352440e-04, 6.027527e-03, 3.827661e-04, -4.159722e-02, 7.089369e-03, 2.008341e-03, -3.875401e-02, -2.290405e-02, -5.949221e-02, 3.112477e-02, -2.128845e-02, 2.105992e-02, -4.423872e-02, -8.553490e-04, -4.948294e-02, 9.802580e-03, 4.657385e-02, -4.620130e-02, -1.598813e-02, -3.034406e-02, 3.564952e-02, 8.079626e-03, 5.988292e-03, -3.366058e-02, 3.617278e-02, -3.938662e-02, 2.305217e-02, -4.778740e-02, -3.655322e-02, 2.615432e-02, -4.087273e-02, -6.081843e-02, -5.765568e-02, -1.020431e-02, 4.289873e-03, 4.752756e-02, -3.542959e-02, 3.199594e-02, -1.326114e-03, 4.149660e-03, 3.757562e-02, 2.111074e-02, 1.712935e-02, -9.252697e-03, 8.134983e-03, 4.286002e-02, 3.347152e-02, 4.184566e-03, 2.552367e-02, 5.506229e-02, -5.787896e-02, 4.859583e-02, 3.633152e-02, -5.033745e-02, -1.870545e-02, 9.297706e-03, 1.957198e-02, -1.644768e-02, 5.383790e-05, 5.625863e-02, -3.798850e-02, 3.709679e-02, 8.097894e-03, 1.703314e-02, -4.242280e-02, -5.586355e-02, 2.623126e-02, 5.770195e-02, -1.589770e-02, -3.904793e-02, -1.262219e-02, 4.146030e-02, -6.065539e-02, -4.874914e-02, -5.819439e-02, 2.491191e-03, -2.784179e-02, 1.005583e-03, 9.088099e-03, -4.970526e-02, 1.212196e-02, 1.926266e-02, -2.777956e-02, -4.189761e-02, -1.267447e-02, 2.240907e-02, -3.438742e-02, 3.777102e-03, -1.194902e-02, 5.327561e-02, 5.987982e-02, 1.913510e-02, 4.515672e-02, 1.584592e-02, 3.589526e-02, -4.618748e-02, -5.711748e-02, 1.889712e-02, -5.038021e-02, 1.005831e-02, -2.275693e-02, -4.936961e-02, 4.398184e-02, 4.749815e-02, -3.416224e-02, -1.577672e-02, -5.094568e-02, 4.672106e-02, -5.568051e-02, 4.581580e-02, -2.612648e-02, -6.077785e-02, -2.636890e-02, 3.549195e-02, 1.975168e-02, -4.319018e-02, -5.810937e-02, 1.836912e-02, -5.945719e-02, 3.448240e-02, 5.246513e-02, -4.661489e-02, -4.321525e-02, 3.773902e-02, 5.572721e-02, 4.980931e-02, -1.398001e-02, -3.612152e-02, 2.397082e-02, 7.814862e-03, -1.600752e-02, -5.850136e-02, 4.395887e-02, 1.157907e-02, 4.069041e-02, 3.102699e-02, -4.007783e-02, 4.365079e-03, -2.292454e-02, 5.764402e-02, 2.166378e-02, 4.246159e-02, 3.558680e-02, -4.489592e-02, -1.925624e-02, 3.057344e-02, 3.146636e-02, 3.678437e-02, 3.901394e-02, 2.126816e-02, 1.524638e-02, -5.765384e-02, -1.435153e-03, -1.000227e-02, 3.650191e-02, -3.369048e-02, 4.530875e-02, -4.760323e-02, 3.980763e-02, 4.553154e-03, 7.287323e-03, -1.140322e-02, -5.928127e-02, -3.398720e-02, -1.621470e-03, 5.979414e-02, -9.925842e-03, 9.210259e-03, 5.199900e-02, 3.017665e-02, -5.461147e-02, 1.548760e-02, -4.553799e-02, 3.820024e-02, -1.732037e-02, -2.488563e-02, -3.827561e-02, -2.411141e-02, -8.402094e-04, 4.786266e-02, 1.865847e-02, -4.901797e-03, 1.437072e-02, 3.695238e-02, 3.393596e-02, 1.856881e-02, -2.880851e-02, 4.123355e-02, 5.208863e-02, -4.641994e-02, -1.001985e-02, 6.230378e-02, -4.427341e-02, -3.765903e-03, -1.688473e-02, -7.212602e-03, -6.060554e-02, 1.657606e-02, -3.771880e-02, -5.810083e-02, -1.270567e-02, 2.575209e-02, 3.703503e-02, 2.560175e-02, -5.827988e-02, -5.797349e-03, -5.883165e-02, 3.856835e-02, -5.469017e-02, -6.896868e-03, -2.684844e-02, 5.923238e-02, 4.991499e-02, -5.903519e-02, 3.126040e-02, -8.169942e-03, 4.174151e-02, 4.298338e-02, 9.176061e-04, -6.156600e-02, 2.254345e-02, -3.719942e-02, -4.547726e-02, -5.264650e-02, -2.491775e-02, -4.450390e-02, -9.851888e-03, 2.406200e-02, -5.645339e-02, -5.237652e-02, 1.775022e-02, -4.557708e-02, -3.554758e-02, -4.861907e-02, 2.745611e-02, -5.456574e-03, 4.873864e-02, -3.041245e-03, 1.754004e-02, -3.911805e-02, -3.866488e-02, 4.490375e-02, 2.442628e-02, -3.720345e-02, -6.144588e-02, 5.086071e-02, 2.273887e-02, 1.561466e-02, 5.174126e-02, -5.431501e-02, 4.915537e-02, 4.283016e-02, 2.995148e-02, 6.607339e-03, -5.273183e-02, 3.819532e-02, 8.072406e-04, 5.862051e-02, -6.116839e-02, -3.696290e-02, 5.324715e-02, -3.850170e-02, -1.596349e-02, -3.976899e-02, 2.607059e-02, 4.716060e-02, 2.048968e-02, -5.324585e-02, -5.319889e-02, -4.328240e-02, 4.905456e-02, 5.062681e-02, -5.321161e-02, -2.631728e-02, 1.847970e-02, 3.362300e-02, -5.832520e-02, 3.726748e-02, -5.832426e-03, -1.603445e-02, 2.175063e-02, -2.004628e-02, 4.340746e-02, -5.222925e-02, -1.103764e-02, -1.777287e-02, -1.103605e-02, 5.142745e-02, -1.886672e-02, -3.716572e-02, 1.439199e-03, -3.685731e-02, -1.967768e-02, -7.216498e-03, -5.253363e-02, 4.704166e-02, -5.503543e-02, -2.892405e-03, -3.103896e-02, 3.767227e-02, 1.453248e-02, 5.404811e-02, -5.680513e-02, -2.217796e-02, 1.816718e-02, 3.651427e-02, -6.032347e-02, -1.966055e-02, -3.824917e-02, 7.657304e-03, 5.046453e-02, 3.416911e-04, 2.143411e-02, -4.342780e-02, 6.724752e-03, -2.227866e-02, 3.886463e-02, 5.156969e-02, 1.211165e-02, -4.217856e-02, -4.152016e-02, 4.487652e-02, 4.749382e-02, -3.393815e-02, 2.919221e-02, -6.160628e-02, -5.706184e-02, 2.128007e-02, 1.028552e-02, -2.325827e-02, 9.901233e-03, -2.073890e-02, -2.277235e-02, 7.975094e-03, 5.025426e-02, -5.224478e-02, 2.563916e-03, -1.516324e-02, -1.394293e-02, -1.319138e-02, -2.635343e-02, 1.193438e-02, 2.911378e-02, -4.331617e-02, 2.020719e-02, -1.763732e-02, 5.622781e-02, -4.374279e-02, -5.848588e-02, 3.443835e-02, 1.093788e-02, -4.659937e-02, -3.219359e-02, 1.176687e-02, -6.094659e-02, -6.142510e-02, -2.186181e-02, 4.123107e-02, -3.750761e-02, 4.354177e-02, 1.879063e-02, 2.079423e-02, -2.569683e-03, 1.205333e-03, 3.469002e-02, 3.050595e-02, 1.520439e-02, 2.815347e-02, -5.621885e-02, -2.999560e-02, 3.129589e-02, 3.859389e-02, 3.832235e-02, -5.761538e-02, -2.051390e-02, 4.393943e-03, -3.463626e-04, 5.784294e-02, -1.556339e-02, -4.865743e-02, 5.852600e-02, 8.791536e-04, -2.679011e-02, -8.402400e-03, -3.461115e-02, 2.298328e-02, 3.615911e-02, -5.538324e-02, 6.122737e-02, -2.225375e-02, 6.219278e-02, -8.843482e-03, 1.160809e-02, -2.660473e-02, -2.029835e-02, 2.405184e-02, 4.956216e-02, 2.538525e-02, 5.913141e-02, 1.494075e-02, 2.639834e-02, -4.132262e-02, -1.855713e-02, -4.857267e-02, 4.610086e-02, -9.686910e-03, -2.134987e-02, 1.917081e-02, 6.189219e-02, 3.123616e-02, -6.406754e-04, -4.348113e-02, 2.046908e-02, 4.201110e-02, 1.235428e-02, 2.942324e-03, 7.843316e-03, -5.901148e-02, 3.934660e-02, 3.296129e-02, 8.465245e-03, 2.184942e-02, 4.086666e-02, 1.041537e-02, 3.061582e-02, 1.441112e-02, -2.057271e-02, -4.153289e-03, 5.941310e-02, 3.559546e-02, 3.506477e-02, 7.190354e-03, 5.642944e-02, 2.496881e-02, 3.815144e-04, 5.229022e-02, 2.468072e-02, 8.479685e-03, 4.491236e-02, 2.073081e-02, -3.928150e-02, -3.689019e-02, 5.667743e-02, -2.261662e-02, -3.312609e-02, -1.867645e-02, 5.485328e-02, -2.180930e-02, 4.695665e-02, 2.743245e-02, -1.745809e-02, -2.685153e-02, -2.359828e-02, -2.926799e-02, -1.885763e-02, 3.967900e-02, 6.201750e-02, 1.716276e-02, -5.033370e-02, 8.066155e-03, 3.981123e-02, -1.295733e-02, 3.188001e-02, -5.798531e-02, 4.468288e-02, 1.320203e-02, -4.910050e-02, -2.875450e-02, 3.356409e-02, -3.552777e-02, -2.357261e-02, -5.055399e-02, 4.416667e-02, -3.732333e-02, -3.593381e-02, 5.344841e-02, 6.197803e-03, 1.216053e-02, -2.195970e-02, -7.952578e-03, 3.028936e-02, 5.388808e-02, 5.970620e-02, 4.987066e-02, -3.972407e-02, 4.264962e-02, -4.109994e-02, 5.358828e-02, 5.592330e-02, 9.618342e-03, -1.399276e-02, -2.545161e-02, -5.534075e-02, -2.735274e-02, -8.360155e-03, -2.533712e-02, -3.735594e-03, -3.011767e-02, 5.607853e-02, -6.015276e-02, 2.519691e-02, 3.662501e-02, 1.064757e-02, 1.037174e-02, -5.467958e-02, 3.416299e-02, -2.394131e-02, 6.184470e-02, -5.293220e-02, 1.514421e-02, 1.553212e-02, 5.733580e-02, -5.340353e-02, 3.488523e-02, 6.018282e-02, -3.096858e-02, 4.279600e-02, -5.327643e-02, 3.169769e-02, 5.499344e-02, 3.670529e-02, 3.639798e-02, 4.214989e-02, -7.335506e-03, 2.413902e-02, 1.969225e-02, -3.897168e-02, -1.700236e-02, 2.033598e-02, 2.128310e-02, -1.496956e-02, 4.080847e-03, -6.164085e-02, 5.407275e-02, 8.282132e-03, 3.329806e-03, -4.718060e-02, 5.426653e-03, -3.590416e-02, 2.358081e-02, -5.007655e-02, 2.808720e-02, -4.478768e-02, 6.065041e-03, -5.035344e-02, -2.660815e-02, -5.111411e-02, -1.976537e-02, 1.841857e-02, -2.314457e-02, -5.046682e-02, 1.263140e-02, -3.180936e-03, 4.472573e-02, 5.545270e-02, 5.353358e-02, 3.876800e-02, 2.528198e-03, 1.898190e-02, -3.810740e-02, -1.669649e-02, 1.344883e-02, 6.141973e-02, 4.721398e-02, -3.574741e-02, 6.100177e-02, 5.673964e-02, -5.037537e-02, 7.014863e-03, 5.491979e-02, 1.244830e-02, -5.564009e-02, -4.153939e-02, -2.582265e-02, 4.088745e-02, 1.852898e-02, 5.629480e-03, 2.308907e-02, 2.142787e-05, 4.337366e-02, -1.630458e-02, -2.269030e-02, -4.982955e-02, 5.383839e-02, 5.930571e-02, 5.913571e-02, 1.802276e-02, 5.650994e-02, -2.968203e-02, -6.952360e-04, 5.435489e-02, -2.266806e-02, -2.121513e-02, 5.789365e-02, -2.129500e-02, -5.954467e-02, -1.969657e-02, -3.556033e-02, 5.583624e-02, -2.172479e-02, -7.568598e-03, 5.867982e-02, -2.049699e-02, -1.405843e-02, 9.153262e-04, 7.046342e-03, -2.076466e-02, 2.351984e-02, 2.318624e-02, 5.502012e-02, -5.890773e-02, 3.413180e-02, -5.549192e-02, 3.247774e-02, -5.438365e-03, 4.713990e-03, 2.190264e-02, -2.346485e-02, -5.271205e-02, -6.146765e-02, 1.322053e-03, -1.495450e-02, 8.020394e-03, 2.527370e-02, -3.887079e-02, -1.667450e-02, -4.708399e-02, -2.026670e-03, -5.118959e-02, -7.265061e-05, 3.514633e-02, 2.113322e-02, -1.004036e-02, -3.393218e-04, -3.743246e-03, -6.382607e-03, 4.747231e-02, 1.101872e-02, -2.095029e-04, -5.258125e-02, 2.934222e-02, 2.662583e-02, 2.571887e-02, -1.448766e-02, -2.765089e-02, -3.437576e-02, 3.261124e-02, -3.858262e-02, 5.999366e-02, -3.225592e-02, -1.190016e-02, 3.525461e-02, 3.541526e-02, 5.669051e-02, -3.065980e-02, 5.012432e-02, -4.921008e-02, 4.777528e-02, -3.110780e-02, -5.334437e-03, 2.477512e-03, 3.328042e-02, -5.858060e-02, 6.094835e-02, -3.344490e-02, -3.088663e-02, -8.686237e-03, 1.218933e-02, -5.740922e-02, -2.386522e-02, 2.460852e-02, 5.221401e-02, -3.461643e-02, 1.726477e-02, -2.139060e-02, 8.901574e-03, -5.644304e-02, -4.816455e-02, 2.591088e-02, -4.188063e-02, -1.695848e-02, 4.150464e-02, -2.256040e-02, 2.064312e-02, 5.783043e-02, -2.517775e-02, 4.339499e-02, 2.322173e-02, -4.097761e-02, 1.556027e-02, -1.613955e-02, 4.791179e-02, -2.339996e-02, 3.279140e-02, -2.399683e-04, -1.269615e-02, -3.006294e-02, -5.940175e-02, -5.417240e-02, 4.251599e-04, 1.085497e-03, -3.156230e-03, 1.011962e-02, -1.594125e-02, -6.243519e-02, -5.138121e-02, -2.850453e-02, -3.902769e-02, -5.563000e-02, -3.543481e-03, -1.274918e-02, 3.493328e-02, 3.459802e-02, -1.299395e-02, 8.180775e-03, -2.944960e-02, -3.207169e-03, 4.910875e-02, 1.638993e-02, 3.215914e-02, -5.302902e-02, -1.247771e-02, 2.230611e-02, 3.731536e-02, -4.985087e-03, 2.151080e-02, 3.853887e-04, 1.411974e-02, -5.920783e-02, -1.988230e-02, -2.244152e-02, -2.118678e-02, 5.596797e-02, -4.862703e-03, 2.139345e-03, 1.703197e-02, 3.501311e-03, 3.620897e-02, -1.713393e-02, 5.955179e-02, -4.427607e-02, 2.807084e-02, 4.438860e-02, -3.574079e-02, 8.275941e-03, 5.854626e-02, -1.027896e-02, -5.751798e-02, -5.009853e-02, -4.801863e-02, 5.557445e-02, -2.855247e-02, -8.627176e-04, -5.230232e-02, 2.485291e-02, -1.184645e-02, 3.535164e-02, 3.541502e-02, 1.642082e-02, -3.038672e-02, -5.269992e-02, -4.834866e-02, -3.854355e-02, -3.660762e-02, 2.277128e-02, 2.002931e-02, 3.609631e-02, 4.539363e-03, -4.678544e-02, 5.296408e-02, 3.826589e-02, 3.447782e-02, 6.109428e-02, -3.053227e-02, 5.419157e-03, -2.327973e-02, 3.233536e-02, 1.810747e-02, -1.182830e-02, -5.033059e-02, 3.723285e-02, -1.380287e-02, 2.394932e-02, 3.798214e-02, -4.088937e-02, 3.240521e-02, 2.838759e-02, 5.518513e-02, -5.079702e-03, 9.925537e-03, 2.327193e-02, 2.085936e-02, 3.854356e-02, 4.306326e-02, -1.501398e-02, -2.683968e-02, 1.094542e-03, 6.636210e-03, 1.023337e-02, -1.560982e-02, -6.083237e-02, 2.123721e-02, 3.956298e-02, 4.825379e-02, 5.814686e-03, -4.741697e-02, 3.931856e-02, 4.268972e-02, 4.899719e-02, -1.533403e-02, -6.164201e-03, -1.471630e-02, 5.169348e-02, -4.694021e-02, 4.231539e-02, -5.461295e-02, 2.211624e-02, -1.896152e-02, -2.213421e-02, -4.676002e-02, -4.516594e-02, -9.503439e-03, 5.933158e-03, 6.408215e-03, -3.207648e-02, -2.690232e-02, -6.177229e-02, -1.247130e-03, -4.861005e-03, 1.008748e-02, 3.853365e-02, 3.129262e-02, 3.555876e-02, 1.379725e-02, 6.235133e-02, 4.809982e-02, 3.982283e-03, 4.907054e-02, -5.875972e-02, 3.105091e-02, -5.272482e-02, -2.175968e-02, 5.180253e-02, 5.672909e-02, 1.589459e-02, -1.620434e-02, 3.643453e-02, -1.253143e-02, 4.798102e-02, 1.308098e-02, -5.485351e-02, -3.710921e-02, 1.645196e-02, -5.162516e-02, -2.744886e-02, -5.328912e-02, 5.929100e-02, 4.159166e-02, -1.693892e-02, 6.074414e-02, -2.220161e-03, -3.200580e-02, 7.558636e-03, -5.126422e-02, 3.856611e-02, 2.419725e-04, 6.070733e-05, -4.324159e-02, 1.102276e-02, -4.798559e-02, -2.546221e-02, -6.163529e-02, -2.217139e-02, -1.694950e-02, -3.461257e-02, -2.331410e-02, -2.056994e-02, -1.778838e-02, -1.318112e-02, 4.601911e-02, -2.217422e-02, 2.574331e-02, 2.741534e-02, -5.360385e-02, -4.499599e-03, 8.204378e-03, 1.361205e-02, 4.139456e-02, -5.118263e-02, -2.811488e-02, -5.941579e-02, -1.376132e-02, 3.109901e-02, 2.261443e-02, -3.001166e-02, -2.597786e-02, -2.543911e-02, 1.734962e-02, -2.972075e-02, -1.252086e-02, -3.399352e-02, 3.843804e-02, -2.853744e-02, 2.826909e-02, -1.994251e-02, -1.748417e-02, 1.520559e-03, 2.951848e-02, 4.243465e-02, -1.665966e-02, 5.729239e-02, -5.586544e-02, 3.598599e-02, -2.387021e-02, -7.839881e-03, 5.802643e-02, -1.656494e-02, -3.940807e-02, -4.097287e-02, 3.931716e-02, 2.757850e-02, -1.525035e-02, -3.911375e-02, -1.427153e-02, -1.389207e-02, -3.061166e-02, -4.474059e-02, -2.066715e-02, 2.629172e-02, -5.519523e-02, -9.434119e-03, 4.865707e-02, 4.363823e-02, -1.659173e-02, -7.085666e-03, -6.116921e-02, -2.827177e-02, -6.973945e-03, 5.567476e-02, -5.326951e-02, 2.995896e-02, 3.490309e-02, -2.307487e-02, -1.964141e-02, 4.187372e-02, -3.374152e-03, -1.061112e-04, 6.592073e-03, 3.160446e-02, -5.371011e-02, 2.646503e-02, 5.445734e-02, -6.106556e-02, 4.972703e-02, -5.894578e-02, -1.205108e-02, 4.350231e-02, 8.800685e-03, -2.334908e-03, -6.917104e-03, -1.076909e-02, -1.358260e-02, 5.635247e-02, -5.918282e-02, 4.865712e-02, -5.483168e-02, -4.470286e-02, -2.645177e-02, -4.614536e-02, -5.198499e-02, 3.192817e-02, -6.229054e-02, -5.577384e-02, 5.014540e-02, -2.755264e-02, -3.767335e-02, -8.300819e-03, -5.633327e-02, -3.141462e-02, -4.317424e-02, 4.360508e-02, -8.231170e-03, -1.595653e-02, -4.370829e-02, -3.613552e-02, 1.784143e-02, -3.683461e-02, 5.959190e-02, 5.686538e-02, 6.048208e-02, 4.477524e-02, 2.761485e-02, -1.725607e-03, 4.450261e-02, -5.636836e-02, -1.213189e-02, -4.345030e-04, -5.322859e-02, -9.307764e-03, 1.287778e-02, -5.855359e-02, 9.856448e-03, 5.188711e-02, 3.249366e-02, 1.009497e-02, -6.051658e-02, -7.952847e-03, -9.436980e-04, 1.837052e-02, 3.902099e-02, -4.975827e-02, -2.977706e-02, 5.686210e-02, 3.211033e-02, -5.182827e-02, 5.308323e-02, 9.580880e-03, 1.557824e-02, -3.687851e-02, -4.998278e-02, -9.915113e-03, 4.092165e-02, 1.303178e-02, 5.045627e-02, 5.017299e-02, 5.929029e-02, 3.205612e-02, 4.634343e-03, 3.511184e-02, 4.642950e-02, 4.585876e-02, -5.527730e-02, 5.031762e-02, -3.318779e-03, -1.621613e-02, 2.314977e-03, -1.330421e-02, -2.916859e-02, -6.110939e-02, -5.333926e-02, -5.638078e-02, 5.742282e-02, -8.214936e-03, 1.125704e-02, 3.820960e-02, -2.091642e-02, -4.339527e-02, -1.197495e-03, -3.038254e-02, 4.089721e-03, 4.668909e-02, 5.381652e-02, 1.355670e-02, -5.519968e-02, 4.596367e-02, -8.784555e-03, -1.219586e-03, -1.818836e-04, -5.558671e-02, 3.301068e-02, 5.799259e-02, -5.438419e-02, 4.122928e-03, -5.140704e-02, -3.270962e-02, 4.473224e-02, 2.695099e-03, 5.854468e-02, -5.326529e-02, -2.297403e-02, 4.870245e-02, -3.521796e-02, 3.735250e-02, 3.388767e-02, -3.265606e-02, -5.798460e-02, -4.179564e-02, 4.042068e-02, -1.178309e-02, -3.854670e-02, 2.648595e-02, 7.077798e-03, -9.395450e-03, -4.412314e-02, 3.722847e-02, -2.590302e-02, 2.772615e-02, 3.699318e-03, -2.761663e-02, -4.021343e-02, -4.072069e-02, -4.153418e-02, -3.675289e-03, 1.349388e-02, -4.367199e-02, -1.269774e-02, -3.075335e-02, -4.746175e-02, -4.507484e-02, 1.963686e-02, -5.433760e-02, -1.941212e-02, 4.172313e-02, 3.513469e-02, 6.793521e-03, -4.404195e-02, -1.262762e-02, 3.359151e-02, -3.964870e-02, -5.348030e-02, 2.967151e-02, 6.121881e-02, 4.681415e-02, 4.501962e-02, 3.611833e-02, -4.189826e-02, 5.161609e-02, 5.027309e-03, 5.200014e-03, 4.951926e-02, -7.165290e-03, -4.004624e-02, 3.657685e-02, -3.168340e-02, 5.419438e-02, 2.128838e-02, 6.656364e-03, 3.896712e-02, -1.603633e-02, 2.432527e-02, 5.713289e-02, -1.975939e-02, -1.488345e-02, 5.010458e-02, -7.831864e-03, 1.510882e-02, 1.053331e-02, 1.098961e-03, 1.127253e-02, -2.035466e-02, -5.371218e-02, 1.580115e-02, 5.120210e-02, 4.740618e-02, 4.257767e-02, 1.516916e-03, -1.685779e-02, 5.208385e-02, -1.001949e-02, 4.986441e-02, -2.118416e-03, 4.341942e-02, 3.777658e-02, 2.825276e-02, 1.857203e-02, -3.288606e-02, 2.948581e-02, 1.467172e-02, 5.775104e-02, 4.752236e-02, -5.937085e-03, -8.402035e-03, -4.511220e-02, 3.756768e-02, 3.341552e-02, -8.091085e-03, 9.584986e-03, -6.188229e-03, -1.414493e-04, 5.983519e-02, 6.085269e-02, 5.105495e-02, -1.729756e-02, -2.966531e-02, -1.821478e-02, -2.336360e-02, 4.328503e-02, 4.666626e-02, -1.346201e-02, 1.214091e-02, 2.879887e-02, 5.623621e-02, -6.051508e-02, 4.355384e-02, -7.638238e-03, -1.379125e-03, 2.429940e-02, 5.974416e-02, -5.489232e-02, 4.994060e-02, -8.200176e-03, 7.772125e-03, -6.520651e-03, -3.066772e-02, 4.332259e-02, -7.430792e-03, -3.678356e-02, -3.669728e-02, 5.268023e-02, -6.057771e-02, -4.426827e-02, -5.727454e-02, 3.813666e-02, 1.731522e-03, -5.702103e-02, -5.834594e-02, 3.653869e-02, 9.978004e-03, -2.355294e-02, 3.914111e-02, 6.149115e-02, -1.647390e-02, 2.432174e-02, -3.891595e-03, 4.404745e-02, -6.021789e-02, -7.016085e-03, 4.135646e-02, -3.898121e-03, -5.315834e-02, 4.563083e-02, -1.353824e-02, 4.635569e-02, -1.066487e-02, -3.320254e-02, 4.785146e-02, 6.114313e-02, 4.865734e-02, -3.773660e-02, 4.557446e-04, 3.604800e-02, -5.359606e-02, -1.552469e-02, 2.515796e-02, 1.076151e-02, 3.877878e-02, 1.240278e-02, 4.450432e-02, 5.344285e-02, 1.064562e-02, -5.054430e-02, 9.949192e-03, -8.983806e-03, 1.301914e-02, 2.104182e-02, -3.909677e-02, 1.591904e-02, 2.372015e-02, 3.617447e-02, -3.377559e-02, 2.532026e-02, 8.606389e-03, 2.170628e-02, -4.644337e-02, -4.705577e-02, -1.497382e-02, -4.864749e-02, -2.163783e-03, -4.219300e-02, 2.828493e-02, -3.555961e-03, -5.952030e-02, 1.683892e-02, -5.505988e-02, -7.829949e-03, 5.068176e-02, -1.664302e-02, 2.596788e-02, -6.869927e-03, 4.614264e-02, 1.072654e-02, 3.844495e-02, 1.849711e-02, 4.551133e-02, 9.674311e-03, -2.989255e-02, -2.615824e-03, 2.763323e-03, -3.606895e-02, -5.856390e-02, -6.235523e-02, 3.248245e-03, 3.788619e-02, 5.563899e-02, -1.705958e-02, 4.851942e-02, -1.169043e-02, 2.474418e-02, 3.360195e-02, -1.324093e-02, 1.949771e-02, 3.142839e-02, 1.447321e-02, 3.564379e-02, 8.824080e-03, 1.640325e-02, 3.216073e-02, -3.738071e-02, 3.875897e-02, 6.065644e-03, 6.076659e-02, 2.275968e-02, 4.246040e-02, -3.846592e-02, -1.610091e-02, 2.034492e-02, -5.759492e-02, 3.460152e-02, 1.461344e-02, -1.466620e-02, -5.188343e-02, 6.016837e-02, 6.249622e-02, 1.721314e-02, 4.018694e-02, 1.612886e-02, -3.522382e-02, 3.401784e-02, 5.045123e-02, -1.071008e-02, -5.908048e-02, -5.631515e-02, 2.339801e-02, 2.382547e-02, -3.753572e-02, -3.386624e-03, -4.229924e-02, 5.409158e-02, -3.336025e-02, 6.066695e-03, 3.672312e-02, 3.141348e-02, 4.015714e-04, -4.723806e-02, 4.662194e-02, 4.929097e-02, 1.672068e-02, -1.519653e-02, -2.430164e-02, -4.825494e-02, 1.437962e-04, 4.359005e-02, -5.848917e-02, -2.835810e-02, -3.782801e-03, 2.114720e-02, 2.893068e-03, -2.174607e-02, 4.305160e-02, 4.516212e-02, -2.419688e-03, 5.522107e-02, -2.793146e-02, 3.384420e-02, -3.831929e-02, 3.731114e-02, -1.052303e-02, 3.490134e-02, 2.684805e-02, -2.825897e-02, 1.223519e-02, 5.240639e-02, 3.156301e-02, 5.759957e-02, 2.075513e-02, 2.774787e-02, 4.761083e-02, 2.188105e-02, -5.218020e-02, 3.584342e-02, 2.764679e-02, 2.492616e-02, -9.496920e-03, 4.805826e-03, -2.162746e-02, -3.543658e-02, 5.372156e-02, 2.213866e-03, -2.546538e-02, -2.174299e-02, -2.826846e-02, -2.656646e-02, 6.077177e-02, -5.315865e-02, -2.190765e-02, 5.833586e-02, -1.613779e-02, 1.366179e-02, -2.360667e-02, 1.383220e-02, 2.791919e-02, 6.188013e-02, -4.869504e-02, 6.932244e-04, -1.297513e-02, 4.981385e-02, 3.369902e-02, 4.283980e-03, -1.759653e-02, -5.863793e-03, 6.212025e-02, 6.092537e-02, -2.528125e-02, -2.456176e-02, -5.640887e-02, 5.812901e-02, -5.420937e-02, -1.307437e-02, -3.822532e-02, -2.894063e-02, -2.344052e-02, 1.729927e-02, 4.853117e-02, -1.446609e-02, 5.526108e-02, -5.748229e-02, -9.657167e-03, 1.683262e-02, 3.037491e-02, 3.616565e-02, 5.584782e-02, -5.919100e-02, 5.839892e-03, -2.799381e-02, 5.305612e-02, -6.125684e-02, -5.639056e-02, 6.025344e-02, -4.563831e-02, -4.350554e-02, 5.076218e-02, 1.026205e-02, 2.713138e-02, -5.046695e-02, -5.292200e-02, -3.198797e-02, -2.771735e-03, 3.503870e-02, 3.716178e-03, 3.333177e-02, -3.454155e-02, 4.429942e-02, 2.294175e-02, 1.872778e-04, -1.767869e-02, -5.991392e-02, -4.273237e-02, 2.695100e-02, -3.395756e-02, 2.296570e-02, -5.115341e-02, -2.663080e-02, 6.150049e-02, -4.295602e-02, -4.387622e-02, 7.445067e-03, -5.814220e-02, -6.128858e-02, 4.645587e-02, -8.331284e-03, -1.751681e-02, -4.543983e-02, 7.158577e-03, 5.466382e-02, -4.122972e-03, -5.868670e-02, -1.133026e-02, 4.883787e-02, 1.082650e-02, -1.429555e-02, -5.710995e-02, 2.023824e-02, -1.071577e-02, -4.416016e-02, -2.192726e-02, 1.118204e-02, 7.514283e-04, -5.325670e-02, -2.638690e-03, -2.374269e-03, -5.126028e-02, -8.568302e-03, -8.484520e-03, -5.566352e-02, 5.223216e-02, -2.468410e-02, 1.414648e-02, 6.052874e-02, -2.662930e-02, -6.440714e-03, 1.351380e-02, -1.097175e-02, 3.713038e-02, 2.351864e-02, -4.336330e-02, 2.231106e-03, 2.731223e-02, -4.960384e-02, 8.958511e-03, -4.458138e-02, 2.806272e-02, 6.998636e-03, 4.890736e-02, -3.561027e-02, 4.920480e-02, -3.179834e-02, -4.915987e-02, -9.618945e-03, 4.719869e-02, 2.672400e-02, -5.055210e-02, -5.948551e-03, -2.195007e-02, 2.290821e-02, 5.243948e-02, 1.816820e-02, -1.660164e-02, -1.946990e-02, 3.306681e-02, -6.047487e-04, 4.165690e-02, 9.515278e-03, -1.773395e-02, 4.770635e-02, 6.172580e-02, -2.546787e-02, -5.212487e-02, 1.514646e-02, -4.287074e-02, 6.145133e-02, 4.322043e-02, -8.219309e-03, 6.627969e-03, 2.368765e-02, -3.977074e-02, 5.553161e-02, -1.850505e-02, -6.354488e-03, 5.253573e-02, -2.172234e-02, -3.949498e-02, 4.881499e-02, -6.570712e-03, 7.851943e-03, -2.484235e-02, -1.448378e-03, -2.234035e-02, -1.379083e-02, 1.392477e-02, -5.006520e-02, -2.835431e-02, 3.037347e-02, -3.090180e-02, 1.191546e-02, -4.814845e-02, 2.839854e-02, -1.864492e-02, -3.649271e-02, -7.324822e-03, -1.762428e-02, -4.606780e-02, -5.669666e-02, -2.868163e-02, -3.516014e-02, 1.874625e-02, 5.405100e-02, -6.844327e-04, -5.183594e-02, 7.197104e-03, 2.352180e-02, 5.843417e-02, -1.099862e-02, -8.975357e-03, -1.002134e-02, -1.833498e-02, 1.057897e-02, -4.542910e-02, -4.202294e-02, 2.903325e-02, -7.919841e-03, -6.183062e-02, 2.951848e-02, -3.224634e-02, 2.525245e-02, -4.677457e-02, -1.402234e-02, 4.436769e-02, 3.649049e-02, 2.803209e-02, 5.457257e-02, 4.358113e-03, 3.919259e-02, -4.668792e-02, 4.215354e-02, 1.220676e-02, 3.023241e-02, -1.805976e-03, 4.624706e-02, 1.349613e-03, 4.485509e-02, 3.855062e-02, -3.668937e-02, 4.366910e-02, -6.115653e-02, -4.027077e-02, -7.843830e-03, 4.920491e-02, 4.168712e-02, -4.951954e-02, 2.912962e-02, -3.609344e-03, -1.616463e-03, 3.893851e-02, -4.756323e-02, 3.444510e-02, -3.364026e-02, -7.619731e-03, 2.622990e-02, 4.963245e-02, -4.818660e-02, -2.283201e-02, 1.095220e-02, -3.623994e-02, -2.868719e-03, -3.750193e-02, -4.035385e-02, -4.369445e-02, -4.640033e-02, 1.510066e-02, 3.536016e-02, 4.208621e-02, -5.499884e-02, 6.159130e-02, 8.563317e-03, 1.450811e-02, -4.081522e-02, 2.819610e-02, 1.588032e-02, 4.004430e-02, 1.124736e-02, -2.937675e-02, 3.729925e-03, -2.235396e-02, -5.450757e-02, 1.700737e-02, -5.478036e-02, 5.493791e-02, -4.844837e-02, -5.313184e-02, 1.130538e-02, 1.252481e-02, 6.062191e-02, -7.320240e-03, 4.351720e-02, 5.499316e-02, -2.248266e-02, -5.135939e-03, -4.642832e-02, -5.856317e-02, 3.596564e-02, -2.513275e-02, -3.399054e-02, -3.262013e-03, -5.143549e-02, 2.651704e-02, -3.434739e-02, 4.417152e-02, 4.658613e-02, 6.171948e-02, -5.903190e-02, 1.755311e-02, 4.211266e-02, -5.329705e-02, 5.672961e-02, 4.273837e-02, 5.295031e-02, -8.775882e-03, 7.792801e-03, 9.150907e-03, 5.020108e-02, -2.915691e-02, -3.921039e-02, -6.093166e-02, -5.328716e-02, 5.176777e-02, -5.339355e-02, -1.335318e-02, -4.918284e-02, 5.269426e-02, 5.916066e-03, 5.871449e-02, 9.395845e-03, -1.184958e-02, 2.854115e-02, -5.180749e-02, 2.245228e-02, 3.939207e-02, -6.118563e-02, -6.204499e-02, -4.386728e-02, -1.009547e-02, -2.444550e-02, 4.086319e-02, 4.153132e-02, 4.624631e-02, -5.757878e-02, 6.109569e-02, -5.799249e-02, -2.289399e-02, -3.052783e-02, -5.055508e-02, -4.097942e-02, 2.665374e-02, -2.468588e-02, -4.126652e-02, 6.117652e-02, -3.475302e-02, -3.313830e-02, -4.368437e-02, -3.491039e-02, -3.050151e-02, 4.682249e-02, -1.158044e-03, 5.038401e-02, -8.590452e-03, 4.592573e-02, 3.433526e-04, -2.758624e-02, -5.556290e-02, 4.984254e-02, 5.530010e-02, 4.877385e-02, 3.458746e-02, -1.758855e-02, -4.699659e-02, -1.083105e-02, -2.385544e-02, 2.389290e-02, 5.555252e-02, 2.852507e-03, -3.039924e-02, 9.148635e-03, -3.503513e-02, 2.154312e-02, 1.355005e-02, 2.649714e-02, -2.123959e-02, 3.067209e-02, -9.766497e-03, -5.417466e-02, -6.203716e-02, 4.215740e-03, -2.430500e-02, -3.883080e-02, -3.777069e-02, -3.464527e-02, -7.228427e-03, 2.880529e-02, 2.906673e-02, 3.742053e-02, -1.817207e-02, -3.436767e-03, 4.244955e-02, -4.901148e-03, 3.679887e-02, 6.002725e-02, -1.165998e-02, -5.807278e-02, 1.783171e-02, -1.019986e-02, 9.091869e-03, -1.166241e-02, 1.726627e-03, 5.469391e-02, 4.259867e-02, 5.343477e-02, 1.269381e-02, 3.423544e-02, -2.549339e-02, -3.346699e-02, 2.571137e-02, 2.770655e-03, -5.353445e-02, -3.873863e-02, 9.897940e-03, -4.479405e-02, 3.295939e-02, 8.654214e-03, 5.643795e-02, 5.850561e-02, -3.032083e-02, 9.300858e-04, 3.044301e-02, 1.823308e-02, -5.861888e-02, -7.025220e-03, 3.471092e-02, -4.168093e-02, -5.026764e-02, -4.717145e-02, 5.089799e-02, 3.699938e-02, 1.191853e-02, 4.187783e-02, 4.444884e-02, 4.616532e-02, 6.026469e-03, 5.593903e-03, 3.208261e-02, -4.865541e-02, 3.933378e-02, 3.270697e-02, 4.113591e-02, -2.138184e-02, 4.290856e-02, 2.985746e-03, -6.168686e-03, 5.341418e-03, 3.269487e-02, -2.298966e-02, -5.547894e-02, 1.965344e-03, -3.675199e-02, 2.738104e-02, -1.690033e-02, 3.690496e-03, -4.484610e-02, -1.938151e-02, -2.029954e-02, -1.320165e-02, -1.193099e-02, -3.535558e-02, -1.271045e-02, 2.893598e-02, -6.872758e-03, 3.248433e-02, 2.559973e-02, -3.035956e-02, 4.492400e-02, 3.272716e-02, 6.767124e-03, 3.529146e-02, 2.733979e-02, -5.586472e-02, -3.224277e-02, 1.086402e-02, -2.829904e-02, -2.693800e-02, -3.354624e-02, -4.229210e-02, 6.127137e-02, -1.071630e-02, 5.522210e-02, -3.317478e-02, 4.907265e-02, -1.446169e-02, 2.151522e-02, 4.775008e-02, 1.784579e-02, -2.962425e-03, -3.832062e-02, 5.795236e-02, -4.659954e-02, -4.824854e-02, 1.498818e-02, -8.537546e-04, -5.008265e-03, 5.964106e-02, 3.141259e-02, -3.502551e-02, 6.207945e-02, 3.293109e-02, -2.397102e-02, -4.811686e-02, -3.837229e-02, 3.412842e-02, 2.072580e-03, 5.629010e-02, -2.779669e-02, -5.703103e-02, 5.902275e-02, 5.707496e-02, -5.076861e-02, 4.713865e-02, 1.070833e-02, 5.495204e-02, -3.763641e-02, -1.802742e-02, -5.213858e-02, 2.532100e-02, 1.481195e-02, -3.482141e-03, -4.993412e-02, 2.846345e-04, -4.792248e-02, -3.479883e-02, -6.160483e-03, -1.790453e-02, 1.212526e-02, -5.781399e-02, -1.972661e-02, -3.721770e-02, -1.695089e-03, -5.110976e-02, -2.321696e-02, 5.136360e-02, 3.778680e-02, 3.170114e-02, 4.471429e-03, -2.085263e-02, 2.008908e-02, -2.360144e-02, 3.662102e-03, -2.780271e-02, 3.046910e-02, -5.157348e-02, -4.841564e-02, -5.327152e-02, -3.858282e-02, -5.285124e-02, -2.341221e-02, -5.527677e-02, -5.820182e-02, 4.004458e-02, 1.283757e-02, -6.104129e-02, -1.335169e-02, -4.850893e-02, -6.547965e-03, -4.568035e-02, -5.839798e-02, 7.647745e-03, -3.771358e-02, -2.847121e-02, 4.158397e-02, -1.609872e-02, -5.255465e-02, -2.638227e-02, 1.001301e-02, -1.053330e-02, -4.832785e-02, -9.090796e-03, -4.137982e-02, -4.424019e-02, -6.145023e-03, -4.668071e-02, 3.718842e-02, -2.206925e-02, -4.262850e-03, -4.706016e-02, -2.449910e-02, -1.062273e-02, 5.693398e-03, 4.118317e-02, -5.492553e-03, -3.211675e-02, 3.691222e-02, 6.752275e-03, -1.556507e-02, -3.655731e-02, -2.100310e-02, -2.690168e-02, -4.649959e-02, 1.482456e-02, 1.878788e-02, -5.982189e-02, 7.542811e-03, -3.294940e-02, -3.736994e-02, 3.312094e-02, 1.356515e-02, 7.195525e-03, 4.944414e-03, 4.780374e-02, -6.054851e-02, 4.694611e-03, 5.610214e-02, 2.795783e-02, 1.139176e-02, -2.265431e-02, 1.366834e-02, -4.933588e-03, -3.337679e-02, -5.805925e-02, -7.224217e-03, 3.030474e-02, 4.535806e-02, 3.856041e-03, -1.673690e-02, -1.179297e-02, -1.963757e-02, -1.946293e-03, -5.805022e-02, -5.829758e-02, -2.787644e-02, 6.095952e-02, 6.642453e-03, 3.245927e-02, -4.996500e-02, -2.570427e-02, 1.211623e-02, -8.842520e-03, 5.001020e-02, -1.048438e-03, 5.837248e-02, -1.926863e-02, -1.525097e-02, 3.088482e-02, 1.614151e-02, 6.225809e-03, 3.196282e-02, 7.291012e-03, 5.959611e-02, -3.239860e-02, 3.826437e-02, 5.363865e-02, 3.290306e-02, 5.251823e-02, 2.343072e-02, 6.635278e-03, -2.506729e-02, -4.141976e-02, 5.677320e-03, -3.193075e-02, -6.233844e-02, -3.090885e-02, 3.830611e-02, -6.048024e-02, -3.682434e-02, 2.330314e-02, 4.198560e-02, -2.949280e-02, 1.379059e-02, 7.807307e-03, 4.374426e-02, 4.733656e-02, 3.938358e-02, 5.390033e-03, -2.819387e-02, 2.026162e-02, -6.157476e-02, 7.989675e-03, 3.525607e-02, 1.730695e-02, -1.499452e-02, 3.662104e-02, 3.182694e-03, 1.929934e-02, -1.365624e-02, -4.737025e-02, 7.396236e-03, -4.486258e-02, -3.644244e-02, -5.675361e-03, 2.999879e-02, -5.022924e-02, -6.161935e-02, -3.651025e-02, -3.122067e-02, 5.635828e-03, 3.048841e-02, 1.776596e-02, -2.372660e-02, -3.153815e-02, -2.942045e-02, -4.776869e-02, -3.875536e-02, -5.387776e-02, -5.415022e-02, -4.824354e-02, 6.569922e-05, -5.314590e-02, 2.596454e-02, 2.405024e-02, -1.192769e-02, 1.112977e-02, 5.646073e-02, 1.553690e-02, 5.993468e-02, -3.108910e-02, 3.642482e-02, 5.268623e-02, 3.678095e-02, 2.162066e-02, -9.491295e-03, -5.375482e-02, 2.311698e-02, 2.089408e-02, 4.864898e-02, -5.663189e-02, -2.912121e-02, 5.565867e-02, 3.496392e-02, 7.010914e-03, 8.417450e-03, -1.424099e-02, 3.833956e-02, -1.983085e-02, 1.868252e-02, 5.926834e-02, 4.864202e-02, 4.735187e-02, 6.096183e-02, 5.213396e-02, -1.921958e-02, -1.362377e-02, -1.387376e-02, -3.130227e-02, 1.275986e-03, -4.578955e-02, -4.824992e-02, -1.455905e-02, -4.001003e-02, 5.402979e-02, 2.309008e-02, -1.813748e-02, -5.048485e-02, -5.417509e-02, 5.190749e-02, -4.042934e-02, -1.148310e-02, 1.977590e-02, -5.167866e-02, -3.375699e-02, -2.859344e-02, -6.088335e-02, 5.285899e-02, -5.151343e-02, 1.443738e-02, 3.307251e-02, -6.030418e-02, -5.014810e-02, 5.813344e-02, -3.184928e-02, -5.023408e-02, -5.655576e-02, -5.091883e-03, 2.424382e-02, -7.705271e-03, -3.336000e-02, 4.904134e-02, -2.946909e-02, 4.187401e-02, 2.823617e-02, 2.298739e-02, 1.022352e-02, 3.976934e-03, 5.152099e-02, 3.150581e-02, 4.964598e-02, 1.208168e-02, 1.384714e-02, -1.691610e-02, 3.372025e-02, 1.568484e-02, 1.220759e-02, -5.367829e-02, -1.380226e-02, -6.093498e-02, 2.054133e-03, 8.671142e-03, -4.715573e-02, 6.099962e-02, -4.999878e-02, 1.229180e-02, 4.901730e-02, -1.442049e-02, -1.048967e-02, -2.401859e-02, -5.529480e-02, 3.374656e-02, -5.028010e-02, -3.621925e-02, -4.658163e-03, 1.589496e-02, 1.833624e-02, -1.603348e-02, -4.780423e-02, -4.199669e-04, -1.775488e-02, -6.091206e-02, 1.998016e-02, -2.340379e-02, 4.392064e-02, -4.816573e-02, -2.481259e-02, 5.592630e-02, 4.614846e-02, -3.418826e-02, -1.304567e-02, 6.225640e-02, -1.038142e-02, 3.120746e-02, 1.232125e-02, -5.715054e-02, 5.708040e-02, 4.521487e-02, 4.684196e-02, -1.347023e-02, 3.163977e-02, -5.989217e-02, 2.469935e-02, 5.774589e-02, -4.208106e-02, 3.760320e-02, 2.654396e-03, 4.704835e-02, -4.778221e-02, -2.806321e-03, 5.189618e-02, -2.895024e-02, -3.964258e-02, 4.424537e-02, -1.813921e-02, -2.349616e-02, -4.162865e-02, 1.667470e-02, -1.193724e-02, -3.190389e-02, 1.884181e-02, 5.385958e-02, 4.558691e-02, 4.838200e-02, -5.802001e-02, 5.254792e-02, -3.987267e-02, -9.257734e-03, -2.708460e-02, -1.072049e-03, 