
//===------------------------------------------------------------*- C++ -*-===//
//
// Automatically generated file for High-level Synthesis (HLS).
//
//===----------------------------------------------------------------------===//
#include <algorithm>
#include <ap_axi_sdata.h>
#include <ap_fixed.h>
#include <ap_int.h>
#include <hls_math.h>
#include <hls_stream.h>
#include <math.h>
#include <stdint.h>
using namespace std;
float conv1_weight[32][3][3][3] = {-8.615486e-02, 1.041648e-01, 1.414151e-01, 1.345703e-01, 3.400148e-02, 1.900025e-02, 1.075408e-01, 1.210145e-01, -1.295223e-01, 2.379929e-02, -1.083283e-01, -1.862572e-01, 1.077068e-01, 9.718800e-02, 6.454177e-02, 3.483149e-02, 1.868067e-01, 9.604371e-02, -7.124129e-03, 3.422629e-02, 3.303428e-02, -6.901036e-02, -3.418079e-02, -8.888400e-02, -1.392758e-01, -4.048675e-02, -5.987129e-02, 1.085370e-01, 1.317970e-02, 1.455533e-01, -6.558019e-02, -1.372733e-01, 4.494753e-02, 6.454948e-02, -1.402566e-01, 1.194662e-02, -1.616479e-01, -2.821066e-02, 1.571403e-01, -1.526792e-01, 1.365076e-01, -1.601651e-01, 1.157245e-01, -8.822284e-03, -1.097352e-02, -1.191171e-01, -1.005974e-01, 6.861018e-02, 1.711260e-01, -1.022911e-01, 1.592492e-02, 1.688331e-01, 1.404321e-01, -6.927715e-02, 1.448702e-01, 1.730445e-01, -1.051322e-01, -6.167425e-02, 1.757647e-01, -1.239326e-01, -1.070593e-01, 1.704532e-01, -1.037391e-01, -1.457590e-01, -1.968531e-02, -1.285975e-01, 6.172472e-02, -8.761112e-02, -3.987489e-02, 7.207552e-02, 2.982618e-02, 2.638747e-03, -5.102127e-02, -1.038250e-01, -1.636921e-01, 1.308095e-01, -2.356861e-03, -5.172469e-02, 1.915790e-01, -1.341727e-01, 7.339060e-02, 5.961919e-03, 8.440940e-02, 5.494513e-02, 1.127566e-01, 2.021876e-02, -1.200113e-01, 1.363672e-02, -4.069940e-02, -4.402037e-02, -1.062655e-02, 6.278897e-02, -8.353816e-02, -8.008835e-03, 7.789011e-02, -9.382971e-02, 7.381835e-02, -5.447586e-03, 1.813693e-01, -7.989433e-02, -7.435796e-02, -1.298053e-01, 1.098531e-01, -3.895685e-03, 2.210428e-02, 8.640486e-02, -1.740197e-01, 1.579747e-01, -5.559205e-02, 7.018200e-02, -9.068055e-02, 1.256719e-01, 1.689526e-01, 7.794948e-03, -1.622789e-01, 1.915576e-01, 1.682383e-01, 1.563968e-01, 4.870291e-02, -1.360397e-01, -1.259309e-01, 8.131202e-02, -4.258278e-02, -5.511974e-02, 1.402682e-01, -1.487214e-02, 1.734935e-01, 1.147574e-01, 1.368110e-01, -1.864348e-01, -2.969096e-02, -7.134655e-02, -5.617883e-02, 9.063100e-02, -3.882188e-02, -8.073373e-02, -8.270448e-02, -1.263063e-01, 1.249237e-01, 1.255315e-01, 1.840468e-01, -2.832927e-03, 8.939648e-02, 1.879478e-01, 8.136699e-02, -7.909694e-02, 1.151122e-01, 5.852273e-02, -1.411208e-02, 2.919149e-02, -1.073512e-01, -9.788172e-02, 1.248272e-01, 7.822151e-02, 9.222137e-02, 4.580214e-02, 1.472630e-01, -4.328749e-02, -1.440558e-01, -7.898267e-02, -1.276494e-01, -1.440197e-01, -9.253164e-02, -5.065455e-02, -9.031419e-02, -1.617435e-01, 1.391457e-01, 5.115413e-02, 7.453711e-02, 1.083002e-01, 6.458642e-02, 7.259981e-02, -1.187675e-01, 1.645634e-01, -4.450737e-02, -1.607406e-01, 1.611497e-02, -1.683737e-01, 3.878533e-02, -1.615381e-03, 1.078046e-01, -1.149622e-01, -1.477960e-01, -1.391102e-01, -5.575349e-03, -9.693523e-02, -1.866304e-01, 1.648401e-01, -1.692798e-01, 4.947215e-02, 1.521532e-01, -1.618590e-01, 7.204559e-02, -9.642948e-02, 1.038341e-01, 1.695941e-01, -8.715355e-02, -1.099779e-02, 1.095345e-01, -7.242613e-02, -6.345116e-02, 1.126827e-01, -1.190107e-01, 1.136824e-01, -1.726288e-01, 1.302900e-01, 4.398914e-03, 2.333130e-02, 3.201779e-02, 7.099460e-02, -1.146376e-01, 7.159549e-02, 1.090334e-01, -3.966628e-02, 1.244766e-01, -8.006564e-02, 7.790280e-02, -3.326328e-02, 4.060017e-04, 1.680534e-01, 5.068357e-03, -7.400535e-02, -1.503240e-01, 1.690165e-01, 2.735057e-03, -1.708794e-01, 3.407003e-02, 1.769908e-01, 8.859035e-02, 1.539909e-01, -1.421833e-01, 1.633185e-01, -1.664810e-01, -1.152631e-01, 1.259918e-01, 3.798260e-02, -1.717557e-01, -4.853864e-02, -1.754496e-01, 1.659715e-01, -1.459457e-01, -1.168616e-01, 5.355529e-02, -7.261943e-02, -1.033769e-01, -1.510077e-01, 1.130479e-01, -6.618964e-02, 7.997371e-02, 1.090935e-01, -1.824510e-01, 1.576228e-01, -6.968698e-02, -3.380813e-02, -1.699537e-01, 1.422115e-01, -1.164121e-01, 1.194915e-01, -6.444044e-02, -1.896322e-01, -1.171809e-02, -6.479165e-02, -4.185284e-02, 2.553096e-02, -7.327341e-02, 1.534844e-01, -2.820667e-02, -6.355688e-02, -3.604622e-04, 9.406278e-02, 8.528303e-02, -1.850097e-01, -6.114856e-02, 7.484557e-02, -7.523927e-02, 9.985807e-02, 3.526293e-02, -1.888509e-01, 7.940792e-02, -1.287227e-01, -7.467531e-02, -1.223977e-01, -2.537849e-03, 3.652267e-02, 1.239985e-01, 1.683986e-01, 1.523520e-01, 1.012182e-01, -4.721871e-02, -1.567031e-01, 8.824294e-02, 1.244404e-01, -1.690770e-01, -5.866129e-02, 1.895785e-01, -1.095067e-01, 1.471444e-01, -1.816599e-01, 8.454650e-02, 1.471592e-01, 2.595181e-04, 1.152723e-01, -8.597559e-02, -5.334943e-02, 3.660636e-02, -6.508834e-02, 1.797801e-01, 6.938419e-02, -1.880666e-01, 1.892340e-01, -2.217638e-02, -9.014037e-02, 1.748490e-01, -8.787624e-02, 3.002437e-02, -6.518458e-02, -1.349023e-01, -1.244247e-01, -4.543654e-03, -1.210165e-01, -3.350919e-02, -1.591139e-01, 8.594508e-02, 3.417015e-02, 7.988206e-02, 1.081667e-01, -4.479109e-02, 1.791586e-01, -1.885255e-01, 8.838894e-03, 9.387857e-02, -1.889824e-01, -1.715443e-01, -7.741501e-02, -4.325665e-02, -1.725559e-02, 1.247825e-01, 1.105397e-02, -1.337467e-01, -6.134912e-02, -1.336948e-01, -1.424994e-01, 3.273686e-03, 1.849756e-01, 1.829528e-01, 3.807409e-02, -1.045565e-01, -7.711080e-02, 1.835167e-01, 6.484054e-02, -1.574925e-01, -9.974205e-02, 6.384856e-02, -7.327814e-02, 5.472053e-02, 9.940600e-02, -1.775740e-02, 7.318605e-02, -1.379492e-01, -6.572970e-02, 1.761477e-02, 1.722147e-01, 2.529526e-02, 1.699689e-01, 1.134895e-01, -1.275000e-01, 1.908312e-01, -2.986289e-02, -8.649167e-02, 3.421787e-02, 1.279915e-01, 1.287068e-01, 1.504369e-01, -1.411269e-01, -9.313189e-02, 1.214588e-01, -7.523376e-02, 1.786649e-01, -1.177143e-01, 1.682614e-01, 8.720218e-02, -7.546174e-02, -1.291944e-01, 7.919128e-02, -3.299022e-02, 8.825900e-02, 1.406540e-01, 1.507727e-01, -1.589648e-01, -1.795938e-01, -1.585910e-01, 9.233221e-02, 6.894723e-02, 1.885241e-01, 1.302440e-01, 1.880226e-01, 1.426444e-01, 1.355420e-01, -8.144165e-02, -1.240546e-01, -8.499123e-02, -4.830078e-02, -1.014837e-01, -8.514918e-02, 6.413028e-02, 1.034533e-01, -9.378991e-03, 7.379644e-02, 1.294500e-01, 4.681996e-02, 1.029435e-01, 1.386557e-01, -1.352425e-01, -1.155805e-02, 7.472985e-02, 1.410935e-02, -1.651286e-01, -9.398005e-02, -5.702625e-02, 8.546223e-02, -1.375393e-01, -1.756877e-01, 7.508703e-02, 1.186647e-01, -7.059610e-02, 1.144481e-01, -6.873682e-02, 2.056490e-02, 1.861162e-01, -1.586265e-01, 1.341517e-01, -8.815094e-02, -1.707363e-01, -1.115363e-01, 1.096395e-01, 1.013717e-01, 4.681807e-02, -1.161810e-01, 5.524034e-02, -7.744391e-02, -3.147510e-02, 6.549184e-02, 6.295174e-02, -3.692764e-02, -1.593528e-01, -5.659385e-02, -3.595651e-02, 8.178327e-02, 1.393098e-01, -1.241732e-02, -1.360499e-01, 1.381742e-01, -2.911728e-02, -7.782099e-02, -1.869684e-01, -3.898507e-02, -7.058084e-02, -1.161953e-01, 1.016554e-01, 3.701406e-02, -1.600921e-01, 1.869186e-02, -1.159202e-01, 1.142906e-01, -6.753458e-02, 6.114179e-02, 3.063038e-02, 8.507346e-02, 1.667670e-01, 5.688055e-02, 9.100571e-02, -9.678513e-02, 3.723518e-02, 1.354151e-01, -5.337862e-02, -1.612549e-01, -8.281683e-03, 9.945760e-02, 4.838897e-02, 6.891602e-02, 1.183746e-01, -2.309748e-02, -2.404158e-02, 1.110778e-01, 1.886357e-01, 1.315060e-01, 2.023658e-02, -1.884626e-01, 4.966814e-02, 1.461886e-02, 3.729604e-02, -8.564486e-03, -2.938898e-02, 7.818496e-02, -8.123957e-02, 8.579979e-02, -2.313930e-02, -1.460983e-01, 1.526811e-01, -1.578224e-02, 4.768782e-03, -1.020152e-02, 1.435535e-01, 1.025074e-01, 1.591650e-01, -1.448586e-01, -7.154222e-02, -3.034632e-02, -9.750281e-04, 1.098540e-01, -1.326743e-02, 2.760637e-03, 1.519350e-01, 5.498916e-02, 5.454459e-02, 6.283150e-02, 1.312734e-01, 1.147307e-01, 1.188507e-02, 9.790292e-02, 2.391228e-03, -1.496743e-01, -1.148895e-02, -5.441685e-02, -1.483509e-01, -1.920167e-01, -1.158265e-01, 1.379383e-02, -8.095899e-02, -1.661349e-01, -1.185609e-01, 8.681398e-03, 1.718649e-02, 1.744248e-01, 1.589548e-01, 1.763189e-01, 8.862070e-02, -2.472951e-02, -5.858706e-02, 1.697896e-01, -1.877004e-01, 1.405201e-01, 1.357712e-01, -1.301813e-01, 1.893871e-01, -1.312875e-01, -5.390855e-02, -1.620751e-01, 9.233771e-02, 1.666116e-01, 1.129377e-01, -1.250301e-01, -1.309474e-01, -4.191056e-02, 3.524417e-03, 6.673054e-02, 8.718791e-02, -8.704998e-02, -1.670204e-01, -3.375719e-02, 9.117488e-02, -1.522507e-01, 3.836304e-02, -1.522689e-01, -1.041717e-01, 4.243896e-03, -1.234271e-01, 1.179236e-01, -9.554819e-02, -1.524714e-01, -1.649293e-02, -8.441220e-03, 8.922182e-02, 4.816462e-02, 1.855199e-01, -1.608318e-01, -8.086691e-02, 1.706051e-02, -1.692785e-01, 4.969734e-02, -7.864992e-02, 9.515676e-02, -1.672440e-01, 5.731656e-02, 3.781797e-02, 2.556877e-02, 1.123355e-01, 8.083596e-02, -4.825114e-02, 9.681612e-02, -1.365923e-01, 1.358687e-01, -2.397920e-02, 1.207480e-01, 1.040968e-01, 1.100581e-01, 6.114975e-02, 1.293680e-01, -2.022433e-02, -6.171169e-02, -1.109940e-01, -1.608581e-01, -1.509298e-01, -1.821096e-01, -1.133462e-01, 2.838640e-03, -5.562352e-02, -1.514804e-02, -7.420859e-03, 1.914828e-01, -1.712655e-01, 1.229135e-01, 1.753785e-01, 1.672019e-01, -9.978606e-02, -1.469979e-01, -1.890199e-01, -7.043959e-02, 3.986248e-02, -9.132992e-02, -7.004955e-02, 5.925565e-02, -1.281897e-01, 1.107744e-01, 1.543130e-01, 4.020434e-02, -1.742360e-01, 6.199224e-02, 1.501005e-01, 1.386679e-01, 1.882384e-01, -1.481081e-01, 1.847242e-02, 1.225369e-01, -1.656997e-01, -1.563733e-01, 5.738630e-02, 6.663001e-02, 8.436035e-03, 1.683230e-01, -5.808185e-02, -1.746566e-01, 1.758896e-01, 1.470606e-02, -1.827266e-01, 1.287784e-01, 2.829837e-02, -2.592118e-02, -1.182167e-01, -4.440379e-02, -1.693470e-01, 7.725065e-02, 9.554168e-02, 2.630807e-02, -4.343404e-02, 7.079393e-04, -6.352308e-02, -1.263463e-01, 1.540626e-01, -7.738815e-02, 1.630505e-01, 1.379852e-01, -7.747530e-02, 1.895759e-01, -1.405462e-01, -2.135830e-02, -9.591927e-02, 5.759181e-02, 2.891991e-02, -6.957381e-02, 9.162723e-02, 3.963049e-02, 1.321295e-01, -9.967284e-02, -1.853666e-01, 3.850742e-02, 5.402872e-03, -1.553723e-01, 7.156805e-02, -6.250484e-02, -8.764489e-02, -1.918266e-01, 1.827960e-01, 1.404571e-01, 1.174529e-01, 1.185010e-01, 1.731087e-01, 1.204886e-01, -5.685511e-02, -2.227921e-02, -4.579751e-02, -1.018927e-01, 1.651956e-01, -1.076263e-01, 9.320411e-02, -1.742903e-01, -1.192361e-02, 1.366997e-01, -2.755797e-03, -9.602694e-02, 1.513821e-01, -1.205798e-01, 3.738992e-03, -1.222780e-01, 1.700632e-01, -6.675728e-02, -1.308789e-01, 1.196325e-01, 1.597992e-01, -1.279794e-01, 1.143644e-01, -1.630482e-01, -1.116007e-01, 1.843337e-01, 8.835338e-02, 2.231711e-02, -1.720477e-01, 9.956817e-02, -7.604066e-02, -4.894286e-02, 1.117489e-01, 7.857057e-02, 4.940988e-02, 8.675011e-02, -3.951158e-02, 1.669890e-01, -1.085226e-01, -1.552075e-01, 1.794178e-01, -1.192241e-01, -7.966806e-03, 1.404996e-01, -8.060936e-02, 1.132023e-01, 1.721472e-01, 9.929072e-02, -2.030052e-02, 7.620251e-02, 1.181247e-01, -1.461732e-01, 1.219438e-01, -1.453862e-01, 1.487775e-01, 1.200197e-01, -1.403877e-01, -1.360334e-01, 1.553469e-01, 3.681218e-02, -8.558544e-03, 8.004247e-02, -1.033901e-01, 5.297771e-02, -8.307419e-02, -1.380727e-02, 2.133956e-02, -2.400657e-03, 9.613252e-02, -1.673965e-01, -1.250011e-01, -7.487714e-02, 1.225961e-01, 1.134193e-01, -9.704857e-04, -1.030704e-01, 4.633001e-02, -6.289840e-02, -5.315970e-02, -9.116380e-02, -1.740292e-01, -9.575226e-02, -2.928133e-02, -9.534674e-02, -8.278929e-02, 1.525049e-01, 1.580032e-01, 1.725591e-01, 7.337424e-02, -1.197874e-01, 1.653170e-01, -5.862308e-02, 1.571327e-01, 1.897176e-01, -9.343787e-02, 9.108724e-02, 1.021615e-01, -1.455453e-03, -1.094558e-01, -1.201609e-01, -1.066635e-01, 9.690265e-02, -1.383836e-01, 1.305517e-01, -1.997819e-02, 8.197647e-02, 9.675376e-03, -9.006009e-02, -1.127943e-01, -1.551544e-01, -1.112830e-01, -9.593382e-02, 4.448177e-02, -1.426248e-01, 1.651868e-01, -1.440533e-01, -1.335867e-01, 1.256161e-01, -4.539669e-02, -5.302441e-02, 1.009000e-01, 1.285823e-01, 5.702380e-02, -1.439545e-01, -4.966068e-02, 1.782115e-02, -3.765843e-02, -1.663382e-01, -1.848891e-01, -7.907768e-02, -4.436121e-02, 1.046609e-01, 1.165409e-01, -1.073446e-01, 1.778982e-01, -1.556566e-01, -1.480349e-01, 1.328879e-01, -1.813552e-01, -1.573215e-01, -1.560031e-01, 8.741386e-02, 9.480415e-02, 5.112426e-02, 1.445237e-01, -1.314237e-01, 1.513397e-02, -1.122051e-01, 8.942371e-02, 1.055474e-01, -1.832055e-01, 1.539647e-02, 5.063498e-02, -4.464989e-02, 1.439947e-01, 3.698087e-03, -8.351768e-02, 3.885253e-02, -4.274879e-02, 8.397390e-02, -7.174721e-02, -3.839842e-02, 1.728637e-01, 2.660622e-02, 1.660760e-02, 6.889994e-02, 1.258521e-01, -1.701830e-01, 3.283743e-02, 1.519657e-01, 3.610862e-02, 5.673280e-02, -3.465736e-02, -1.332829e-03, -3.282204e-02, 5.062080e-02};	// L2
float conv1_bias[32] = {7.310571e-02, 3.599863e-02, 1.254093e-03, 6.491687e-02, 1.269573e-01, -2.972813e-02, -4.203970e-02, -2.568967e-02, 1.191020e-01, 1.524827e-01, -1.253102e-01, -2.531187e-02, -5.334581e-02, -1.853139e-01, -1.130907e-01, 1.561113e-01, -1.142250e-01, 4.961663e-02, -4.887417e-02, 1.104868e-01, -4.555329e-02, 9.359790e-02, 8.669636e-02, 1.561362e-01, -1.783953e-01, 1.793133e-01, 1.634382e-01, -2.780299e-02, -1.728953e-01, -1.828703e-01, 1.476337e-01, 1.286407e-01};	// L3
float conv2_weight[32][32][3][3] = {1.619517e-02, -5.872869e-02, -4.678147e-02, -2.443201e-02, -5.239272e-02, 6.089159e-03, 4.975325e-02, 3.456245e-02, -1.423707e-03, -4.682495e-02, -1.909107e-02, -4.915224e-02, -5.181857e-03, 4.579315e-02, -5.716643e-02, -5.754281e-03, 3.919227e-02, 3.658931e-02, 1.562978e-02, 5.374758e-02, -1.219131e-02, 2.543270e-02, -5.659510e-02, 4.363890e-02, -4.792324e-02, -5.495408e-03, -7.928454e-04, 2.397419e-02, -4.391846e-02, 2.104196e-02, -2.174246e-02, 4.991938e-02, -5.204223e-03, -2.518267e-03, -5.706853e-02, -2.700007e-02, 5.427826e-02, -4.308674e-02, -3.811561e-02, -4.785438e-02, 2.776037e-02, 1.377514e-02, 3.051083e-02, -3.532096e-03, 5.446011e-02, -2.734392e-02, 1.808453e-02, 3.901081e-02, 2.507060e-02, -4.004548e-03, 1.426674e-02, 5.786147e-02, 9.670159e-03, 1.084131e-02, 2.547866e-02, 4.449501e-02, -6.491015e-03, 1.857748e-02, -2.921830e-02, 5.586383e-02, -2.215502e-02, -2.122284e-02, 2.724488e-02, 2.754878e-02, 5.552777e-02, -3.430881e-02, 4.598704e-02, -4.844027e-02, -1.188432e-02, -1.173365e-02, 3.627840e-02, -4.458618e-02, 2.618013e-02, -2.639649e-02, 8.464022e-03, 9.569035e-03, 2.706283e-02, -4.116156e-02, -5.505511e-02, 1.380335e-02, -2.487747e-02, 4.631206e-02, -2.634524e-02, 6.193922e-03, 6.176881e-03, 1.469113e-03, -4.135013e-02, -5.318574e-02, 1.599272e-02, -4.301369e-02, 2.323974e-02, -1.603546e-02, -4.697477e-04, 2.348852e-02, -5.488539e-02, 3.558774e-02, 1.857433e-02, 5.457959e-02, 3.970161e-02, -4.801543e-02, 1.571894e-02, 1.391699e-02, 5.281936e-02, -1.494252e-02, -3.401217e-02, -5.892254e-02, 5.243804e-02, 4.649091e-02, -2.435605e-02, 2.041112e-02, -4.654125e-02, 3.455626e-02, 5.219707e-02, 5.822815e-02, -2.171750e-03, 3.635835e-02, -5.224122e-02, -5.794980e-02, -4.277367e-02, -4.341820e-02, 3.847568e-02, -9.775793e-03, -3.179282e-02, 4.438761e-02, -2.923697e-02, -3.736624e-02, -2.393697e-02, 1.784767e-02, -3.602635e-02, -4.408310e-02, -3.376946e-04, -2.045249e-02, -1.856812e-02, 2.925470e-02, -3.023325e-02, -2.422224e-02, -3.179078e-02, 1.323856e-02, -2.750791e-02, -4.976596e-02, -2.158592e-02, -1.481476e-02, -3.874135e-02, 2.770193e-02, 1.513795e-02, -3.363809e-02, -4.307318e-02, -3.030047e-02, 4.612177e-02, -2.403725e-02, -3.870112e-02, -4.856314e-02, -5.726124e-02, -4.707591e-02, -3.369430e-02, 4.668039e-02, -4.735232e-02, -2.466828e-02, 4.606008e-02, 8.359757e-04, 2.800759e-02, 2.013452e-02, 9.586322e-03, 3.183143e-02, 1.138198e-02, 2.594736e-02, 5.681022e-02, -4.298065e-03, 4.388625e-03, 5.186124e-02, 2.792539e-02, 1.185774e-03, 2.929500e-02, -2.786030e-02, 2.967998e-02, -1.878062e-02, 8.426904e-03, -1.243191e-02, -1.995488e-02, -1.518158e-03, 2.272230e-02, 4.348896e-02, 2.750361e-02, -5.748574e-02, -4.229433e-02, -1.317276e-02, -2.414534e-02, -2.459875e-02, -3.227133e-02, -4.271096e-02, 2.751011e-02, -3.067840e-02, 1.275654e-02, -3.150927e-02, 3.110103e-02, -5.706865e-02, 4.816463e-02, 2.385621e-02, -5.876928e-02, 4.543315e-02, -3.127668e-02, 4.576522e-02, 4.071183e-02, 3.964939e-02, 5.203429e-02, -4.457805e-02, 5.334678e-02, 2.055600e-03, -3.482833e-02, -4.511449e-02, -5.445297e-02, -2.098514e-02, 3.081532e-02, -3.490319e-02, 1.673749e-02, -8.136751e-03, 5.178473e-02, 4.532725e-02, -1.074087e-02, 3.098784e-03, 2.357674e-02, 3.153123e-02, -5.153614e-02, -5.515985e-02, 3.349743e-02, 5.581475e-02, 5.734825e-02, 4.739667e-02, 2.412520e-02, 5.261959e-02, -5.514580e-02, 5.347636e-02, -5.346531e-02, 2.310289e-02, 4.742329e-02, 2.259212e-02, -4.577060e-02, 4.746749e-02, 3.453112e-02, -1.817440e-02, -1.764422e-03, -1.437958e-02, 1.228531e-03, -1.201821e-02, 1.434021e-02, 3.912396e-02, 2.045667e-02, 3.131150e-02, -3.226552e-04, -5.487639e-02, 2.736286e-02, 1.198831e-02, 2.284618e-02, -4.864731e-02, -4.502684e-02, -1.744292e-02, 2.287661e-02, 3.880341e-03, -3.253104e-02, -2.557065e-02, -3.243762e-03, 4.594301e-03, 8.537406e-04, -3.698257e-02, -3.632501e-02, 1.358719e-02, 5.182319e-02, -8.592934e-03, -5.721581e-02, 2.892502e-02, 2.374680e-03, 1.763438e-02, 7.626163e-03, -8.205612e-03, -4.659589e-02, -3.999256e-02, -3.882210e-02, -1.851123e-02, 2.570471e-02, -3.893244e-02, 3.625465e-02, -2.318955e-02, -3.537162e-02, 5.757654e-02, -2.945931e-02, 2.838880e-02, 3.249462e-02, 1.219929e-02, 2.146817e-02, -7.682261e-03, 5.832106e-02, -2.913986e-02, -1.096627e-02, 1.590080e-02, 8.199142e-03, -5.025321e-02, -2.893309e-02, 3.210887e-03, -1.852792e-02, -4.195696e-02, -1.182679e-02, 4.023801e-02, -3.093976e-02, -5.826722e-02, -4.272918e-04, -4.012098e-02, -5.930125e-03, 1.307942e-02, 4.376451e-03, -3.853585e-03, 1.957797e-02, 9.424731e-03, -8.691791e-03, -4.351404e-02, -2.694040e-02, -4.360984e-02, -2.629064e-03, 2.379474e-02, -2.283719e-02, -3.248748e-02, -1.681338e-02, 2.921063e-02, -3.863793e-02, -3.294874e-02, -5.437630e-02, 3.724391e-02, -3.863930e-02, 3.914403e-03, 5.038135e-02, 2.480790e-02, 2.941459e-02, -5.841169e-02, 4.150022e-02, 5.454452e-02, 5.104997e-02, -5.063037e-02, -2.191122e-02, -2.141692e-03, -4.687673e-02, -3.921279e-02, -1.993088e-02, 1.588161e-02, -3.566067e-02, -3.002148e-03, 8.015404e-03, -4.081079e-02, -6.284474e-03, -4.372257e-02, -2.969692e-02, -9.757832e-03, 4.669469e-02, -4.380508e-02, -2.595592e-02, 3.158938e-02, 1.314621e-02, 3.362072e-02, -4.899615e-02, 8.811796e-03, 1.639429e-02, 3.031174e-02, -5.104984e-02, -4.506418e-02, -1.546424e-03, 9.699346e-03, 2.765300e-02, -1.700872e-02, -4.506081e-02, 2.492978e-02, 5.472114e-02, -7.935865e-03, -1.850192e-02, -4.428731e-02, 3.363973e-02, -3.572174e-02, 1.369938e-02, 1.105187e-02, -4.021665e-02, -3.015117e-02, 1.605539e-02, -4.336831e-02, -1.086105e-02, -3.348638e-02, -1.434625e-02, -5.809062e-02, 3.758851e-02, -3.235225e-02, -1.219926e-02, 5.720543e-03, -7.334254e-03, 4.460726e-02, -1.216527e-02, -2.486489e-02, 1.584999e-02, -1.791811e-02, -3.544665e-02, 2.652151e-02, 8.351019e-03, 2.697459e-02, 2.891115e-02, -3.505395e-02, -5.332460e-02, 9.856897e-03, 3.739302e-02, -5.021765e-02, 9.673974e-03, 4.380266e-03, 4.519082e-02, 4.357113e-03, 3.245243e-02, -5.703283e-02, 3.882619e-02, -1.230755e-02, 1.444001e-02, 2.400681e-02, 2.879197e-02, 3.819913e-02, -1.227147e-02, 2.291318e-02, -1.960491e-02, -3.872781e-02, -5.560819e-02, -3.025606e-02, 4.113045e-02, -5.547394e-02, -5.186487e-02, 2.257796e-02, -4.017508e-02, 5.180276e-02, 5.883219e-02, 1.521017e-02, -3.733744e-02, -4.499238e-02, 3.452003e-02, -8.258858e-03, 4.357010e-02, 5.295918e-02, 3.329069e-02, -5.186044e-02, 2.776364e-02, -1.996606e-02, -1.657702e-02, -1.800867e-02, -1.784562e-02, -4.623162e-02, 5.316297e-02, -6.127808e-03, 1.312822e-02, -2.713642e-02, -3.510417e-02, -3.634545e-02, 4.610919e-02, -3.839811e-02, -1.998765e-03, 1.186738e-02, 5.278422e-03, 1.662452e-02, 4.632944e-02, -5.501786e-02, -8.775304e-03, 5.372990e-02, -1.138795e-02, 1.673608e-02, 4.472350e-02, 5.014296e-02, -4.634174e-02, -4.219546e-03, -4.238225e-02, -1.491385e-02, -4.100267e-02, 5.072524e-02, 2.247298e-03, 4.576501e-03, 3.935314e-02, 4.879491e-02, 5.275626e-03, -2.310399e-03, -3.171738e-02, -5.577065e-02, 2.039183e-02, 9.325664e-03, -8.360038e-04, -2.201817e-02, 5.495252e-02, 4.426207e-02, -4.757073e-02, -4.403878e-02, 4.658483e-02, -1.351616e-02, -4.014269e-03, 9.488773e-03, -2.012830e-02, -1.850546e-02, -1.126396e-02, 2.031958e-02, 5.711907e-02, -3.023321e-02, -4.541455e-02, -5.625466e-02, 1.539065e-02, -1.285140e-02, 1.599772e-02, 2.006637e-02, -3.335434e-02, 3.436971e-02, -6.085654e-03, -5.541200e-02, -1.677801e-02, 2.654766e-02, 6.025791e-03, 8.099641e-04, 1.923989e-02, -1.822882e-02, -3.889726e-02, -6.833760e-03, -2.802599e-02, -2.941548e-02, 7.933055e-03, 2.652650e-02, -1.287815e-02, 5.748997e-02, 1.399845e-02, -3.857844e-02, 2.184607e-02, 1.014194e-03, -3.261521e-02, -1.177537e-02, 4.150608e-02, 3.931352e-02, 1.150684e-02, 4.037013e-02, -4.797006e-02, -2.735153e-02, 5.159236e-02, 1.001352e-02, 3.380304e-03, 3.383653e-02, 5.628328e-02, 3.364789e-02, 1.454651e-02, 5.339705e-02, -5.726229e-02, -5.775980e-02, 4.092975e-02, -5.406544e-02, 3.365662e-02, -5.396298e-02, 5.598828e-02, -4.339316e-02, 3.268665e-02, 2.314921e-02, -2.929062e-02, -1.314321e-02, -2.069483e-02, -3.144146e-02, -4.406866e-02, 1.360922e-03, -6.718952e-03, 1.077660e-02, -1.252694e-02, 1.846674e-02, -1.651124e-03, -4.049051e-02, -2.149201e-03, 4.600613e-02, -5.771185e-02, 4.407435e-02, -5.006271e-02, 4.478261e-02, 5.748466e-02, 1.111020e-02, 3.667614e-02, 1.469225e-02, -2.161882e-02, -5.569074e-04, 2.092122e-02, 2.684250e-02, -5.402163e-02, 4.462954e-02, -2.587494e-02, 3.816122e-02, 3.458192e-02, 5.090116e-02, -2.561721e-02, -4.395537e-02, -2.379937e-02, 2.731761e-02, 2.727061e-02, 1.427584e-02, 5.195694e-02, 2.057061e-03, -2.620145e-02, 2.667618e-02, -2.907864e-02, 3.387838e-02, 6.814513e-04, -5.831055e-02, 6.312081e-03, 4.134157e-02, -3.906858e-02, 4.677724e-02, 4.251765e-02, -5.466023e-02, 7.939820e-03, -3.643173e-03, 5.136094e-02, -4.478508e-02, -1.955152e-02, -3.818475e-02, 1.180259e-02, 2.745918e-02, -5.397615e-02, 2.983213e-02, 5.835731e-02, 9.011467e-03, -4.599918e-02, 2.970774e-02, -4.711512e-03, 4.335995e-02, 4.040431e-02, -4.725364e-02, 3.409883e-02, -6.339139e-03, 5.575569e-02, -5.469598e-02, 4.856501e-02, 1.774668e-02, 2.064124e-02, 1.242381e-02, 9.033741e-03, -5.772749e-02, 5.867748e-03, -4.341854e-02, 4.843763e-02, 1.625193e-02, -5.164961e-02, 1.322085e-02, 1.144352e-02, -5.561061e-02, 3.573834e-02, -2.481888e-02, -3.669421e-02, 1.906995e-02, 2.796500e-03, 3.064732e-02, 4.364684e-02, -2.553203e-02, 2.104989e-02, 9.617153e-03, -5.430790e-02, 3.815112e-02, 2.263560e-03, 3.012518e-02, -4.405087e-02, 2.178422e-02, 4.787267e-02, -3.099771e-02, -2.785076e-02, -1.371599e-04, 5.144621e-02, 8.114111e-04, 4.039845e-02, 1.208568e-03, 5.373716e-02, 4.212431e-02, -4.690645e-02, -5.627780e-02, -5.564719e-02, 1.696111e-02, -1.057110e-02, 5.342141e-02, 2.823960e-02, 6.405864e-03, -4.397193e-02, 1.199788e-02, 3.295558e-02, 2.582127e-04, -3.490091e-02, 4.623482e-02, 2.825065e-02, 2.705404e-02, 3.258002e-02, -5.168337e-02, 5.369481e-02, -3.180623e-02, -1.855538e-02, 5.223424e-02, 4.665635e-03, -5.451634e-02, 3.673993e-02, -3.735994e-02, 4.642058e-02, -5.364549e-02, 4.922373e-02, 1.086086e-02, 4.352119e-02, -9.289362e-03, -3.004928e-02, -2.600031e-02, 7.120113e-03, -3.077774e-03, 4.452952e-02, -2.218222e-02, -1.564968e-02, -5.781830e-02, 4.047309e-02, 7.456599e-03, 4.014935e-02, -2.092874e-02, -2.521973e-02, -2.665999e-04, -2.053640e-02, 9.149737e-03, -5.229224e-02, -4.066932e-03, -5.985028e-03, 4.588917e-02, 2.647466e-02, -3.352315e-02, 5.121385e-02, 2.250342e-02, -1.448671e-02, -3.518992e-02, -5.839045e-02, 5.357602e-03, -2.048985e-02, -2.988387e-03, 2.332756e-02, -4.754023e-02, -1.875706e-02, 3.602350e-02, -1.802591e-02, -3.489773e-03, 5.164083e-02, 5.553627e-03, 5.461396e-03, 5.680925e-02, -5.037027e-02, 2.569275e-02, -2.446675e-02, -4.539164e-02, -7.771380e-03, -4.992034e-02, 6.175588e-03, -5.861312e-02, 5.079804e-02, 3.320606e-02, 2.296210e-03, 4.974445e-02, 3.598438e-02, -9.973862e-03, 1.856791e-02, 5.708172e-02, 3.187198e-02, 5.546385e-02, 5.390641e-02, 9.726847e-03, -2.269726e-02, 5.197658e-02, 2.435220e-02, 4.026682e-03, -2.265855e-02, -1.745449e-03, 4.868712e-02, 4.422949e-02, -4.458162e-02, 3.368535e-02, -5.258525e-02, 1.322528e-02, 1.268533e-02, -7.982402e-04, -4.932401e-02, 1.764161e-02, 2.771853e-02, -5.496022e-02, -3.993883e-02, -2.101131e-02, -4.670656e-02, -5.139759e-02, 1.022053e-02, 1.688697e-02, 2.767527e-02, 3.729874e-02, -2.595378e-02, -4.814803e-02, 4.916815e-02, -1.070980e-02, 6.399044e-03, 3.696827e-02, -2.064078e-02, 3.065772e-02, 1.467270e-02, -2.684994e-02, -7.151864e-03, -1.948167e-02, -1.994436e-02, -4.964147e-02, 1.479269e-02, -4.506043e-02, -1.163298e-02, 2.803253e-02, -1.790354e-02, -3.157181e-02, -8.289197e-03, 4.529393e-02, -4.417134e-02, 4.808757e-02, -1.127522e-02, 3.015851e-02, 1.891066e-03, -4.000809e-02, -4.669899e-03, -4.765537e-02, -2.755368e-02, 3.686111e-02, 1.721803e-02, -4.923065e-02, 3.252771e-02, -5.810386e-02, -6.798224e-03, 3.470799e-02, 4.095772e-02, 5.135432e-03, -5.506378e-02, -4.962702e-02, -4.133615e-03, -3.943401e-02, -2.546472e-02, -1.119368e-02, -4.361305e-02, 4.218855e-02, 3.599813e-02, -1.004974e-02, 2.993824e-02, 2.593164e-02, 4.879453e-03, 1.265631e-02, 3.915716e-02, -3.010968e-02, -3.304514e-02, -1.552537e-02, 4.387538e-02, 5.061750e-02, 1.330091e-02, 4.740100e-02, -1.977623e-02, -4.905961e-02, 3.428612e-02, 2.928192e-02, 2.635492e-03, -2.992289e-02, 2.660603e-02, -4.954363e-02, -5.365329e-03, 5.079493e-02, 2.088530e-02, 2.180764e-02, 3.172580e-02, -5.414907e-02, -2.839331e-02, -3.262014e-02, 5.093482e-03, -3.173068e-02, 4.021582e-04, 1.581510e-02, 2.679232e-02, 6.322694e-03, 1.484054e-02, -3.443130e-02, 4.239707e-02, 4.275616e-02, -2.598466e-02, 3.953115e-02, -9.098058e-03, -4.365291e-02, 8.787358e-03, -1.003798e-02, 2.771712e-02, -5.546003e-02, -5.618887e-02, -1.038969e-02, -1.505935e-02, 1.040974e-02, 3.115537e-03, -3.146082e-02, -3.438135e-02, -1.884096e-02, 4.425563e-02, -5.797728e-02, 2.353177e-02, -2.876733e-04, -5.902434e-03, -4.131498e-02, -4.933554e-02, -5.794477e-02, -3.019131e-02, 2.863543e-02, 5.612656e-02, -1.003650e-03, -4.654510e-02, -2.823363e-02, -5.761048e-02, 3.062779e-02, 5.559342e-02, -1.762413e-02, -3.479822e-02, -1.520639e-02, -4.019956e-02, -3.129668e-02, -3.257708e-02, -2.219249e-02, -3.688094e-02, -2.008935e-02, 4.801635e-02, -8.575423e-03, 4.140322e-02, 9.500602e-05, -1.525292e-02, -4.834943e-02, -8.990428e-03, 1.446743e-02, 3.211343e-02, 5.869750e-02, 4.687594e-02, -3.295499e-02, 3.902080e-02, -3.408189e-02, -2.316889e-02, -3.890000e-03, -7.415289e-03, 9.314868e-03, -3.080668e-03, -1.547281e-02, 4.683938e-02, -2.363148e-02, 4.701027e-02, 4.305997e-02, -2.493041e-02, 3.371670e-02, 5.183025e-02, 4.612827e-02, -3.521879e-02, -7.111515e-03, -5.560785e-04, 3.341328e-02, 3.066690e-02, 1.617747e-02, -4.185574e-02, 5.132151e-02, 4.513167e-02, -2.746308e-02, 4.368514e-03, 4.583997e-03, -1.807682e-02, -1.374198e-04, -1.473308e-02, -5.180755e-02, 4.103221e-03, -5.872589e-02, -5.150621e-02, -2.842757e-02, 2.114437e-04, 2.946582e-02, -2.559647e-02, 2.334741e-02, 4.644867e-02, -1.133908e-02, -2.354869e-02, 2.940169e-02, -3.118074e-02, 3.739837e-02, 5.503019e-02, 1.556900e-02, 5.832548e-03, 3.368001e-02, -5.207072e-02, -4.875887e-02, 2.891511e-02, -7.334121e-03, -5.487530e-02, -1.982556e-02, 5.553246e-02, 5.125485e-02, 3.941169e-02, 2.566256e-02, -1.138585e-02, -6.804889e-04, 5.764458e-02, -2.596539e-02, 2.693156e-02, 4.350355e-02, 1.436019e-02, 3.118317e-02, 3.378396e-02, 4.509474e-02, 3.933231e-02, -4.806063e-02, 7.228473e-03, 2.928482e-03, -3.070201e-02, 1.972258e-02, 2.825436e-02, 3.907494e-02, 3.816446e-02, -1.543864e-02, -1.068794e-02, -5.097483e-02, 5.642178e-02, -2.601908e-02, 4.018302e-03, 4.387016e-02, -5.523632e-02, -2.906376e-04, -1.272058e-02, 3.880040e-02, -3.737780e-02, -6.246851e-03, 9.919647e-03, -4.611221e-02, -5.429808e-02, 3.994226e-02, -5.376941e-02, -3.660681e-02, -3.218145e-02, 1.869690e-02, 1.496965e-02, -3.913144e-02, -1.278525e-04, -3.797578e-02, -5.182523e-02, -1.263046e-02, 3.880679e-02, -1.021289e-02, -1.987294e-04, 2.460500e-02, -1.872783e-02, 5.543404e-02, 8.126503e-03, -2.938690e-02, -5.382272e-02, 5.203407e-02, -1.088896e-02, -4.741987e-02, -2.782633e-03, 3.107546e-02, -2.830757e-02, -5.407440e-02, -2.981580e-02, -5.816883e-02, 5.287930e-02, -1.900852e-02, 8.526308e-03, -5.454142e-02, 1.935959e-02, -3.887707e-02, -3.871187e-02, 4.438595e-02, -1.684145e-02, -3.366000e-02, -3.425231e-02, 8.753942e-03, -5.064032e-02, -1.131959e-02, -2.982050e-02, 4.147183e-02, 3.576721e-02, 5.826989e-02, 4.068046e-02, 2.313520e-02, -1.753716e-03, 5.003981e-02, 4.116563e-02, -5.867291e-02, -5.806677e-02, -3.340771e-02, -7.785541e-03, -4.082737e-03, 9.573671e-03, 1.643632e-02, 4.224570e-02, 4.477508e-02, 5.791725e-02, -8.672262e-03, -6.914408e-03, 2.436927e-02, -4.522510e-02, 3.074320e-02, 3.920167e-02, -4.423875e-02, 2.647961e-02, 1.061346e-02, 3.551210e-02, 1.586336e-02, 4.343946e-02, 5.500341e-02, 1.617547e-02, 5.870942e-02, -4.450674e-02, -5.069990e-02, 9.813830e-03, -3.703068e-02, -2.593844e-02, 2.640809e-02, 2.564109e-03, 9.995217e-03, 5.387633e-02, 2.662700e-02, -5.291841e-02, -2.980253e-02, -5.107998e-02, -2.515954e-02, 1.058399e-02, 5.270645e-02, 1.759093e-02, 8.047814e-03, -1.361705e-02, -5.329385e-02, -5.010993e-02, 3.173169e-02, 1.655909e-02, 3.396652e-02, 1.765525e-03, 4.246056e-02, -2.281728e-02, -5.000101e-02, 4.020382e-02, -5.335690e-02, 1.745843e-02, -2.921266e-02, 3.486656e-02, 1.326926e-02, 4.095611e-02, -5.232363e-02, 3.889915e-02, -2.768132e-02, -1.479250e-02, 5.777466e-02, -5.747431e-02, 1.256313e-03, 2.736652e-02, 1.768697e-02, 3.715084e-02, -4.970582e-02, 3.755888e-03, 1.344521e-02, -8.367836e-03, 3.147888e-02, -2.273904e-02, -2.903376e-02, 5.849224e-03, 3.362981e-02, 3.696985e-02, -3.336679e-02, -2.017425e-02, 1.965150e-02, 3.917500e-02, -2.521194e-02, -4.116184e-02, 4.666028e-02, 3.768707e-02, 6.722022e-03, -3.708185e-02, 5.590633e-02, -5.545837e-02, 2.360473e-02, 1.265308e-02, -3.815891e-02, -5.178007e-02, -5.072340e-02, 5.829241e-02, 1.897756e-02, -2.997742e-02, -3.123523e-02, -1.195345e-02, 2.502815e-02, -1.391084e-02, -1.261240e-02, -3.033808e-02, -4.512474e-02, -2.762701e-02, -4.699313e-02, 4.585427e-02, -2.044775e-02, 5.188264e-02, 1.746190e-02, -4.428199e-02, -8.964726e-03, 2.455067e-02, 4.309091e-02, -4.803178e-02, 1.033304e-02, -5.152119e-02, 2.756988e-02, 5.161383e-02, 4.080843e-02, 1.669945e-02, 4.354500e-02, 3.571681e-02, 4.224918e-02, -1.217899e-02, 1.545070e-02, -2.357827e-02, -2.060988e-02, -1.122566e-02, 1.462970e-02, 1.128563e-02, -3.337056e-02, -1.217561e-02, -5.190141e-02, 2.161525e-02, -5.773836e-02, 2.563061e-02, -8.044548e-03, 4.112737e-02, 1.898427e-02, -3.114231e-03, 4.501907e-02, 2.917263e-02, -5.695859e-02, 5.314142e-02, -2.792868e-03, -2.784402e-02, 9.021547e-03, 3.220684e-02, 5.283470e-02, 1.501459e-02, 3.794454e-02, 2.968259e-02, -3.626581e-02, -5.753740e-03, 3.617302e-02, 5.756779e-02, 4.837242e-02, 9.003979e-03, -3.291376e-02, -5.253123e-02, 3.335544e-03, 4.863311e-02, 3.818675e-02, 3.339794e-03, 5.520903e-02, -1.479784e-02, 3.713276e-02, -3.696482e-02, 6.933473e-03, 1.510169e-02, 4.611339e-02, 4.804701e-02, 4.995944e-02, -3.959002e-02, 4.490395e-02, -2.941999e-02, -3.359024e-02, 1.333354e-02, -2.121101e-02, 5.003209e-02, -3.419832e-02, -4.560127e-03, 8.416726e-05, -7.965186e-03, -2.390776e-02, -2.718185e-02, -1.198648e-02, -1.105379e-02, -2.707832e-02, -3.365560e-02, 4.659353e-02, -5.984515e-03, -5.265746e-02, 5.541657e-02, -3.556632e-02, -4.244534e-02, -3.239714e-02, -3.106454e-02, 2.686383e-02, -3.156690e-02, 3.096748e-02, -2.835288e-02, 2.958289e-02, -1.214792e-03, 3.096046e-02, 2.246139e-02, 3.688993e-02, 4.291294e-03, 4.990298e-02, -3.769951e-02, -1.387497e-02, 3.829366e-02, -4.255207e-02, 1.794290e-02, -5.317452e-02, -4.196215e-02, 2.909957e-02, -3.683488e-02, -1.259337e-02, 5.706990e-02, 2.629576e-02, -4.556936e-02, 2.381725e-03, 2.606769e-03, -1.728913e-03, 4.841187e-02, 4.363247e-02, 5.264482e-02, -1.485637e-02, 2.203096e-02, 1.214595e-03, -4.885584e-02, -4.850494e-02, 4.535980e-02, 3.000835e-02, -3.257829e-02, -9.050319e-03, -5.187560e-02, -1.675122e-02, -2.619065e-02, -4.990263e-02, 1.820587e-02, -5.773674e-02, 4.812860e-02, -2.923123e-03, 5.525410e-02, 5.424576e-02, -2.302212e-02, -2.741482e-02, -2.105754e-02, -2.419306e-02, -2.489805e-02, 2.286772e-02, 3.747876e-02, 3.487822e-02, 2.525344e-02, 3.995237e-02, -4.953059e-02, 4.232179e-02, 1.593611e-02, 4.928774e-02, 2.198018e-02, -8.984922e-03, -5.610715e-03, -5.684700e-02, 2.674223e-02, -1.243257e-02, 1.844551e-02, -3.455339e-02, 3.428756e-02, -2.537732e-02, 3.945042e-02, -3.760752e-02, -2.529890e-02, 1.657966e-02, -1.926048e-02, -2.261497e-02, 1.127536e-02, 2.714443e-02, 4.729608e-02, 2.202961e-02, 4.000606e-02, -4.105152e-03, 3.099774e-02, -5.495160e-02, -5.533777e-02, -4.272278e-02, 1.789347e-02, -5.813597e-02, -2.007532e-02, -3.966611e-02, -5.598005e-02, 2.469612e-02, 5.785089e-02, 2.727823e-02, 5.133795e-02, 2.177692e-02, 5.046947e-02, -6.351382e-03, -3.001835e-02, -2.711717e-02, 5.694437e-02, -5.101357e-02, -7.645762e-03, -5.186675e-02, 4.487143e-03, 2.550509e-02, 3.671198e-02, -5.308793e-02, 4.118173e-02, 4.966349e-02, -2.983250e-02, -4.980351e-02, 2.398564e-02, 1.687100e-02, -2.148285e-02, -4.081471e-02, 2.720921e-02, -5.125886e-02, 5.007383e-02, -2.659660e-02, 5.299641e-02, -1.147846e-02, -3.561900e-03, -2.464779e-02, 4.052114e-02, -5.118692e-02, -1.725779e-02, -1.873668e-02, 3.740132e-03, 3.541585e-02, -1.525699e-02, 3.218783e-02, -3.089996e-03, 5.826110e-02, -2.305697e-02, 5.699171e-02, 5.090853e-02, 1.891433e-02, 1.806644e-02, 1.599607e-02, 2.769868e-02, 6.399858e-03, -4.550967e-03, -2.808582e-02, 2.524211e-02, 2.520930e-02, 2.539504e-02, -1.888569e-02, -4.640599e-02, -1.687062e-02, 5.555766e-02, -5.286188e-02, 5.687230e-02, 1.024075e-02, -1.660586e-04, 1.471276e-03, 5.642097e-02, -2.329826e-02, -4.066989e-02, 5.024206e-02, -4.196982e-02, 5.353495e-02, -3.930174e-02, -5.810171e-02, -3.055836e-02, 4.540657e-02, 5.608570e-02, -4.632527e-02, -4.393022e-02, 3.338363e-02, -5.626751e-02, -2.936898e-02, -5.607253e-02, -1.472196e-02, 2.445813e-02, 1.818724e-02, -2.520417e-02, -2.512199e-02, -1.325877e-02, -2.486163e-02, 5.100771e-02, -2.359309e-02, -2.753388e-02, 3.907283e-02, -7.406824e-03, -3.925135e-02, -3.093074e-02, 4.303226e-02, -2.448005e-02, 1.497808e-03, 4.831373e-02, 5.563503e-02, -3.125698e-02, 4.989864e-02, -4.828695e-02, -5.232868e-02, -2.922229e-02, -3.941691e-02, 2.711475e-02, -1.157198e-03, -4.972302e-03, 1.255812e-02, 3.442496e-02, 1.684483e-02, -1.899817e-02, 3.698442e-02, 4.956510e-02, 3.420172e-02, 2.048517e-02, -9.628757e-03, 1.652930e-02, -4.935661e-02, 9.132870e-03, 5.358599e-02, 5.527664e-02, -3.839676e-02, -1.901470e-02, -2.439519e-02, -5.677370e-02, 4.477674e-02, 5.661862e-02, -5.556067e-02, 1.837677e-02, 2.301141e-02, 3.727685e-02, -2.670317e-02, 3.241837e-02, 2.812751e-02, 5.224017e-03, -6.017573e-03, -5.789796e-02, -3.852247e-02, -7.516890e-04, -2.401150e-02, -2.925532e-02, -1.973995e-02, 3.336744e-02, 5.290718e-02, 2.527870e-02, -1.406350e-02, 2.611382e-02, -3.691525e-02, 3.260426e-02, 1.645954e-03, 2.244766e-02, -1.933917e-02, 4.904931e-03, -2.341282e-02, 1.563457e-02, 1.001186e-02, 3.651974e-02, -3.946837e-02, -4.702880e-02, -1.774717e-02, -3.825044e-02, -5.045052e-02, 1.972853e-02, -1.879604e-02, -5.846110e-02, 1.159323e-02, 9.296513e-03, 5.308234e-02, 1.784590e-02, -5.014017e-02, -1.441534e-02, 1.499510e-02, 3.329835e-02, 5.383381e-02, 6.730191e-03, -1.878275e-02, 5.297706e-02, 4.079319e-02, -4.897529e-02, -5.921899e-03, 2.288079e-02, -4.082606e-02, -7.406241e-03, -1.957942e-02, 4.629488e-02, 1.763027e-02, 6.823497e-03, 2.021432e-02, -4.857023e-02, -5.581671e-02, 1.233093e-02, 2.854782e-02, -3.652754e-02, -1.967693e-02, 5.562191e-02, -3.720726e-02, -2.388396e-02, -2.727409e-02, -1.875465e-03, 4.461454e-02, 2.103431e-02, 2.686447e-03, -2.941959e-02, 1.891439e-02, -2.677519e-02, 5.507635e-02, -9.138224e-03, 6.094245e-03, -3.301146e-02, 1.712914e-02, -4.183820e-02, -3.268966e-02, -4.619648e-02, -5.076000e-02, -3.445752e-02, 5.536202e-02, -3.355777e-02, -1.047793e-02, -4.301328e-02, -5.413241e-02, -5.599638e-03, 6.767590e-03, 3.880470e-02, 3.470713e-02, 4.450753e-02, 2.170097e-02, -9.292698e-03, 1.699101e-03, -4.409329e-02, 4.155797e-02, -3.606334e-02, 8.926618e-03, -3.625416e-02, 2.943046e-02, -2.325072e-02, -4.445326e-02, -4.255780e-02, -4.183068e-02, -4.796348e-02, 1.134037e-02, -2.813941e-03, -2.713126e-02, 9.575834e-04, 2.150339e-02, 5.161254e-02, 2.616670e-02, -2.145113e-02, -5.450599e-02, 5.890781e-03, -5.273187e-02, 4.617069e-02, 1.686849e-02, 2.216578e-02, 2.153844e-02, -4.462672e-02, -7.684818e-03, 6.060513e-03, 3.911060e-02, -7.326317e-04, 2.335391e-02, 5.237370e-02, -2.377106e-02, 1.943785e-02, 3.384018e-02, -3.269510e-02, -3.617722e-02, -4.402725e-02, -1.291811e-02, -4.936334e-02, 3.379173e-02, 3.250108e-02, 1.984533e-02, 5.176806e-02, 8.280220e-03, -4.147470e-02, -3.898442e-02, 2.581239e-02, 1.018786e-02, -2.838551e-02, -5.845971e-02, 3.561134e-02, 2.944542e-02, 4.570617e-02, 4.764072e-02, 1.974552e-03, 2.746060e-02, -7.401078e-03, 3.598329e-02, 2.716286e-02, -4.867684e-02, -5.561220e-02, -3.373718e-02, -2.149951e-02, -4.861832e-02, 1.149042e-02, -4.829528e-02, 2.748490e-02, -5.489283e-02, -3.034537e-02, 1.613976e-02, -3.327414e-02, -1.228877e-02, 2.926485e-02, 5.538106e-02, -4.343971e-02, 2.039307e-02, -1.464581e-02, -5.653274e-02, 4.446365e-02, -3.257380e-02, -3.765363e-02, 1.482916e-02, 3.773848e-02, -3.166964e-02, 1.833047e-02, 1.567722e-02, -2.804020e-02, -5.628998e-02, 4.818714e-02, 3.821675e-02, -3.066658e-02, 3.288149e-02, 2.657305e-02, -5.129264e-02, -2.713887e-02, -2.357786e-03, 8.822768e-03, 1.835159e-02, 2.457128e-02, 5.221377e-02, -1.486403e-02, -5.318099e-02, 2.741629e-02, 4.487643e-02, 1.068826e-02, -1.062179e-02, 2.192550e-02, 4.592672e-02, -4.017514e-02, -5.726071e-04, -1.298667e-02, -8.043333e-03, 3.356095e-02, 2.829244e-02, -5.703546e-02, 1.852035e-02, 5.365814e-03, -1.396728e-02, 5.119514e-02, 4.262165e-02, 3.730453e-02, 2.078353e-02, 4.416155e-02, -4.927637e-02, -3.455905e-02, 4.083453e-02, -1.049323e-03, -3.656067e-02, 5.736050e-02, -2.854551e-02, -1.379376e-02, 1.200349e-02, -8.520864e-03, 6.372147e-03, 1.304328e-02, 3.546597e-02, 4.987598e-02, 3.597367e-02, 2.147510e-02, -5.742178e-03, -5.406957e-02, 1.487813e-02, -1.526188e-02, 2.430415e-02, 1.184756e-02, -2.467860e-02, -1.295166e-02, -1.912309e-02, -5.629444e-02, -2.339333e-02, 3.803511e-02, 3.815731e-02, -5.354762e-02, -3.249108e-02, 1.549129e-02, -3.439011e-02, -1.051999e-02, -1.128687e-02, -2.419302e-02, 2.297003e-03, 1.945014e-03, -4.435267e-02, 1.651167e-02, -2.115503e-02, 3.087924e-02, -7.566209e-03, -5.178234e-02, 1.183241e-02, -4.645634e-02, -5.161113e-02, -2.930295e-02, -5.153470e-02, 5.798844e-02, -5.771519e-03, -2.804960e-02, 5.439637e-02, -1.678243e-02, -1.925282e-03, -5.609915e-02, -3.459116e-02, -5.355018e-02, 5.717733e-03, 5.145517e-02, -2.988025e-02, -5.261943e-03, 2.537673e-02, 4.424871e-03, 1.340821e-02, 4.443596e-02, 3.961874e-02, 1.572303e-02, -1.609725e-02, -1.968679e-03, 1.933344e-02, 2.510497e-02, 4.308518e-03, 1.257613e-02, 1.462810e-02, -1.094384e-02, 5.432705e-02, -2.853115e-02, -4.249801e-02, -2.718600e-02, -1.983065e-03, -2.709006e-02, 7.424525e-03, -1.741435e-02, -3.494035e-02, 3.424804e-03, -4.318869e-02, 6.959618e-03, 4.540480e-03, 2.339240e-02, 3.512516e-02, 4.064475e-02, -3.584687e-02, 5.242725e-02, -2.974995e-02, -4.930960e-02, 1.010419e-02, -4.373838e-03, 2.523213e-02, 3.578091e-02, -2.671502e-02, 3.117796e-02, -2.549884e-03, -4.379611e-02, 1.608553e-02, -2.044039e-02, 6.280014e-03, 1.179853e-02, 1.046942e-02, -6.328441e-03, -4.985319e-02, -3.827263e-02, 5.134099e-02, 4.739837e-02, 1.867202e-02, 7.248078e-03, 4.398907e-02, -2.164901e-02, 4.520980e-03, -2.067116e-02, 2.211591e-02, 3.457713e-03, -3.962421e-02, -1.218735e-02, 2.232961e-03, -4.015075e-02, 2.581537e-03, 1.666890e-02, -4.023682e-02, -5.237329e-02, 1.176663e-02, 3.748968e-02, 5.896491e-03, -7.162927e-04, 9.875147e-04, -2.343786e-02, 3.541375e-03, 5.693604e-02, 4.080721e-03, 4.724920e-02, -1.559405e-02, -4.961967e-02, 2.219691e-02, 3.667726e-02, 4.836762e-02, -3.917293e-02, -5.460339e-02, 1.509754e-02, 4.420171e-02, 2.854735e-02, 1.428976e-02, -1.538380e-02, 3.347520e-03, -5.803748e-02, -4.651172e-02, -4.002475e-02, 1.032417e-02, -2.496298e-02, 5.283889e-02, -8.408619e-03, 4.866858e-02, 4.133987e-02, 9.296225e-03, 5.845546e-02, -9.883436e-03, -4.790703e-02, 4.962206e-02, -2.134626e-02, -2.536742e-02, 2.823179e-02, 5.623611e-02, -3.013053e-02, -3.570307e-02, -2.463244e-02, 1.893369e-02, 1.876867e-02, -3.790412e-02, 3.601138e-02, -5.279897e-02, 5.042773e-02, 3.145348e-02, 5.464496e-02, 1.080751e-03, 4.488889e-02, 4.626742e-02, 3.125985e-02, -2.865192e-03, -5.111579e-02, 4.058704e-02, -4.788321e-02, -1.278836e-02, -1.567698e-02, 2.515610e-02, 3.750860e-02, 1.881371e-02, -2.798226e-02, -4.187635e-02, 4.652504e-02, 4.618791e-02, 8.321354e-03, -3.181106e-02, -3.263954e-02, -1.266676e-02, 2.493105e-02, -4.580988e-02, 3.516702e-02, -5.722658e-02, 4.184884e-02, -5.334642e-02, 3.402606e-02, 5.005114e-03, 4.775722e-02, -9.353925e-03, -8.235396e-03, 1.041245e-03, 2.568142e-02, -4.557673e-02, -4.153783e-02, -4.139382e-03, 1.109275e-02, 1.202271e-02, 3.549383e-03, -4.134559e-02, 1.056031e-02, 3.424726e-02, -5.868584e-02, -4.810818e-02, -5.272647e-02, 2.777436e-02, -5.859194e-02, -3.961891e-02, -5.746914e-02, 2.904547e-02, -1.979640e-02, 5.626849e-02, 5.872341e-03, -8.452157e-03, -8.198665e-03, -1.665142e-02, -5.630679e-02, -5.854196e-02, 2.950202e-03, 4.550848e-03, 4.015370e-02, 1.603884e-02, -2.893414e-02, 5.102709e-02, -2.668963e-02, 5.305647e-02, 5.221362e-02, -2.593657e-02, -2.904410e-02, -2.174338e-02, -2.168807e-03, 1.726215e-03, 1.984951e-02, 2.514126e-02, 1.120841e-02, 1.821875e-02, -2.200875e-02, 5.686090e-02, 2.456608e-02, -1.038595e-02, 3.255429e-02, -4.187704e-03, 3.939888e-02, -2.219755e-03, 1.868882e-02, -5.866965e-02, -2.238869e-02, 5.745375e-02, 1.262411e-02, -2.769946e-02, 1.975327e-02, 3.806467e-02, 9.594688e-03, 2.756249e-02, 8.700887e-03, -1.222877e-02, -5.786525e-02, 2.091268e-02, 1.416098e-02, 1.654238e-02, -5.861844e-02, 4.365507e-02, 5.443469e-03, -1.859550e-02, -6.597942e-03, -4.746664e-02, -2.517092e-02, 4.159470e-02, 4.930128e-02, -3.083720e-02, -2.744816e-02, -3.302519e-02, -1.978687e-02, 3.036540e-03, 9.677337e-03, -3.570109e-02, -3.849407e-02, -2.603834e-02, -4.677947e-02, -4.594434e-02, -4.577727e-02, 6.282388e-03, 3.705312e-02, 1.434129e-02, 1.232872e-02, -1.938587e-02, 3.726376e-02, 4.147645e-02, 2.971200e-02, 1.595012e-02, -4.555212e-02, 1.182509e-02, 2.010317e-02, -4.766008e-02, -1.070215e-02, 3.001284e-03, -4.362560e-02, 4.499192e-02, 4.249115e-02, 1.418964e-02, 1.425323e-02, -2.294503e-02, -1.509444e-02, -5.684244e-02, 3.237367e-02, 2.338661e-02, 4.687079e-02, -1.825155e-02, -5.300297e-02, -1.376796e-02, -5.865422e-02, -1.639465e-02, 4.455165e-02, -5.607229e-02, -1.667403e-02, -2.170100e-02, -1.558406e-02, 3.164961e-02, -2.900486e-02, -2.164779e-02, -1.531079e-02, 4.188890e-02, -2.588747e-02, 1.680906e-02, 4.976915e-02, -5.782952e-02, 3.802812e-02, -3.098067e-02, 4.337368e-02, -5.203510e-02, -1.798655e-02, 5.346251e-02, -9.903456e-04, 5.589630e-02, -3.262739e-02, -1.663934e-02, -2.936238e-02, 1.580033e-02, 1.148952e-02, 4.945849e-02, 3.823869e-02, -4.288168e-03, -4.208454e-02, 2.819938e-02, -2.608111e-02, 5.110327e-03, -4.921979e-02, 2.919048e-02, 2.676420e-02, 9.296063e-03, 4.319402e-02, -3.909809e-02, -2.426825e-02, -2.936848e-02, -2.527306e-02, 5.213414e-02, 4.709417e-02, -3.681960e-02, 4.866448e-02, 5.281204e-03, -5.391585e-02, 5.270075e-02, -4.566812e-02, 2.079790e-02, -4.766526e-02, 5.603389e-02, -1.657291e-02, -1.433868e-02, 1.376124e-02, -6.766866e-03, -2.226807e-02, 1.911562e-02, -1.780863e-02, -4.447188e-02, -7.164796e-03, -3.446725e-02, 2.556590e-02, -3.788875e-03, 1.658261e-02, -1.515601e-02, -3.610537e-02, -5.339858e-03, 5.177940e-02, 7.015968e-03, 8.693743e-03, 3.029317e-02, -1.912030e-02, -3.555238e-02, -5.250647e-03, -1.953700e-02, -1.660680e-02, 3.242651e-02, -2.737024e-02, -1.505299e-02, -2.069153e-02, 4.117535e-02, -7.191728e-04, -1.192054e-02, 3.467913e-04, -4.193193e-02, 2.990306e-02, 1.572426e-02, -2.600354e-02, 1.216721e-02, 1.772069e-02, -2.907136e-02, -5.195345e-02, 6.429593e-03, 4.651491e-02, -3.229599e-02, -2.491488e-02, -1.110017e-02, 2.445373e-02, 4.312345e-02, 1.660997e-02, 3.344532e-02, -5.606669e-03, 4.052481e-02, -3.747562e-02, 1.050973e-02, -1.504693e-02, 4.280916e-02, -3.665138e-02, 1.668525e-02, 3.031022e-02, 3.129939e-02, -2.703874e-02, -4.331183e-02, -5.426494e-02, -2.771893e-02, -9.185442e-03, 2.744849e-03, 1.427674e-02, 1.800272e-02, -1.925999e-02, -2.716912e-02, -9.710943e-03, -2.090120e-02, 2.319909e-02, -2.794104e-03, -1.213942e-03, 1.485350e-02, -5.470219e-02, -5.861601e-02, -5.070286e-02, 3.967311e-03, -3.700288e-02, -2.492315e-02, 4.890859e-02, 3.609378e-02, 3.778280e-02, 3.034516e-02, -3.290139e-02, -5.389336e-02, -9.213083e-03, 2.180115e-02, -6.157879e-03, -3.972108e-02, 1.853930e-02, 4.783623e-02, -4.711039e-02, -4.677162e-02, -1.401625e-02, 5.743678e-02, 1.132333e-02, 4.023455e-02, 5.126068e-02, -4.819692e-02, -3.648264e-02, 1.088997e-02, 6.310690e-03, 4.634871e-02, -4.635030e-02, -4.209856e-02, 5.575942e-02, 5.766043e-02, -6.487011e-03, -4.709926e-02, 2.065517e-02, 1.974871e-02, -2.002743e-02, 4.256828e-02, -3.178354e-02, 1.749344e-02, 5.348906e-02, 2.483166e-03, 8.785883e-03, 3.349521e-02, 2.854124e-02, 4.084483e-02, 2.528668e-02, -1.593650e-03, -2.761491e-02, -3.771630e-02, 1.871669e-02, 3.457921e-02, 1.639897e-02, 1.373675e-02, -1.325177e-02, -2.219362e-02, 7.469412e-03, 2.050726e-02, 1.761925e-02, -2.200719e-03, 3.760973e-02, 2.544540e-02, -1.266319e-02, 3.191634e-02, -4.302648e-02, 3.901234e-02, -1.276250e-02, -2.846682e-02, 3.844347e-02, -4.998351e-02, -3.029986e-02, -8.308647e-03, 3.694825e-02, -4.331159e-02, -2.566959e-02, 1.953753e-02, 2.174387e-02, 7.855899e-03, 5.285754e-02, -5.480417e-02, -5.074255e-02, 4.301872e-02, 3.194425e-02, -4.986187e-02, -1.321455e-02, 4.138039e-02, -2.328162e-02, -4.333216e-02, 3.054622e-02, -1.735870e-02, -2.153152e-02, 4.784644e-03, 2.964715e-03, -3.841835e-02, 5.772249e-02, -4.248022e-02, -4.075157e-02, 5.035882e-02, 5.790903e-02, -3.217930e-02, -1.392160e-03, 3.652671e-02, -1.735600e-02, 4.979287e-02, -4.050689e-02, 1.580435e-02, 2.995455e-02, -1.085686e-02, -4.701241e-02, 2.381400e-02, 2.488974e-02, -1.276541e-02, 2.664697e-02, -4.941644e-02, 5.753928e-02, -7.214901e-03, -3.330094e-02, -3.564666e-02, -4.371990e-02, -5.111951e-02, -4.393209e-02, -5.041580e-02, -4.423808e-02, -3.603971e-02, 2.394889e-02, 5.000493e-02, 3.428211e-02, 2.336080e-03, 2.617943e-02, -8.032831e-03, -2.528761e-02, -2.129346e-02, -2.668847e-02, 1.124674e-02, 3.435179e-04, 1.225244e-02, -4.416823e-02, 4.379284e-02, -3.804965e-02, 4.277147e-02, 5.276632e-02, -1.286985e-02, 3.019880e-02, 4.279524e-02, 1.114981e-03, 1.998477e-03, 4.970738e-02, 5.448621e-02, 1.095768e-02, 2.503933e-02, 2.500183e-02, 1.081103e-02, 4.524275e-02, -6.512349e-03, 3.555217e-02, -5.147820e-02, 5.670495e-02, 2.155717e-02, -3.162199e-02, -3.943181e-02, -7.378761e-03, -1.035261e-02, -5.740220e-02, -5.831348e-02, 3.684592e-02, -6.295285e-03, -2.273730e-02, 4.682714e-02, 2.603665e-02, -4.882117e-02, 3.359129e-02, -3.542823e-02, 1.335111e-02, 1.426537e-02, 5.043169e-02, -4.002222e-02, -5.681725e-02, -4.026994e-02, -5.243783e-02, 5.155966e-02, -1.769412e-02, -5.307153e-02, 5.551811e-02, -2.132097e-02, -4.773599e-02, 2.098291e-02, 2.980981e-02, 1.338163e-02, 3.851971e-02, -2.514267e-02, -3.017773e-02, -5.552382e-02, 4.782409e-02, -1.739195e-02, -5.704616e-02, 1.814928e-03, 1.040388e-02, -3.287049e-02, -5.727799e-03, 4.863907e-02, -3.530774e-02, 4.893319e-02, -5.329874e-02, 2.418848e-02, -3.813757e-02, -5.335598e-02, 3.448614e-02, 3.167543e-02, 3.020187e-02, -3.592854e-02, 2.139380e-02, -2.124294e-02, 1.543847e-02, -3.260654e-02, -4.487843e-02, 5.546167e-02, -2.600475e-02, -1.904234e-02, 2.011560e-02, -5.227459e-02, 4.996691e-02, -2.642999e-02, 6.676595e-03, -4.517369e-02, 3.541011e-02, -2.425885e-02, 5.697622e-03, 5.242332e-02, -2.532195e-02, -9.832115e-03, -4.258256e-02, 4.703401e-02, 3.267765e-02, -3.014453e-02, -8.195398e-03, -5.182881e-02, 2.976503e-02, 1.481799e-03, 1.689749e-02, -3.924837e-02, -3.629997e-02, -1.184963e-02, -1.499234e-04, -2.814505e-02, 2.208022e-02, -5.146588e-02, -8.425091e-03, 5.253137e-02, 3.219785e-02, 2.261844e-02, -4.297839e-02, -2.223666e-02, -3.426854e-02, 4.366992e-02, -1.757484e-02, -3.625709e-02, 4.888181e-02, -2.423176e-02, 2.601446e-02, 5.684205e-02, -4.501128e-02, 4.994925e-02, -2.388547e-02, 1.973259e-02, 1.527590e-02, -2.225372e-02, -3.085066e-02, 4.793406e-02, -3.530240e-02, -1.984038e-02, -2.181458e-02, -3.875335e-02, 2.792931e-03, -4.377846e-02, 4.093112e-02, 1.785968e-02, 5.096167e-02, -3.332090e-02, 1.022162e-02, 1.258748e-02, 1.869754e-03, -3.496708e-02, 5.314464e-02, -5.103872e-02, -5.323340e-02, -4.946402e-02, 1.798169e-02, 6.273348e-03, -3.870052e-02, 7.787059e-03, 5.488492e-02, -1.004158e-02, -4.415971e-02, -1.818692e-02, 4.347430e-02, 5.037672e-04, 4.475215e-02, 5.335238e-02, 4.729207e-02, 3.972862e-02, -5.129173e-02, -1.562177e-02, -5.256299e-02, -1.856085e-02, -2.802366e-02, 2.983707e-02, -1.967893e-03, 3.629826e-02, -2.212608e-02, -3.024510e-02, 3.726829e-02, -3.075720e-02, 3.073036e-02, 1.632571e-02, 4.428765e-02, -7.603826e-03, 1.755786e-02, -4.057857e-02, 2.948698e-02, -4.740303e-02, 4.897173e-02, -9.220690e-03, -1.992947e-02, -5.632203e-03, -3.599346e-02, 3.565661e-02, -2.114930e-02, 2.857734e-02, 3.050531e-02, -5.318634e-02, 5.428985e-02, 1.199872e-02, -1.865033e-02, -4.180367e-02, -4.983794e-03, 1.837380e-02, -4.049387e-02, 4.223042e-02, 4.527725e-02, 1.695717e-02, 1.222390e-02, -4.973063e-02, -3.796389e-02, -2.328946e-02, -2.931521e-02, 1.587956e-02, 1.699520e-02, -4.486489e-02, -5.395174e-02, 5.862580e-02, -3.730030e-02, 3.652365e-02, 4.380339e-02, 2.581906e-02, -4.828555e-02, -3.022656e-02, 2.501124e-02, -1.581584e-02, -2.572987e-02, -7.268091e-03, 4.220630e-02, -3.218500e-02, -2.514125e-02, -3.698384e-02, 1.455500e-02, 2.410677e-02, 5.275574e-02, 2.587184e-04, -4.653071e-02, -1.127737e-02, 5.004740e-02, 3.744280e-02, 5.147164e-02, -2.116375e-02, -2.332973e-02, 2.573931e-02, -9.365872e-03, 3.293707e-02, -2.937768e-02, 4.299400e-02, -9.652331e-04, 4.195295e-02, 3.801730e-03, 5.159387e-02, 2.265895e-02, 3.949480e-02, 3.775660e-02, -4.391035e-02, -3.878099e-02, -3.340127e-02, 2.302076e-02, 1.337138e-02, -3.044276e-02, 4.511501e-02, 3.710587e-02, 5.383981e-02, -4.138533e-02, -4.205566e-02, 2.666580e-02, 5.611625e-02, 3.884499e-02, -1.957528e-02, -4.494688e-03, -3.142314e-02, 3.611319e-02, -4.883352e-03, -4.471693e-02, 4.016063e-02, 3.410732e-02, -1.555504e-02, 4.115478e-02, 2.066706e-02, 3.403358e-03, 2.354997e-02, -4.003549e-02, -4.701713e-02, 1.120104e-02, 5.479134e-02, -4.089755e-02, 4.381583e-02, -6.512749e-03, 5.339303e-02, -1.644479e-02, -3.984478e-02, 4.202631e-03, 2.374822e-02, -1.284510e-03, 2.671211e-02, 1.673611e-02, 3.500446e-02, -5.599904e-02, -5.118998e-02, -5.238428e-02, -4.436876e-02, 4.131260e-02, -4.764162e-02, 1.375298e-02, -3.265026e-02, -2.868338e-02, -2.857254e-02, 1.402580e-02, 1.513938e-02, -2.740812e-02, 5.712687e-02, -2.517787e-02, 2.627359e-02, 2.883862e-02, -9.233222e-03, 4.749593e-02, 2.054589e-02, 9.621093e-03, -1.224870e-02, 1.859308e-03, 3.710966e-02, -3.809666e-02, -2.104618e-02, -1.544856e-02, -3.083923e-02, 5.984782e-04, -1.280442e-03, -3.564060e-02, 1.941880e-02, -3.325393e-02, 3.955206e-02, 5.535049e-02, -4.913409e-02, 5.000911e-02, 1.213334e-02, 3.822372e-02, -1.398713e-02, 3.428474e-02, -1.311559e-02, -2.377036e-02, -5.892142e-02, 2.377403e-02, -1.694542e-03, 1.061538e-02, -2.433994e-02, -1.050064e-02, 2.834236e-02, 1.267768e-02, -3.972262e-02, -4.999715e-02, 5.556570e-04, -3.551237e-02, -1.847720e-02, -3.610257e-02, -1.736531e-02, 5.072545e-02, -2.715595e-02, 1.729640e-02, -4.079733e-02, 1.954693e-02, -3.267444e-02, -5.388658e-02, 1.636913e-03, -1.792992e-02, 5.155051e-02, -1.224660e-02, -4.846431e-03, -2.009401e-02, -3.175538e-02, -2.069705e-02, 2.698618e-02, -5.459883e-02, 5.654175e-02, 2.656730e-02, -2.225963e-02, 3.214681e-04, -5.113892e-02, -3.401984e-02, -5.095633e-02, 3.841823e-02, 3.538347e-02, 3.560648e-02, -5.191596e-02, -3.352741e-02, -2.010675e-02, 4.675345e-02, 3.133024e-02, 2.034969e-03, 1.591025e-02, 4.437257e-02, -1.117104e-02, -4.174439e-02, -2.781117e-02, -4.941307e-02, -3.549361e-02, -2.483100e-02, -2.936933e-05, -5.375201e-02, -2.825490e-02, -2.821106e-02, 3.028715e-02, 1.349149e-02, 6.145467e-03, 7.909692e-03, 1.422208e-02, -2.952677e-02, -3.551850e-02, -3.239362e-02, -1.991410e-02, 5.443110e-02, 1.326717e-02, 3.522002e-02, -1.795248e-02, -7.014395e-03, -4.404462e-02, 4.330307e-02, 5.118711e-02, 3.638501e-02, 2.261893e-02, 5.516035e-02, -8.946856e-03, 3.453597e-02, 3.907260e-02, -1.723419e-02, 4.616798e-02, 1.583688e-02, -1.279717e-02, 2.146491e-02, -5.394226e-02, -5.216081e-02, -1.327733e-02, 1.030552e-02, -3.526335e-02, -5.670828e-02, 1.483011e-02, -4.186149e-02, 2.729986e-02, -1.711794e-03, -2.695188e-02, 5.759123e-02, 2.990913e-02, 5.030536e-02, -5.460270e-02, -3.434511e-02, 4.751449e-02, -2.390393e-02, 5.452392e-02, 4.465666e-02, -5.480320e-02, 1.236597e-02, -3.829365e-02, 1.636231e-02, 3.942090e-02, -2.811205e-02, -5.032692e-03, -4.614618e-02, -5.566690e-02, 4.418411e-02, 1.027481e-02, 1.717600e-02, 1.499675e-02, -9.403924e-03, -1.135418e-02, 2.399983e-02, -5.572621e-03, -8.186513e-03, 6.106509e-03, -3.332584e-02, -4.396686e-02, 2.131745e-03, -5.479820e-02, -1.666638e-02, -2.779373e-02, -5.059025e-02, 1.475611e-02, 2.747842e-02, 1.162906e-02, -8.682209e-03, -3.260798e-02, -3.138663e-02, 1.974330e-02, 1.193855e-02, 4.685637e-02, -8.437455e-03, 3.520175e-02, 5.659993e-02, -7.221954e-03, 2.574541e-02, -3.247162e-02, 5.147995e-02, -5.647650e-03, 1.630097e-02, 4.303540e-02, -2.075052e-02, 1.289245e-02, 4.308319e-02, 6.952333e-04, -3.384234e-02, 4.551534e-02, 3.192311e-02, 2.974226e-03, 5.692452e-03, 5.075105e-02, -1.534721e-03, 3.399472e-02, -6.986845e-03, 5.748449e-02, -1.212001e-02, -8.763692e-03, -2.258952e-02, 4.714943e-02, 4.207838e-02, -4.945393e-02, -4.601842e-02, 4.192719e-03, -4.083654e-02, -5.734902e-02, -5.249793e-02, 1.078194e-02, -2.316464e-02, 4.970632e-02, -2.950413e-02, 5.462864e-03, -5.420366e-03, -4.672987e-02, -2.444005e-02, 5.093947e-02, 4.914255e-02, -6.475997e-03, 1.174247e-02, -3.113841e-02, -3.468221e-02, -3.456035e-02, 8.719677e-03, -4.863437e-02, 8.830193e-03, 1.519822e-03, -3.271304e-02, 2.186734e-02, -3.487956e-02, -3.458353e-02, 5.863308e-02, -4.349896e-02, 5.379192e-02, -1.302829e-04, -4.816937e-02, -1.548599e-02, -3.475258e-02, 6.627613e-03, 4.557876e-02, -2.940527e-02, -5.305537e-03, -5.506099e-02, 4.285716e-02, -3.059506e-02, -5.576520e-03, 3.024935e-02, -1.893290e-02, 9.153649e-03, 5.338243e-02, -1.062097e-02, 2.713838e-02, -2.596363e-02, -2.560993e-02, 7.651023e-03, 1.491677e-02, 4.359800e-02, 3.426221e-02, -9.324850e-04, -2.819204e-02, 2.801309e-02, 1.578297e-02, -3.107164e-02, 3.687987e-02, 4.485675e-03, 4.849641e-02, -4.697847e-02, 5.103913e-03, 2.181572e-02, -1.401991e-02, 4.979476e-02, 2.286684e-03, -2.297718e-02, 5.101247e-02, -1.579110e-02, -1.393196e-02, 4.463545e-02, -3.984242e-02, 3.229273e-02, 9.762573e-03, 2.700995e-02, 3.665548e-02, 5.669136e-02, -5.276918e-02, -8.703008e-03, 1.823141e-02, 1.397580e-02, 3.370846e-02, -5.530582e-02, 3.203217e-02, -2.655294e-03, -3.451778e-03, -1.553371e-02, 2.538982e-03, 4.211103e-02, 5.411709e-02, -5.245357e-02, 6.070860e-03, -5.112069e-02, 4.590473e-02, 4.685934e-02, 4.835665e-02, 4.596536e-02, -2.232604e-02, 3.493479e-02, -5.662513e-03, -6.955565e-04, -1.424815e-02, 1.836414e-02, 4.815995e-02, 4.845574e-03, -4.980551e-02, 3.035755e-02, -5.524274e-02, -4.787968e-02, -5.660755e-02, 1.288495e-02, 1.724294e-02, 6.672661e-03, -4.160171e-02, -4.990204e-02, -3.090480e-02, 1.986962e-02, 5.035846e-05, -2.621656e-02, 5.442796e-02, -2.384076e-02, 4.721444e-02, 1.846568e-02, 2.351311e-02, 3.223558e-02, -4.083723e-02, 4.812722e-02, -3.452399e-02, 5.253538e-02, -3.887864e-03, 7.705877e-03, 4.973558e-02, -4.888723e-02, 5.568010e-02, -3.392226e-02, 1.991428e-02, -1.182669e-02, 4.469051e-02, -3.300518e-02, -2.496073e-02, -5.352578e-02, -1.000248e-02, -9.512874e-03, 3.700079e-02, 6.508113e-03, 3.179314e-02, -5.579830e-02, -2.268095e-02, 3.996882e-02, 2.725231e-02, -5.129376e-02, -1.818063e-02, -8.837049e-03, 2.977112e-02, 1.864452e-02, 6.151122e-04, 3.774666e-02, -3.538907e-02, -5.492764e-02, -1.915896e-02, 1.346239e-02, 1.995735e-02, -5.211269e-02, -4.652358e-02, 7.423788e-03, -4.694131e-02, 5.430722e-02, -1.748928e-02, 7.776564e-03, -1.989423e-02, 1.813392e-02, -4.670981e-03, -4.480067e-02, -5.797882e-03, 2.845741e-02, -1.126468e-02, -5.215195e-03, 1.401762e-02, 2.691248e-02, -5.431755e-02, -5.344846e-03, -5.517714e-02, 9.718178e-03, 2.841337e-03, -4.925683e-02, 1.355025e-02, 3.986607e-03, 4.363064e-02, 5.082748e-02, 5.785555e-02, 4.770170e-02, -3.815372e-02, 8.932126e-03, -4.950985e-02, -4.412998e-02, -5.009500e-02, 3.838808e-02, -4.997743e-02, 4.164878e-02, 5.619207e-02, 2.547391e-02, -3.143803e-02, 2.611826e-03, -1.213573e-02, 4.711570e-02, -1.916262e-02, 5.756344e-02, -2.966012e-02, -1.831280e-02, -2.368489e-02, -4.988610e-02, 3.838307e-02, -2.695371e-02, -5.114670e-02, -4.872602e-02, 7.458278e-03, 1.207136e-02, -4.403461e-03, -5.184932e-02, 5.224877e-02, -5.723218e-02, -7.670909e-03, 5.439561e-02, 5.454791e-02, -2.223534e-02, 2.449501e-02, -1.940917e-02, -2.896535e-03, -2.780198e-02, 3.520436e-02, -3.129649e-03, 2.062412e-02, 4.076258e-02, -5.591572e-02, -4.745202e-02, -3.972419e-02, -1.571385e-02, -2.829346e-03, -3.751804e-02, 5.471708e-02, 1.268001e-02, 2.105206e-02, 3.032734e-02, -1.446636e-02, 2.284111e-02, -4.106508e-05, -1.479029e-02, 2.222875e-02, 5.149585e-02, -2.854817e-02, 3.184187e-03, 2.914595e-03, -1.030390e-02, -2.085364e-02, 1.161137e-02, 5.339549e-02, 2.309184e-03, 2.051749e-02, 3.322338e-02, 3.266063e-02, -1.104708e-02, 8.361647e-03, 2.478939e-02, 3.928829e-02, -3.508890e-02, 2.002650e-03, 5.706943e-03, 6.939746e-03, 2.670791e-02, -1.454149e-02, 2.075949e-02, -5.200761e-02, -5.278870e-02, -1.313478e-02, -2.783773e-02, -3.689389e-02, 3.212888e-02, -2.752306e-02, -1.363937e-02, -2.403573e-02, 5.796070e-03, 5.000960e-02, -1.657595e-02, 2.102900e-02, 4.563421e-02, 2.956618e-02, -5.131072e-02, -5.861674e-02, -4.270956e-02, 4.599961e-02, -2.025883e-02, 2.661621e-02, -1.747460e-02, 9.501642e-03, -4.773147e-02, -3.087025e-02, -1.819608e-02, -3.670550e-02, -4.486607e-02, 6.533070e-03, -1.104259e-02, 2.816751e-03, -9.644955e-04, -4.174444e-02, 1.463534e-02, 6.741964e-03, 4.611015e-02, 5.705563e-02, 2.672313e-02, 2.661384e-02, 8.904020e-03, -2.226225e-03, -1.205939e-02, 2.634777e-02, -2.187291e-02, -4.885038e-02, 5.389450e-02, 7.584782e-03, 7.689117e-03, 4.469728e-02, 3.401839e-02, -1.340480e-02, 3.273181e-02, 2.930110e-02, 2.710845e-02, -2.714766e-02, -2.811516e-02, -4.719934e-02, 3.675486e-03, 3.799103e-02, -5.650136e-02, -3.544921e-02, 2.727176e-02, 2.587261e-02, 3.497488e-02, -4.054241e-02, 2.600604e-02, -5.540018e-02, 5.472867e-03, 5.295463e-02, -1.145203e-02, 2.063661e-02, -2.038341e-03, -4.209135e-02, 4.644489e-02, -2.925588e-02, 4.866810e-02, 3.982413e-02, -3.610022e-02, -1.234215e-02, -2.439849e-02, -2.621955e-04, -1.499982e-02, -1.717242e-02, 1.193751e-02, -8.029466e-04, -5.789453e-03, -1.727506e-02, 5.609766e-02, 4.621884e-02, 5.317346e-02, 2.091523e-03, -2.175082e-02, -5.245907e-02, 1.947558e-02, -1.312432e-03, 3.027405e-02, -2.167424e-02, 1.956866e-02, -2.218189e-04, -3.722934e-02, -4.484981e-02, -1.443482e-02, 3.070770e-02, -4.280757e-02, 2.341616e-02, 4.181796e-02, 5.092691e-02, 4.933391e-02, 3.905084e-02, 2.683251e-03, 1.372738e-02, -2.317486e-02, 5.141602e-02, -1.319614e-02, -7.474765e-03, 1.510403e-02, -5.738671e-02, -1.588654e-02, 3.670300e-02, 4.851250e-02, 2.390889e-02, -4.313360e-02, 2.522343e-02, -1.929303e-02, 3.128631e-02, 5.703092e-02, -2.408853e-02, 4.404709e-02, -5.861725e-02, -5.957387e-03, -5.239825e-02, 5.580255e-02, 5.137673e-02, -8.636416e-03, -4.537362e-02, 1.020084e-02, -1.065322e-02, -5.833699e-02, 7.970833e-03, -1.770621e-02, -3.215341e-03, 1.882131e-02, 5.193225e-02, -2.333629e-03, 2.129831e-02, 4.626756e-02, -3.839130e-02, -3.833247e-02, 1.490922e-02, -3.318364e-02, -1.613180e-02, -2.892580e-03, -7.851396e-04, 5.565542e-02, 8.553591e-03, 3.401173e-02, -2.551907e-02, 5.681156e-03, -1.128230e-02, -5.699075e-02, 3.949194e-02, -6.372140e-03, -5.439910e-02, -2.860633e-03, 4.384226e-02, 1.817207e-02, 5.510497e-02, -5.004298e-02, 5.344195e-02, -2.074773e-02, -1.606908e-02, 2.522066e-02, -5.734650e-02, 3.168003e-03, -3.815962e-02, -2.050051e-02, 5.189270e-02, -3.948398e-02, -9.359354e-03, -9.184290e-03, -4.284970e-02, -5.845211e-02, -3.128568e-02, 2.266058e-02, 4.215275e-03, 6.712778e-03, 5.089639e-02, 2.510686e-02, -7.868697e-03, -4.239535e-02, 5.596788e-02, -5.044160e-02, -3.668710e-02, 1.417160e-02, -4.890167e-02, -2.667938e-02, -4.075822e-02, 1.972461e-02, 4.201121e-02, -4.620247e-02, 1.151103e-02, -4.800589e-03, -1.765199e-02, -5.707918e-02, 4.006088e-02, -2.041820e-02, 3.077352e-04, 7.077229e-04, 3.123105e-02, 5.204818e-02, 4.163146e-02, 8.544768e-03, 5.838092e-02, -3.971818e-02, -3.984371e-02, 2.060051e-02, -3.751924e-02, -3.576960e-02, 8.068972e-03, -4.711985e-02, 4.420147e-02, -5.803734e-03, 1.649876e-02, -6.203426e-03, -4.423671e-02, -3.376805e-02, 4.090141e-02, -8.792177e-03, 4.261336e-02, -1.308936e-02, -5.772163e-02, -4.081527e-02, -2.715942e-02, -3.939681e-02, -2.175101e-03, -5.179785e-02, -2.878916e-02, 5.091308e-02, -2.519879e-02, 5.719545e-03, -3.755852e-02, -1.170466e-02, -1.569434e-02, 3.105010e-02, 1.565463e-02, -1.836265e-02, 1.409635e-02, 1.961115e-02, -5.357441e-02, -1.830802e-02, 3.043468e-02, -1.752267e-02, 1.619653e-02, -2.970913e-02, 5.835530e-02, -4.102956e-02, -1.665572e-02, -4.437633e-02, -3.911053e-02, -4.788453e-02, 2.266696e-02, -1.122225e-02, -5.596441e-02, -1.657438e-02, 4.234425e-02, -4.021288e-02, 4.247311e-02, -2.976029e-02, 2.141881e-02, 4.647254e-02, -2.153823e-03, 5.342412e-02, 3.777987e-02, 2.753000e-02, 4.977357e-02, 3.777618e-02, 3.641801e-02, -2.313743e-02, -4.328506e-02, 4.675144e-02, -3.107712e-02, 4.206407e-02, -5.000796e-02, 3.758204e-02, 3.237398e-02, -2.749337e-02, 3.916896e-03, 5.387669e-02, -6.806618e-03, 2.989082e-02, -2.516878e-02, 5.108096e-02, -6.726124e-03, 5.601247e-02, 3.267553e-02, -3.816773e-02, 3.081419e-03, -4.861395e-02, -4.243428e-02, 4.252798e-02, 3.801735e-02, 1.745545e-02, 1.924144e-03, 4.346517e-02, -3.383638e-02, -4.356924e-03, -4.366061e-02, -4.599589e-02, -1.556416e-02, -5.106883e-02, 1.408145e-02, -2.988502e-02, -3.930398e-02, -6.495722e-03, -3.464057e-02, -2.904313e-02, -2.855063e-02, 1.946663e-02, -5.847403e-02, 5.211068e-02, -3.539374e-02, -2.927078e-02, 1.473350e-02, 9.637439e-03, -4.351978e-03, -5.275572e-02, -4.828895e-02, -1.087471e-02, 9.142003e-03, 3.710415e-02, -4.504886e-02, -5.652348e-02, 1.176944e-03, -2.244048e-02, 2.478268e-02, -2.110651e-02, -1.703814e-02, 3.720732e-02, 4.662933e-02, -1.485903e-02, 3.447002e-02, -2.032462e-03, 6.449170e-03, 4.071920e-02, -1.473849e-02, 3.165087e-02, -4.743987e-02, -4.418553e-02, -5.392924e-02, 4.018087e-02, 3.346349e-02, 2.162286e-02, 5.290625e-02, 4.575722e-02, -1.102501e-02, 4.994377e-02, 4.838037e-03, 2.655532e-04, 2.176476e-02, 4.763633e-02, -5.427244e-02, -3.719199e-03, -5.483939e-02, 4.240208e-02, -4.939269e-02, -2.296708e-03, 5.275829e-02, 3.467811e-02, -9.236924e-03, -5.681302e-02, 5.204124e-02, -2.112923e-02, 2.709202e-02, 5.888189e-02, -4.870018e-02, -2.940281e-02, -1.101692e-02, -3.329827e-02, 2.619673e-02, 7.783034e-03, -5.578648e-02, 3.840658e-02, 2.506073e-02, -1.291155e-03, 5.431705e-02, 1.203300e-02, -3.728870e-02, -4.823977e-02, -2.616200e-02, -8.679582e-03, 4.747962e-03, 2.680749e-02, 2.182749e-02, -2.638003e-02, -2.164882e-02, -1.442500e-02, -3.233476e-02, 1.155259e-02, 2.535011e-02, -6.628857e-04, -5.537138e-02, -4.685684e-02, 4.012940e-02, -3.395461e-02, -1.686990e-02, 3.631091e-03, 6.450983e-03, 2.912403e-02, -1.433541e-03, 3.976373e-02, -2.120080e-02, 3.714036e-03, 4.805307e-02, 2.392656e-02, -5.748374e-02, 1.694447e-02, -4.317858e-02, 4.806124e-02, 1.892639e-03, -5.859821e-02, -7.518436e-03, 4.416992e-02, 4.328299e-03, -1.460289e-02, -8.588144e-03, 4.395158e-02, -5.876162e-02, -5.350343e-02, -1.845968e-02, 4.452510e-02, 3.481076e-02, 7.404920e-04, 2.131743e-02, 9.862608e-03, 7.230271e-03, -3.379960e-02, -6.721797e-03, 4.327900e-02, 2.195302e-02, -5.594251e-02, 8.165067e-03, 5.256671e-02, 5.479871e-02, 2.940310e-02, -3.559957e-02, -5.797438e-02, -2.845341e-02, 3.469335e-02, 1.592864e-02, -4.480641e-02, 2.306732e-02, 2.159269e-02, -2.045249e-02, -2.964746e-02, -4.958623e-02, -9.225840e-03, 3.150249e-02, 3.554320e-02, -4.884063e-02, 5.076705e-02, 1.654250e-02, -3.813662e-02, 5.843035e-02, 3.553814e-02, 3.002439e-02, -6.138464e-03, -5.241663e-05, -3.344771e-02, 1.202197e-03, 1.492541e-02, 2.609843e-02, -4.492852e-02, -5.865554e-02, -4.869423e-02, -1.708249e-02, 4.666348e-02, -1.638603e-02, 3.818834e-02, -4.499441e-02, 4.092016e-02, 1.959602e-02, 3.305086e-03, 5.750990e-02, 1.978974e-02, -4.928010e-02, 1.639221e-02, 4.086317e-02, 5.406247e-04, 5.488765e-02, -5.402719e-02, -6.176354e-03, -3.056877e-02, -4.696789e-02, 1.213700e-02, 5.038000e-02, -4.409881e-02, 6.680275e-06, -3.625153e-02, 5.083215e-02, -2.180730e-02, -4.420853e-03, -5.351118e-02, 4.841394e-03, 5.630938e-03, -1.380360e-02, -5.660121e-02, 6.093774e-03, 2.936769e-02, -3.186623e-02, -3.206715e-02, 3.065561e-02, -3.642237e-02, 5.413697e-02, -4.694355e-02, 2.448905e-02, 5.200042e-02, 3.350337e-02, 2.368727e-02, 3.705571e-02, -4.220714e-02, 3.094145e-02, 1.982915e-02, -3.595499e-02, -6.195797e-04, 4.762944e-02, -4.634554e-02, -3.503690e-02, -3.115395e-02, -5.119814e-02, 2.910981e-02, -1.680516e-02, 1.263914e-03, 8.629111e-03, 1.828234e-02, -4.138579e-02, -2.920482e-02, -1.255309e-02, 2.692340e-02, 3.370856e-02, 8.528724e-03, 1.255657e-02, -2.896005e-02, -4.549439e-02, 5.567988e-02, 4.516024e-02, 3.985396e-02, 1.132842e-02, -3.726182e-03, -3.894431e-02, 3.362532e-02, -1.749163e-02, 1.566662e-02, -5.697273e-02, -2.268407e-02, -2.180037e-02, -3.497676e-02, -2.581205e-02, -3.717023e-02, -3.454896e-02, -7.700377e-03, 1.959028e-03, -3.687033e-02, 5.713938e-02, 4.277411e-02, -4.743018e-02, -5.812000e-02, 3.314784e-02, 1.249824e-02, 3.577580e-02, -1.896109e-02, -1.953142e-02, 1.275987e-02, -8.982407e-04, 1.123573e-02, 1.506215e-02, -2.065986e-02, -2.282097e-02, 3.496866e-02, 4.013639e-02, 4.277440e-02, 2.575706e-02, -1.024510e-02, -4.321249e-02, -4.424134e-02, 2.672770e-02, -2.000125e-02, 3.717220e-02, 4.294474e-02, 3.233570e-02, 5.014625e-02, -1.246754e-02, -4.558331e-02, 1.811078e-02, 8.879470e-03, -7.927204e-03, -4.401270e-02, -4.156480e-02, -1.304360e-02, -1.096013e-02, 1.411737e-03, 1.961686e-02, 2.724386e-03, 3.555117e-02, 2.426577e-02, -5.511893e-02, 2.346614e-02, -6.790461e-03, -5.469199e-02, 4.839206e-02, 1.880269e-03, 4.326024e-02, 4.462918e-02, -1.298145e-02, -3.299582e-02, 6.831723e-04, 4.449613e-02, -3.557238e-02, -1.858559e-02, 6.871320e-03, 5.651117e-02, 2.810339e-02, 3.975179e-03, -1.510287e-02, 3.448262e-02, -1.935646e-02, 2.685183e-02, -5.427389e-02, 5.616724e-02, -3.655747e-04, 2.997848e-02, -5.142294e-02, 1.627100e-02, 3.433914e-03, -4.862021e-02, 5.513082e-02, -2.362446e-02, -2.008958e-03, -1.706274e-02, -3.694899e-02, -8.535074e-03, 7.119741e-03, -1.658835e-02, 2.244902e-02, 6.790876e-03, 5.826328e-02, -1.076577e-02, 3.518359e-02, 5.007809e-02, -4.535568e-02, 3.780954e-02, -2.366993e-02, -1.168887e-03, 8.811375e-03, -3.481533e-02, -4.845063e-02, -4.988453e-02, -4.109617e-02, 1.566137e-02, 5.551999e-02, 2.932314e-02, 2.734712e-02, -1.399719e-02, -4.161018e-02, 1.442129e-02, -1.717135e-02, 2.152793e-02, -1.519179e-02, 1.760202e-02, 1.777371e-02, -3.252712e-02, 2.451055e-02, 2.540474e-02, -4.399389e-02, 4.810081e-02, 9.648952e-03, 3.539935e-02, 4.698087e-02, -1.901319e-02, -8.565363e-03, 3.046648e-02, 3.490476e-02, 3.073999e-02, 3.845811e-02, -1.556418e-02, -3.103960e-02, 3.357081e-03, 2.865900e-02, -3.622662e-04, -3.926617e-02, 5.579301e-02, 2.603829e-02, -3.448392e-02, 2.984568e-02, -3.543326e-02, -3.710814e-02, -3.214711e-02, -4.410389e-02, 5.143359e-02, -5.748850e-02, -4.551579e-02, -1.295397e-02, 1.304079e-02, 3.490400e-02, -2.166925e-02, -2.507785e-02, 3.580685e-02, 3.897434e-02, -1.747368e-02, -4.138098e-02, 1.643975e-02, 2.679602e-02, -3.874294e-02, -3.961330e-02, -5.429403e-02, 5.180103e-02, 5.126237e-02, 1.059664e-02, -3.017981e-03, -1.822108e-02, 2.850971e-02, 5.874027e-02, 4.277098e-02, 4.288111e-02, -1.662250e-02, 3.645118e-02, 5.738694e-02, -7.579479e-04, 3.084303e-02, -5.478196e-02, 9.674802e-03, 5.522591e-02, 5.779479e-02, -3.297226e-02, -4.959420e-02, -4.103530e-03, 1.612064e-02, 5.488389e-02, 2.444572e-02, -2.633155e-02, 2.795605e-02, -3.231161e-02, 1.440793e-02, -5.174167e-02, 4.721239e-02, 3.257148e-02, 1.474029e-02, -4.213654e-02, 1.359926e-02, -2.542923e-02, 4.548557e-02, -3.463202e-02, -4.269312e-02, 5.206009e-02, -2.257755e-02, -1.281305e-02, 1.331641e-02, 5.186158e-02, -1.994171e-03, 1.702134e-02, 1.830674e-02, -3.613089e-02, -5.788969e-02, -1.274226e-03, -1.052408e-02, -2.624870e-02, 4.066794e-02, -5.122172e-02, 4.827352e-02, -7.286137e-03, 4.896019e-02, -3.420819e-02, 2.521283e-02, -2.796621e-02, 2.159605e-03, 4.855646e-02, 3.571988e-02, -1.209516e-02, -5.655072e-02, -7.125522e-03, -7.311916e-03, -5.054988e-02, -5.499443e-02, -2.344298e-02, 2.473668e-02, 5.835354e-02, -2.103865e-02, 3.655031e-02, -4.160701e-02, -2.256494e-02, 5.352963e-02, 2.073027e-02, -5.597505e-02, 5.403255e-02, -8.770212e-03, 2.129808e-02, 1.009501e-03, 4.499846e-02, 5.009471e-02, 3.139877e-03, -2.781998e-02, 3.151642e-02, -3.957575e-03, 5.395902e-02, -4.600487e-02, -9.620875e-03, 4.849506e-02, -2.065531e-02, 2.854534e-02, -4.000608e-02, -2.163721e-03, 3.290436e-02, 4.741438e-02, -4.600293e-02, -4.481615e-02, 2.969160e-02, 1.451906e-02, 5.509263e-02, 6.704833e-03, 3.788985e-02, 2.754803e-02, 5.195211e-02, 2.103844e-02, -2.496931e-02, 5.316750e-02, 2.906401e-02, 1.751131e-03, -2.643614e-02, 2.412727e-02, 7.162576e-04, 1.610977e-02, 1.868042e-02, 6.487566e-03, -4.818407e-02, 5.519059e-02, -9.947710e-04, -1.981082e-02, 4.475236e-02, -3.831976e-02, -1.821874e-02, 1.631080e-02, 1.336928e-02, 1.471918e-02, -2.740800e-02, 1.108357e-02, -1.062919e-02, 2.146026e-03, 3.222943e-02, 5.428932e-02, 8.529173e-03, -2.173714e-02, 4.421089e-02, 5.145181e-02, -1.133481e-02, 3.607554e-02, -5.043784e-02, -3.132648e-02, 3.191966e-02, 5.961166e-03, 4.833808e-02, 7.299300e-03, 3.453385e-02, 2.505260e-02, 1.471910e-02, -3.538978e-02, -1.631936e-02, -5.699516e-02, 3.991716e-02, 7.724133e-03, -4.568921e-02, 1.297860e-02, 3.098612e-02, -5.359418e-02, -3.213770e-02, 5.360993e-02, 3.432968e-02, 5.465440e-02, -2.066117e-02, -2.737259e-02, 5.799021e-02, 3.273615e-02, 4.062634e-02, 5.111031e-02, -3.386836e-03, 2.298689e-02, 2.106440e-02, 5.027216e-02, -4.187596e-02, 3.814479e-02, -2.819771e-02, -1.744873e-02, 2.906952e-02, 3.231322e-02, 2.365472e-02, 5.285521e-02, -5.281354e-02, -3.109361e-02, -4.535401e-03, 1.067693e-02, 2.878447e-02, -8.903971e-03, -4.319427e-03, 3.751421e-04, 3.398853e-02, 4.234136e-03, -2.596423e-02, -1.947873e-02, -3.365831e-02, -4.428924e-02, -1.003835e-02, -3.259528e-02, -4.936504e-02, -8.319416e-03, -4.426220e-02, -5.185518e-02, 1.591167e-02, -5.772912e-02, -5.686716e-02, 4.461458e-02, -2.379448e-02, -4.281938e-02, -3.242062e-03, -3.172608e-02, 8.664528e-03, -4.846255e-02, -3.043966e-02, -2.638182e-02, 4.854909e-02, 2.758838e-02, -2.884740e-02, -1.756476e-02, 2.178928e-02, -3.760576e-02, 3.939148e-02, 5.755574e-03, -1.435021e-02, 5.625765e-02, 1.951806e-03, 3.047524e-02, 2.525039e-03, -5.178810e-02, 4.370613e-02, 4.996042e-02, 1.671590e-02, 1.894164e-03, 3.388419e-02, -5.833485e-02, -2.630322e-03, 1.974944e-02, -2.968822e-02, -3.001420e-02, -4.601951e-03, -2.200756e-02, 3.596601e-04, 1.765162e-02, 5.413776e-02, -1.807340e-02, -3.830496e-02, -3.312881e-02, 1.452358e-02, -4.867350e-03, 5.535252e-02, 5.356482e-02, 3.567370e-02, 3.778479e-03, -1.615904e-02, -1.534619e-02, 2.287221e-02, 4.791874e-02, 2.584840e-02, 3.470979e-02, -3.326420e-02, -2.870361e-02, 3.488824e-02, -8.110058e-03, -3.180554e-02, -1.929215e-02, -2.512258e-02, -3.243411e-02, -4.795948e-02, 4.751993e-02, 2.685597e-02, 2.851507e-02, 5.457960e-02, 2.504010e-02, -9.865453e-03, 5.183475e-02, 5.431751e-02, -2.859579e-02, -4.370698e-02, 3.220202e-02, -3.823007e-02, -5.709280e-02, 5.749433e-02, -3.484312e-02, 4.655373e-02, -7.749878e-03, 7.245472e-03, -5.794961e-02, 6.825380e-03, 4.212542e-02, 5.746390e-02, -5.110070e-02, -3.845020e-02, 1.273451e-02, 4.031671e-02, -5.667248e-03, -4.349744e-02, -3.449565e-02, 4.746147e-02, -8.974329e-03, -9.377702e-03, -5.188663e-03, -5.041293e-02, 5.299719e-02, 3.498690e-02, -2.753881e-02, 1.053403e-02, 5.751523e-02, 2.210282e-02, -3.414513e-03, -2.102838e-02, -2.969740e-02, -2.755161e-03, 5.123412e-02, -3.908879e-02, -4.006339e-02, -4.504382e-02, -2.962586e-02, -3.062280e-02, -4.452569e-02, 4.688067e-02, -1.673437e-02, -5.231841e-02, -5.373710e-02, 2.009202e-02, -2.687567e-02, 3.684735e-02, 4.274268e-02, 2.569528e-02, -2.810588e-02, 5.040393e-02, -1.389259e-02, 5.890073e-02, 1.103526e-02, -6.498847e-03, -3.054665e-02, -4.445909e-02, -3.190447e-02, -4.193404e-02, -2.701498e-02, -3.245406e-02, 4.321378e-02, 9.484614e-03, -3.587040e-02, -2.895033e-02, 1.253862e-03, -4.190727e-02, 1.684305e-02, 3.176158e-02, 6.395784e-04, -7.609607e-03, 1.453114e-02, 5.615211e-03, -2.872686e-02, -5.235767e-02, -3.710777e-02, 4.943190e-02, -3.395259e-03, 5.292872e-02, -4.768552e-02, 1.133327e-02, 8.112854e-03, -3.284705e-02, -1.932334e-02, 1.802285e-02, -4.540543e-02, 9.696655e-03, -3.698049e-02, 5.094423e-02, 1.374101e-02, 2.952593e-02, 4.284794e-02, 4.402822e-02, 1.450829e-02, 3.842152e-02, -1.551841e-02, -3.947689e-02, -8.962921e-03, -5.763176e-02, 4.187128e-03, -5.130204e-02, 3.679385e-03, -1.886865e-02, 4.470158e-02, -5.014773e-02, -5.471285e-02, -4.068653e-03, 4.171628e-02, -1.972269e-02, -3.107962e-02, -5.020742e-02, 5.450685e-02, -1.636060e-02, -2.237781e-02, 5.689976e-02, 2.806545e-02, 2.064048e-02, 2.256205e-03, -4.904402e-02, 3.128733e-02, 1.995541e-02, 4.516360e-02, -2.386887e-02, 3.907236e-02, -5.222753e-02, -5.465756e-02, -5.469495e-03, 4.681732e-02, 5.227916e-02, -3.595754e-02, -5.692924e-02, 5.625077e-02, -1.944876e-02, 1.643519e-02, 3.962647e-02, 3.244955e-02, 3.372836e-02, -2.673868e-02, -9.561378e-03, 1.164764e-02, 5.869334e-02, 5.298587e-02, -5.846290e-02, -3.047394e-02, -4.620947e-02, -1.826160e-03, -2.418268e-02, 2.744941e-02, 1.842546e-02, -3.763517e-02, -3.055596e-02, -2.811147e-02, 2.879856e-02, 2.909474e-02, -4.198515e-02, -1.968618e-02, 3.584851e-02, 3.460812e-02, -2.630362e-02, -5.873673e-02, 1.137654e-02, -2.846675e-02, -4.076134e-02, -1.190790e-02, 1.038363e-02, -1.802558e-02, 4.117087e-02, -5.269359e-02, 5.432945e-02, -4.198232e-02, 4.681269e-02, 6.342195e-03, 2.468803e-02, -2.527930e-02, 5.650607e-02, 1.830516e-02, 2.974121e-02, -3.321419e-02, -5.384927e-02, 5.385747e-02, 4.239764e-02, 2.854382e-02, -4.245559e-02, 4.580300e-02, -4.433209e-02, -2.979063e-02, -2.554727e-02, 4.363005e-02, -1.435428e-02, 1.549179e-02, 3.538075e-02, -3.112083e-02, 4.648370e-02, 1.090803e-02, 9.261517e-03, 2.610493e-02, 5.264330e-02, -3.212937e-02, 4.911341e-02, 2.064838e-02, -9.663478e-03, -5.385697e-02, -3.025904e-02, 4.645664e-02, 9.312768e-04, 2.542434e-02, -4.100544e-02, 1.254257e-02, -4.856503e-02, 2.934142e-02, 8.753936e-03, 4.595233e-02, 2.219214e-03, -3.852167e-02, -5.099740e-02, -4.359164e-02, 4.006137e-02, -5.494564e-02, -2.251969e-03, 1.333709e-03, 7.801986e-03, -2.769088e-02, -3.016540e-02, -4.406980e-03, 3.731277e-02, 4.016165e-02, 2.748945e-02, -2.310994e-02, 4.959366e-02, 5.639383e-02, -5.537285e-02, -9.801313e-03, 4.771906e-02, 2.761371e-02, -5.276828e-02, 4.524853e-02, 1.572141e-02, 4.516418e-02, 6.828569e-03, 4.876088e-02, 4.925422e-02, -1.347164e-02, -2.930404e-02, -1.315851e-02, 7.267325e-03, -1.442867e-02, 2.979928e-02, 2.155171e-02, 5.182248e-02, 3.587464e-02, 1.356484e-02, 5.599100e-02, 3.852747e-02, -1.748520e-02, -1.633831e-02, 4.142119e-02, 3.250444e-02, -4.053314e-02, -1.335431e-02, -2.330027e-02, -2.958626e-02, 3.465805e-02, 1.349091e-02, -3.773148e-02, 8.157066e-03, -3.814576e-02, 9.505540e-03, 4.322408e-02, -3.560717e-02, -4.713086e-02, 1.574092e-02, 3.465530e-02, -5.836151e-02, 1.977966e-03, 5.889200e-03, 5.339444e-02, -1.543831e-02, -3.953484e-02, -2.423027e-02, 2.479739e-02, 4.756779e-02, 6.432319e-03, 1.799765e-02, -4.003834e-02, 1.179731e-02, 1.378722e-03, -3.013672e-02, 5.848238e-02, 5.725166e-02, -1.458302e-03, 4.664483e-03, 3.967599e-02, 6.402626e-03, 3.555154e-02, -5.060070e-02, 3.785148e-02, -1.314589e-02, -3.352695e-02, 3.786082e-02, -4.424244e-02, -3.311894e-02, -4.344444e-02, -5.214291e-02, -2.631543e-02, 6.910566e-03, -2.240432e-02, -2.126246e-02, -5.506703e-02, 5.391778e-02, -2.670786e-02, -3.161675e-02, -2.931651e-02, -3.748821e-02, -5.701997e-02, 2.676176e-02, 5.246653e-02, -5.981642e-03, -5.073994e-02, 1.967279e-02, 1.071716e-02, -5.379490e-03, 1.814977e-02, -1.909393e-02, 2.669358e-02, 1.073599e-02, 5.422902e-02, -2.127678e-03, -3.456384e-02, -7.627083e-03, -1.216804e-02, -5.728389e-02, 6.510311e-03, 3.192611e-02, -3.230261e-03, 2.710832e-02, -3.352473e-03, 3.166642e-02, -1.322362e-02, -1.167946e-02, -3.795772e-02, -5.121243e-02, 4.501041e-02, 4.011590e-02, -2.445357e-02, 1.788890e-02, 1.650799e-02, -2.583617e-02, 1.118447e-02, -2.590192e-02, 3.067404e-02, 4.732760e-02, -5.055211e-02, 1.790978e-02, 2.381872e-02, 2.091268e-02, 5.067564e-02, -3.959246e-02, 2.373357e-02, 2.064186e-02, -1.085838e-02, 2.727908e-02, -3.901183e-02, -1.913362e-03, 3.529029e-02, 2.332017e-02, 1.282123e-02, -5.800661e-02, 5.260613e-02, 1.395092e-02, 4.392075e-02, -4.380253e-02, 6.858697e-04, -4.590210e-02, -5.863266e-03, -5.645241e-02, -4.642036e-02, 1.365200e-02, 3.464139e-02, -2.716938e-02, 3.066608e-02, -1.300030e-02, 1.941326e-02, -1.578219e-02, -4.042178e-02, 3.004319e-03, 5.463518e-02, 1.228741e-02, -9.936345e-03, -1.643004e-02, 1.632648e-02, 5.628633e-02, -7.512683e-03, -4.459862e-02, -1.900345e-03, -2.069113e-02, -6.430668e-03, -3.924032e-02, -5.574447e-02, 9.744232e-03, 2.999191e-02, 5.083840e-02, -4.903347e-02, -5.492703e-02, 1.017240e-02, -4.881471e-02, -5.348207e-02, 4.524324e-04, 3.398320e-02, 2.575498e-02, -5.889597e-02, -1.402339e-02, -1.669629e-02, -5.510600e-02, 3.597021e-02, 3.750945e-02, -4.488847e-02, -4.877270e-02, 1.728083e-02, -7.669518e-03, 3.089089e-02, -2.628528e-02, 4.770072e-02, -4.463265e-02, 5.533615e-02, 3.124065e-03, -3.066535e-02, 8.193207e-04, 2.541857e-02, 5.532863e-02, 2.821142e-02, -1.878014e-03, 1.741074e-02, 2.040042e-02, 7.068982e-03, 4.231174e-02, 4.727507e-03, 4.167621e-05, -3.077592e-02, 3.517464e-03, 4.897131e-02, 2.871148e-02, -4.016746e-02, -4.167533e-02, -3.692466e-02, -3.773533e-02, 5.728940e-02, 3.541961e-02, 2.669539e-02, -1.280526e-02, -1.799539e-02, -1.905217e-02, -4.729307e-02, 4.040325e-02, -4.716267e-02, 9.541232e-03, -5.377501e-02, 5.148856e-03, 5.695239e-02, 3.268193e-02, 2.688713e-02, 4.738701e-02, 2.264164e-02, 2.527121e-02, -3.343049e-02, 2.498977e-02, -4.991331e-02, 5.021834e-02, -3.561239e-02, 4.681459e-02, -7.243779e-03, -2.600862e-02, -4.246813e-02, 2.482051e-02, -5.478875e-02, -2.247332e-02, 1.091600e-02, 1.987810e-02, -3.539422e-02, -2.283196e-02, 3.092724e-02, -1.830705e-03, 8.816222e-03, -5.571117e-02, 2.654075e-02, -5.441649e-02, 1.559002e-02, 5.275946e-02, -3.346636e-02, -4.189183e-02, -2.876010e-02, -3.431324e-02, 2.924900e-02, -5.623980e-02, 4.740859e-02, -4.806824e-02, -2.416020e-02, -4.881771e-02, 4.285228e-02, 4.974354e-02, 2.304673e-02, -3.899473e-02, 7.981244e-03, 5.915380e-04, -5.095892e-02, 5.492041e-02, -3.915260e-02, -4.860733e-02, -1.452857e-02, -4.941562e-02, 7.866569e-04, -2.560373e-02, -2.856512e-02, -3.177395e-02, -3.803878e-02, 5.745402e-02, 1.107271e-02, 4.505837e-02, 9.317741e-03, 2.993705e-03, 1.179533e-02, 1.956049e-03, 3.419111e-02, -7.184584e-03, -4.995575e-02, 2.012787e-02, -4.472932e-02, 5.681135e-02, 3.076363e-02, 3.513867e-02, -8.282060e-03, 3.669992e-02, 6.312924e-03, 3.821651e-03, 4.891670e-02, 3.930015e-02, 1.675499e-02, -3.291261e-03, 1.092369e-02, 4.997166e-02, -1.824835e-02, 2.440588e-02, 4.162507e-03, -1.299876e-02, -3.095207e-02, 3.576180e-02, 3.804026e-02, -4.142688e-02, -4.573411e-02, -3.383520e-02, 5.293953e-03, -2.690123e-02, -1.247231e-02, 1.252647e-02, -1.080266e-02, -3.522883e-02, 5.642374e-03, 4.197154e-02, -1.345693e-02, 2.936477e-02, -4.871381e-02, -1.728049e-03, -4.355107e-02, -8.925818e-03, 5.353975e-02, -2.912080e-03, 2.106154e-02, 8.251370e-03, 4.199020e-04, -1.969585e-02, -1.438951e-02, 8.010486e-03, 2.441433e-02, 5.674302e-02, -5.823483e-02, 1.035712e-02, -1.747795e-03, -3.794035e-02, -2.162435e-03, -1.103258e-02, 4.407850e-02, 5.349403e-02, 2.413051e-02, -3.802464e-02, 1.317123e-02, 1.896457e-02, -2.628384e-02, -1.908437e-02, -4.103469e-02, 1.214431e-02, 5.601977e-03, 3.943336e-02, -4.791873e-02, -2.331051e-02, -1.619507e-03, -5.845906e-02, 4.350178e-02, 1.214124e-02, -2.589892e-02, -1.767210e-02, -5.412823e-02, -3.817865e-02, 4.252902e-02, -3.249515e-02, 2.065539e-02, -9.650006e-03, -1.298163e-02, -3.697440e-02, 3.721211e-02, -5.188979e-02, -4.952926e-02, 1.479156e-02, -3.441014e-02, -5.419128e-02, -4.845848e-02, 4.824941e-02, 5.853992e-02, 1.189933e-02, 1.519954e-02, 7.267093e-03, 5.119113e-02, 4.380247e-02, 4.018233e-02, -5.539365e-02, -4.621896e-02, 2.149085e-02, 4.675091e-02, -5.634367e-02, 1.886527e-02, -8.087953e-03, 2.750770e-02, 8.853683e-03, -2.992072e-02, 2.299399e-02, -2.084906e-02, -4.523857e-02, -2.173984e-02, 1.123949e-02, 4.609572e-02, -3.574437e-02, 3.009038e-02, 5.384693e-02, 4.578700e-02, 3.175580e-02, -2.728279e-02, 1.370152e-03, 3.481785e-02, -4.030137e-02, -5.496122e-02, -7.199455e-04, -4.758076e-02, 5.765368e-02, -1.652627e-03, -2.686901e-02, -3.897167e-02, 5.440218e-02, 2.939153e-02, 3.557556e-02, 3.810237e-02, 3.585901e-02, -1.323488e-02, 5.138290e-02, -3.725131e-02, 7.297109e-03, 3.278003e-02, 5.525036e-02, -5.348808e-02, -1.369887e-02, -5.711326e-02, -6.616529e-03, -3.451442e-02, -8.258893e-03, -2.209617e-02, -2.920584e-02, 3.775015e-02, 5.739455e-02, -1.603674e-02, -5.851573e-02, -9.927732e-03, 5.638674e-02, -1.566070e-02, 2.123733e-02, 4.696636e-02, -3.446717e-02, 3.868305e-02, -5.450009e-03, -5.816120e-02, -5.149921e-02, 4.970426e-02, -3.297479e-02, 4.655978e-02, 5.300451e-03, 4.494192e-02, -3.837544e-02, 7.074208e-04, -4.019203e-02, 7.272094e-03, 2.137040e-02, -2.269977e-02, 3.668793e-02, -2.706742e-02, -6.034832e-03, -4.236872e-02, -4.407940e-02, 1.160825e-02, -3.795851e-03, -2.531849e-02, 4.895646e-02, 5.227049e-02, 2.555131e-02, -4.361833e-02, 1.451235e-03, -2.774043e-02, 4.128233e-02, -4.221699e-02, -2.666937e-02, 4.283249e-02, -1.895345e-02, -1.911905e-02, 5.815523e-02, 3.796307e-03, -5.784913e-02, 1.725404e-02, -2.023616e-02, -4.358375e-02, -2.174203e-02, 1.549460e-02, -4.736185e-02, 2.020008e-02, 3.030260e-03, 2.621540e-02, -5.400560e-02, 2.174823e-02, -5.692354e-04, -1.331915e-02, -2.397412e-02, 2.229453e-02, 3.171572e-02, 1.941773e-02, 3.514468e-02, -9.136776e-03, 4.539862e-02, -3.082290e-02, -2.185418e-02, 5.608079e-02, 1.553268e-02, -3.644568e-02, -5.793769e-02, 4.832199e-02, 5.538156e-02, 1.474593e-02, -3.440377e-03, 2.637118e-02, 5.666536e-02, -2.693584e-03, 4.727119e-02, 9.563338e-03, -4.609406e-02, 1.218907e-02, 2.251171e-02, 2.846240e-03, 5.287627e-02, 1.317143e-02, -4.029105e-03, -1.607182e-02, 3.489610e-02, -2.754585e-02, 1.499216e-02, 1.444187e-02, 3.801793e-02, 4.452548e-03, 7.267128e-03, 5.375567e-02, 1.091747e-02, 5.411296e-02, 1.532951e-02, 5.769120e-02, -6.994031e-03, 4.837270e-02, -4.071067e-02, 1.071075e-02, 2.600882e-03, -4.143201e-02, -1.388465e-02, 1.974511e-02, 9.792680e-04, -2.955754e-02, -2.023257e-02, 3.254955e-02, -1.103702e-02, -1.551030e-02, -3.137988e-02, -3.247930e-02, -8.597691e-03, 1.346704e-03, 3.904264e-02, -3.205894e-02, -1.539719e-02, 5.459238e-02, 9.122686e-03, -3.794475e-02, -3.248249e-02, -5.239608e-02, -5.423566e-02, 3.227864e-02, -2.062119e-02, 3.263072e-03, 4.561444e-02, -1.933430e-03, 3.463423e-02, 1.813759e-02, -3.779420e-02, -2.690714e-02, -1.950873e-02, -5.176959e-02, 5.171262e-02, 5.631137e-02, -6.661752e-03, 2.099328e-03, 3.896451e-02, -4.605354e-02, 4.438497e-02, -2.939218e-02, -3.300215e-02, 3.698076e-02, 4.877904e-02, 8.739774e-03, -3.493625e-02, -1.564366e-02, -5.012457e-02, 5.822347e-02, -5.321005e-02, -4.071433e-02, -3.188315e-02, -2.841880e-02, -1.402970e-03, 7.518696e-03, -3.742617e-02, 2.757610e-02, -4.708159e-02, -1.048099e-02, -1.830493e-02, -4.472034e-03, 5.362323e-02, -4.164775e-02, 4.865392e-02, 3.851884e-02, -1.065587e-02, -4.585219e-03, -5.037414e-02, 4.314990e-02, 5.222873e-03, -5.198322e-04, -1.359868e-04, 5.346316e-02, -3.676086e-02, 1.307250e-02, 5.260186e-02, 2.718416e-03, 4.560233e-03, 8.685588e-03, 5.052993e-02, 4.129446e-02, 7.160300e-03, 2.358826e-03, 2.357494e-02, 3.707848e-02, 8.767928e-03, 4.513468e-02, -5.626309e-02, 2.953943e-02, -1.451865e-02, 4.424950e-02, -2.131200e-02, 5.890198e-02, 2.862315e-02, 5.859437e-02, 4.821582e-02, -4.593478e-02, 1.242616e-03, -3.258711e-02, -1.863966e-02, 4.362500e-02, 3.017922e-02, -1.250827e-02, -3.156990e-02, -3.171558e-02, -3.312913e-02, 3.699664e-02, 5.429627e-02, 2.452800e-02, -3.369599e-02, 2.953289e-02, 2.823100e-02, 2.677166e-02, 3.204789e-02, -5.679196e-02, 9.139368e-03, -3.361439e-02, -4.027849e-02, 5.568007e-02, -3.971453e-02, -2.609986e-02, 4.225522e-02, 7.616975e-03, 4.962795e-02, -6.897058e-03, -2.569096e-02, 5.236291e-02, -1.681030e-02, -3.195781e-02, -1.199672e-02, 4.464944e-02, 3.404760e-02, 3.411253e-03, -7.503895e-04, 4.915062e-02, 4.043737e-02, 5.801372e-02, -5.517815e-02, -2.670194e-02, -3.386861e-02, 5.610169e-02, -3.179607e-03, 1.708654e-03, -4.213392e-02, 5.354513e-02, 2.697903e-02, -2.921515e-02, 9.540698e-03, 1.729218e-02, 3.150175e-03, -1.314209e-03, -2.334954e-02, 4.028090e-02, 1.592383e-02, -2.534122e-02, 1.868135e-02, 1.492923e-02, 3.066791e-02, -2.233850e-02, -4.187993e-02, -3.017917e-02, 2.665198e-02, -5.803995e-02, -1.699964e-02, 9.448945e-03, 5.730613e-02, -1.170641e-02, -5.859985e-02, -5.564933e-02, -5.816451e-02, -5.415997e-02, -3.294674e-02, -4.879773e-02, 4.436398e-03, 5.001897e-03, 2.333915e-02, 2.061178e-03, -2.847143e-02, 1.390854e-02, 3.598308e-02, -4.159822e-02, 2.350584e-02, 4.081529e-02, 1.942811e-02, 3.466825e-02, -5.049011e-02, -4.277414e-02, -3.289852e-02, 1.250100e-02, 2.743302e-02, 3.492429e-02, -5.815027e-02, 4.632182e-02, 4.178255e-02, 5.861220e-02, 1.432852e-02, -1.416464e-02, 4.436144e-02, -5.444703e-02, -4.814475e-02, 2.699956e-02, 6.544633e-03, -2.822443e-02, -4.958471e-02, -4.830268e-02, -5.609951e-02, 1.652377e-02, 4.479532e-02, -3.102434e-02, -5.407441e-02, 5.192839e-02, -5.401102e-02, 4.185281e-02, 5.797740e-02, -3.194402e-02, -3.777893e-02, -4.960055e-02, -1.483735e-02, 3.202410e-02, -9.060828e-03, -3.012304e-02, 2.146367e-02, -2.400286e-02, -2.613848e-02, -5.653705e-03, 3.429177e-02, 3.335294e-02, -4.573070e-02, -2.717571e-02, 5.824683e-02, 4.306547e-02, -3.942402e-03, 4.791841e-02, 5.026242e-02, 2.603497e-02, -3.391017e-02, -1.208331e-02, 3.407490e-02, 3.679436e-02, -1.739593e-02, 3.972100e-02, 2.019193e-02, -1.904030e-02, -9.760072e-03, 4.635944e-02, 5.410082e-02, -2.395720e-02, 3.741052e-02, -9.285056e-03, 2.955620e-02, -3.022137e-02, -5.630278e-02, 6.019525e-03, 4.228435e-02, 5.806152e-02, 5.875193e-02, -3.462047e-02, -4.963613e-02, 4.929933e-02, 5.570659e-02, 2.242174e-02, 2.200040e-02, 5.336962e-02, 1.922356e-02, 4.436894e-02, -3.949841e-02, 1.327556e-04, -3.522160e-02, 1.586920e-02, 1.646044e-02, 2.400792e-02, 2.347003e-02, 4.710290e-03, -2.397611e-02, -4.391257e-02, -2.024847e-02, 5.764844e-02, -5.613470e-02, 4.508048e-02, -1.625735e-02, -3.342490e-02, -1.124479e-02, -3.295929e-02, 3.508231e-02, -4.508875e-02, -4.054161e-02, 1.471800e-02, 3.759955e-02, -5.322388e-02, 5.596773e-02, -3.384252e-02, 4.450491e-02, -1.541545e-02, -2.581072e-02, -5.191021e-02, -1.595990e-02, -2.879695e-02, -1.108235e-02, -3.235895e-04, -1.753487e-02, -1.310926e-02, -4.086759e-02, -1.504064e-02, -5.632591e-02, 2.842270e-02, 2.799590e-03, 1.872072e-03, 1.159047e-02, -5.050173e-02, 2.325761e-02, 4.123837e-02, -9.585598e-03, 9.118155e-03, 1.165407e-02, 4.063209e-02, -8.416747e-03, -5.246450e-02, 3.071411e-02, 5.726935e-03, 5.878243e-02, -5.832422e-04, 3.789107e-02, -1.514884e-03, -5.856052e-03, -2.067129e-02, 1.933416e-02, -4.978516e-02, 2.953934e-02, -3.564342e-02, -6.115718e-03, 2.558201e-02, -4.054896e-02, 1.463943e-03, 2.293038e-02, 5.286112e-02, 1.947776e-02, 3.849224e-02, 1.374076e-02, 7.144003e-03, 1.298776e-02, 4.539565e-02, -3.403688e-02, 1.532497e-02, 3.594192e-02, -3.146381e-02, 3.754322e-03, 4.953051e-02, 2.180339e-02, 2.770700e-02, -1.789377e-02, -4.991309e-02, 1.333893e-02, -5.396333e-02, 2.393872e-02, -3.922642e-02, 2.898959e-02, 5.277679e-02, 4.870963e-02, 5.585332e-02, 4.671568e-02, -1.651904e-03, 4.462060e-02, -8.658712e-03, 5.987733e-03, -2.848465e-02, 1.815792e-02, 5.853048e-02, -4.685372e-02, 3.921502e-02, -6.374711e-03, -3.675697e-02, -1.806937e-02, -8.048967e-03, 4.673611e-02, -5.104533e-02, -4.632372e-02, -5.776159e-02, -6.625772e-03, 3.855260e-02, -2.122735e-02, 1.041895e-02, 2.130886e-02, 2.187730e-02, -5.603230e-02, -3.209202e-04, 3.764534e-02, 9.701586e-03, 4.173957e-02, -2.592984e-02, -1.410182e-02, 4.207629e-02, 1.096380e-04, -1.099190e-03, -2.183986e-02, -4.359094e-02, -2.201546e-02, -5.042991e-02, -4.924846e-02, -2.902762e-02, 2.702671e-02, 5.522735e-02, 5.291965e-02, 4.917703e-02, 1.997380e-02, 5.097825e-02, 2.021822e-02, -1.814827e-02, 7.579886e-03, 3.481292e-02, 2.183979e-02, 5.305128e-02, -4.313737e-02, -2.591809e-02, 4.322714e-03, -1.553175e-03, 2.276490e-02, -5.352903e-03, 1.153162e-02, -4.571000e-02, -4.258443e-02, 7.123674e-03, -1.775169e-02, 5.706133e-02, -3.909735e-02, -9.798004e-03, -5.016406e-02, 2.024982e-02, 2.204168e-02, 1.301523e-02, 1.990646e-02, 2.033534e-02, -1.672647e-03, -1.867917e-02, 4.681519e-02, 4.797765e-02, -1.734668e-02, 4.057124e-02, -5.269334e-02, -3.308194e-02, -4.735086e-03, -1.581339e-02, -3.575605e-02, 7.225017e-03, 2.288412e-02, 3.120508e-02, -1.310186e-02, 5.123847e-02, -2.322272e-02, -4.027731e-02, -5.350768e-02, -5.276783e-02, -3.740624e-03, 1.149642e-02, 4.798901e-02, 6.281243e-03, 3.627982e-02, 3.768589e-02, 5.816517e-02, 8.406484e-03, -2.114921e-02, -3.075421e-02, -2.697347e-02, -4.158500e-02, 1.579457e-02, -2.836269e-02, 2.272198e-02, 5.495685e-02, 7.763864e-03, 2.671217e-02, -1.521397e-02, 1.321295e-02, -4.695297e-02, -4.315907e-02, -5.302468e-02, 4.650624e-02, 5.010462e-02, 1.690791e-03, 3.629800e-02, 3.972185e-02, 4.702479e-03, -2.733594e-02, -5.029973e-02, 2.272647e-02, 1.522369e-02, 4.421229e-02, -4.965262e-02, -1.993771e-02, 6.105884e-04, -2.404686e-02, -3.458879e-03, 5.119445e-02, 1.140906e-02, 3.470374e-02, 3.490496e-02, 1.088109e-02, 5.248027e-02, 2.341692e-02, 6.970478e-03, -5.107653e-02, -5.855833e-02, -2.643907e-03, -2.794378e-02, -4.914469e-02, 3.307466e-02, 5.292310e-04, -4.901166e-02, 3.330521e-02, -2.931398e-02, 3.111210e-02, -1.703812e-02, -3.950692e-02, -5.029317e-02, -1.477323e-02, 4.915756e-02, 2.599215e-02, 3.692378e-02, -4.778342e-02, -5.238060e-02, 4.924322e-02, -1.693429e-02, 1.992430e-02, -7.758561e-03, -8.959942e-03, 5.824460e-02, 2.544644e-03, -1.041158e-02, -2.308535e-02, 2.580469e-03, -3.363867e-02, 3.758189e-02, 4.818134e-02, 1.816438e-03, 2.301586e-02, 3.740619e-02, -2.072724e-02, 5.692738e-02, 1.837173e-02, -2.957076e-02, -1.882604e-02, -4.466622e-02, -5.210805e-02, -3.469575e-02, 4.842286e-02, 3.565985e-02, -3.000558e-02, -1.522606e-02, 5.109401e-02, -1.209513e-02, -1.819444e-02, -3.326001e-02, 2.890135e-02, 3.689289e-02, 5.309769e-02, 2.775691e-02, 4.202406e-03, -2.215258e-02, -1.788620e-02, 4.017785e-02, 4.444904e-02, 5.433261e-02, -3.240465e-02, -1.970967e-02, 1.223080e-03, 5.130995e-02, -5.205442e-02, -1.793983e-02, 5.408157e-02, -4.825786e-03, -2.351276e-02, 2.164442e-02, 5.306825e-02, 7.915284e-03, -5.469487e-02, -1.395385e-02, -2.840965e-02, 4.189615e-02, 4.855583e-02, 3.227087e-02, 2.937209e-02, -4.425935e-02, 1.677483e-02, 1.946699e-02, -2.655553e-02, 4.989273e-02, 3.764767e-02, 3.876289e-02, -1.231943e-02, -5.781591e-02, 2.097946e-02, -1.519676e-02, -4.840425e-02, -8.584955e-03, 5.128372e-03, 2.181748e-02, 3.219734e-02, 3.417697e-02, -2.430820e-02, -4.337248e-02, -1.036594e-02, 5.061740e-02, 3.354321e-02, -5.198315e-03, -3.718374e-02, -4.486212e-02, -5.463177e-02, -9.046540e-03, -3.210115e-03, -2.483105e-02, 2.504219e-02, 5.886320e-03, -3.403417e-02, 1.238916e-02, 5.537423e-02, -1.190282e-02, 1.801979e-02, 2.474402e-02, -5.743626e-02, 5.532712e-02, 3.231023e-02, 3.024711e-02, 5.876484e-02, -1.679392e-02, 1.458087e-02, -4.690332e-02, -1.541309e-02, -5.554668e-02, -1.011238e-02, 5.057235e-02, -2.496710e-02, -1.426612e-02, -2.426555e-02, -1.434327e-02, 1.353184e-02, -2.618880e-02, -5.687230e-02, 7.799626e-04, -4.099597e-02, 2.016374e-02, -3.674598e-02, -1.373359e-02, 4.653746e-02, -5.267595e-02, 5.623041e-02, -9.123360e-03, 3.341310e-02, 4.582660e-02, -4.096411e-02, 3.929736e-02, 1.852100e-02, 4.876306e-02, 2.130940e-02, -5.218031e-02, -9.003487e-03, 1.916629e-02, -3.724509e-02, 3.856320e-02, -2.223268e-02, 4.098992e-04, -5.103611e-03, -1.429680e-02, -5.254770e-02, 3.333976e-02, 2.930325e-02, -5.714748e-02, 2.174768e-02, -4.329723e-02, 3.070939e-03, 3.936220e-03, 6.585305e-04, 5.401920e-03, 1.985977e-02, -3.057630e-02, -2.741653e-02, -1.563045e-02, 5.554506e-02, -5.100076e-02, 2.357901e-02, 4.367699e-02, -5.480357e-02, 2.114732e-03, 3.921259e-02, -1.069490e-03, 1.954125e-02, -1.613773e-02, 5.739684e-02, -4.962867e-02, 2.781456e-02, 1.491619e-03, -5.146322e-02, -7.583588e-03, 4.627169e-03, 2.488852e-02, -3.325445e-02, 8.197625e-03, 3.947291e-02, 5.652799e-02, -4.490298e-02, 1.389097e-02, 3.702819e-02, -1.423521e-02, -4.794420e-02, -6.763375e-03, -3.398872e-02, 4.012569e-02, -5.787100e-03, 2.534794e-02, 1.612503e-02, -9.686962e-03, -2.235623e-03, 1.553554e-02, 1.415284e-02, -9.653946e-03, 3.379148e-02, -5.349485e-02, -4.493390e-02, 2.519319e-02, -4.480603e-02, -4.499187e-02, 4.957825e-02, -5.179005e-02, 3.180414e-02, 1.503897e-02, 3.865694e-02, -3.693243e-02, -8.076207e-03, -5.007299e-03, -1.750027e-02, -3.224994e-02, 6.100995e-03, -4.800472e-02, 2.403800e-02, 3.911074e-02, 5.690756e-02, 1.618035e-02, 4.730407e-02, 3.346689e-02, 4.375293e-02, -1.286498e-02, 9.196470e-03, 3.548133e-02, -7.664601e-03, -1.300916e-02, 8.575655e-03, 2.371352e-02, -1.058288e-02, 6.812153e-03, 5.245741e-02, 5.555727e-02, -1.700046e-02, -2.986431e-02, 1.835623e-02, -4.505732e-02, 4.443057e-03, -2.127325e-02, -3.409773e-02, 4.724517e-02, 5.741103e-02, 5.750828e-02, 7.357856e-03, 3.814793e-02, -3.721752e-02, -1.638368e-02, 3.264801e-02, -4.511385e-03, -1.147862e-03, 3.103003e-02, -3.656487e-02, -2.527787e-02, -1.189045e-02, 3.042902e-02, 9.045831e-03, -2.403778e-02, 2.111908e-02, -2.381466e-02, 4.583722e-03, -4.336663e-02, -4.298017e-02, 2.756376e-02, 1.672227e-02, -3.696378e-02, -1.416218e-03, -2.170875e-02, 2.892545e-03, -5.643630e-02, -2.738958e-02, -2.506480e-03, 5.149440e-02, -3.906319e-02, 2.568277e-02, -2.196199e-02, 3.341575e-02, 5.485285e-02, 4.152716e-02, -8.080605e-04, -1.702190e-02, -1.170867e-02, -8.875635e-04, 2.755263e-02, 1.970196e-02, -1.310105e-02, -1.618102e-02, -5.319411e-02, 7.269735e-03, 5.807815e-03, 2.933794e-02, 8.845528e-03, 5.231835e-02, -2.382463e-03, 5.261753e-02, 2.573519e-02, 3.997543e-02, 2.636299e-02, 4.874275e-02, 3.804814e-02, 3.195694e-02, -3.036937e-02, 1.682574e-02, 5.465884e-04, 2.726406e-02, -6.301642e-03, -1.941018e-02, -2.816939e-02, -4.526821e-02, -5.167499e-03, 4.207764e-02, -3.125973e-02, -5.450799e-02, -4.799368e-02, 3.093242e-02, 1.077835e-02, 1.051409e-03, -3.591261e-02, -3.921963e-02, -3.237089e-03, -2.658646e-02, -4.351264e-02, -4.028409e-02, -1.974765e-02, -3.376493e-02, -1.164096e-03, -4.335032e-02, 2.303259e-02, 2.038536e-02, -3.325830e-02, -4.379162e-02, 3.070091e-02, 4.201249e-02, -5.046938e-02, 4.678921e-02, -4.148689e-02, -5.819669e-02, 4.343198e-03, -3.168454e-02, -3.744670e-02, 1.524290e-02, -1.609728e-02, -6.659167e-03, -5.522959e-02, 4.741194e-02, -5.586412e-02, -3.844399e-02, 5.672630e-02, -5.660022e-02, 1.815515e-02, 5.272862e-02, 4.400101e-02, -2.048945e-02, 3.027764e-02, 3.406828e-02, -4.205660e-02, -2.875550e-02, 1.613470e-02, -1.403609e-02, 5.316988e-02, -5.791752e-02, -4.639953e-02, 2.282274e-02, -1.282957e-02, -7.406515e-03, 5.258234e-03, -1.285279e-02, -1.472305e-02, 4.917610e-02, -1.326687e-02, 2.104100e-02, -1.097051e-02, 6.171008e-03, -3.806609e-02, 4.711091e-02, -4.874051e-02, 3.917789e-02, 1.587032e-02, 2.198395e-02, -8.320069e-04, -4.736002e-02, 4.764881e-02, -1.650489e-02, 6.116070e-03, 2.623221e-02, 5.743761e-02, 1.036866e-02, 3.010091e-02, -4.210829e-02, -3.159957e-02, 9.032006e-03, 4.531416e-02, -4.538964e-02, 6.851511e-03, -6.530640e-03, 5.415855e-02, 5.738293e-04, 1.596976e-02, -3.984999e-02, 1.495739e-02, -2.667940e-02, -4.982960e-02, 5.268026e-02, -4.839121e-02, -3.352640e-02, 5.384983e-02, -5.735689e-02, 5.072217e-02, 5.378136e-02, -4.658724e-02, 4.408158e-02, 3.846382e-02, 5.986967e-03, 5.866689e-02, 2.604037e-02, -3.486703e-02, 4.399896e-02, -3.827355e-03, -3.900779e-02, 2.130479e-02, -4.734272e-02, 4.922212e-02, -1.479642e-02, -4.802170e-02, -5.853566e-02, -4.422473e-02, 2.694678e-02, -7.841210e-04, -1.974105e-02, 2.348327e-02, 2.419523e-02, 3.422894e-02, -3.106181e-02, 4.602223e-02, 3.083650e-02, 2.745776e-03, -4.162646e-02, -1.922427e-02, -5.482658e-02, -2.206739e-02, -1.765440e-02, -3.149258e-02, -3.610427e-02, -2.819215e-02, -5.686996e-02, -4.158208e-02, 5.230531e-02, -7.133930e-03, 1.186715e-04, -4.041006e-02, -5.726575e-02, -4.587242e-03, 2.737189e-02, -6.613964e-04, 1.723827e-02, -5.346296e-02, 1.869015e-02, -9.195957e-03, 2.652390e-02, -5.108464e-02, -3.211824e-02, -5.366296e-02, 2.353016e-02, -5.720091e-02, -5.849137e-02, 3.595298e-02, -4.003859e-02, -3.921841e-02, 9.334754e-03, -4.999353e-02, 7.115996e-03, -5.508299e-02, 4.610570e-03, -1.700275e-02, -1.431882e-02, -1.240923e-02, -3.094975e-02, -3.594023e-03, 3.427842e-02, -5.547588e-02, 5.458902e-02, -2.443286e-02, -5.141383e-02, -4.064490e-02, 4.956816e-02, 5.510688e-02, 1.170655e-02, 5.323961e-02, 5.198351e-02, 2.695845e-02, 2.683812e-02, 3.273379e-02, -1.457480e-03, 3.613447e-02, 2.452531e-02, 4.489945e-02, -3.479291e-02, 4.435663e-02, -5.622932e-02, -5.710062e-03, -2.346982e-03, 5.349891e-02, 1.960891e-02, 3.546770e-02, -1.250487e-02, 3.816101e-02, 2.289210e-02, 2.303292e-02, 1.692240e-02, 2.945151e-02, 2.840752e-02, -3.075450e-02, -3.502038e-02, 3.871395e-02, 3.288206e-02, -5.417149e-02, 5.499010e-02, -1.194196e-02, 1.217294e-02, 2.223246e-02, 9.761231e-03, -2.353013e-02, 5.774042e-02, 4.809496e-02, -4.038607e-02, 4.412635e-02, 2.394229e-03, 2.921058e-03, 5.889405e-02, -2.055239e-02, 4.947155e-02, -3.702294e-02, -3.104859e-02, -5.264015e-03, -4.986281e-02, 6.352858e-03, -1.795584e-02, 5.227315e-02, -1.961620e-02, -1.318925e-02, -4.556327e-02, -4.164896e-03, 1.328279e-03, -5.857558e-02, -9.299014e-03, 1.096247e-03, -3.215089e-02, -8.049613e-03, -4.715715e-02, 2.442516e-02, -4.787593e-02, -4.785091e-02, 2.256655e-02, 3.760577e-02, -3.789269e-03, -5.312622e-02, -1.911861e-02, 2.785204e-02, 4.155712e-02, -2.672100e-02, 3.863074e-02, -3.592650e-02, -1.774175e-02, 4.000067e-02, -3.043333e-03, 5.528366e-02, -2.924356e-02, 4.669934e-03, -2.375856e-02, -5.254582e-02, -3.093435e-02, 