
//===------------------------------------------------------------*- C++ -*-===//
//
// Automatically generated file for High-level Synthesis (HLS).
//
//===----------------------------------------------------------------------===//
#include <algorithm>
#include <ap_axi_sdata.h>
#include <ap_fixed.h>
#include <ap_int.h>
#include <hls_math.h>
#include <hls_stream.h>
#include <math.h>
#include <stdint.h>
using namespace std;
float fc1_weight[256][128] = {-5.299148e-02, 8.166465e-02, -8.219693e-02, 7.404368e-02, -1.505233e-03, 6.942113e-02, -3.731187e-02, -6.869768e-03, 5.704533e-02, -2.950269e-03, -7.149570e-03, -7.160041e-02, -2.956810e-02, 4.779487e-02, 8.792408e-02, 5.971444e-02, 3.890975e-02, 2.442881e-02, 6.543609e-02, 2.173306e-02, -1.523344e-02, -8.331951e-02, 9.155359e-03, -4.972867e-02, 3.617334e-02, -2.258410e-02, 4.987578e-02, 3.664182e-02, 6.635783e-02, 1.238497e-02, -4.656044e-02, 2.059309e-02, 7.534680e-02, 5.149603e-02, -2.783439e-02, 7.030523e-02, -8.380686e-02, -2.453659e-02, 2.169179e-02, 4.319322e-02, -5.855786e-02, -3.966343e-02, 9.939522e-03, -8.977194e-03, -1.114393e-02, 1.254028e-02, 7.773130e-02, 1.577691e-02, 7.701925e-02, 1.090666e-03, 6.218715e-02, -7.098808e-02, -6.083273e-02, -6.128091e-02, -2.314373e-02, -4.633374e-02, 5.603858e-02, 8.703332e-02, 4.697845e-02, -4.896787e-02, 8.532244e-02, -2.957180e-02, 8.795679e-02, 2.772235e-02, -8.622637e-02, -6.418265e-02, -6.119962e-02, 6.257393e-02, 6.476554e-02, 8.179895e-02, -7.899279e-02, -7.322826e-02, -5.906091e-03, 3.563809e-02, 6.829199e-02, 7.121037e-03, 7.628587e-02, 4.887201e-02, -3.843027e-02, -3.292614e-02, 5.458811e-02, 1.677572e-02, -4.230290e-03, 3.461299e-03, 2.876371e-02, 6.192854e-02, 4.612501e-02, 7.842202e-02, 1.662023e-02, -3.663604e-02, -2.189975e-02, 4.390542e-03, 6.432264e-02, 2.285068e-02, -7.334942e-02, 5.919277e-02, -7.898822e-02, 3.288865e-02, -3.480850e-02, 2.475295e-02, -2.297639e-02, 8.402972e-02, 2.880906e-02, -4.222308e-02, 2.227107e-02, -8.402376e-02, -6.958970e-02, 4.661612e-02, -5.212150e-02, -1.939361e-02, 2.276994e-02, 2.402297e-03, -8.735554e-02, 5.816475e-02, 6.357326e-02, -3.582285e-02, 7.976110e-02, 1.954375e-02, 6.553069e-02, -6.971163e-02, 5.619134e-03, -3.568192e-02, 5.347485e-02, 6.017103e-02, -1.523204e-02, -9.972471e-04, 1.798032e-02, -6.419837e-02, -6.582650e-02, -2.977204e-02, -5.594613e-02, -2.281957e-03, -2.385874e-02, 7.721939e-02, -5.481588e-02, 3.113997e-02, 3.212710e-02, -2.594138e-04, -3.780385e-02, 3.161357e-02, 7.795520e-02, -1.198825e-03, -7.944291e-03, 8.710597e-02, -4.744827e-02, -4.582882e-02, -3.314816e-02, 6.840093e-02, 3.778676e-04, 8.796486e-02, -4.350661e-03, -4.081877e-02, 3.126820e-02, 8.607021e-02, -5.734899e-02, 5.484439e-02, 5.460683e-02, 3.888388e-02, -8.246880e-02, -5.924084e-02, 4.786625e-02, 4.553675e-02, 6.950622e-02, 2.243836e-02, -6.216499e-02, -2.481375e-02, -2.242111e-02, 6.593399e-02, 3.840988e-02, -6.743534e-02, -7.974504e-02, -7.546227e-02, 5.975490e-02, -7.508828e-02, 8.681753e-02, -6.145054e-02, 1.203182e-02, 6.112768e-04, -5.055641e-02, 3.712606e-02, -2.378213e-02, 5.765880e-02, 1.053347e-02, 8.451635e-02, -1.353233e-02, -7.466651e-02, 6.872228e-02, -2.775096e-03, -8.587977e-02, 7.928263e-02, 4.242915e-02, -1.001598e-02, -8.701792e-02, 5.114862e-02, 4.383641e-02, -7.496931e-02, -7.292296e-02, -3.066942e-02, -2.170876e-02, 2.418710e-02, -4.870256e-02, -1.089472e-02, 3.012589e-02, -2.946470e-02, 6.393557e-02, 8.542292e-02, -1.830173e-02, 4.769191e-02, 7.846025e-02, -5.969258e-04, 5.602064e-02, -2.873247e-02, -6.439259e-02, -1.021735e-02, -6.825503e-03, 7.249626e-02, 8.316214e-02, 7.987048e-02, 8.217346e-02, 4.730330e-02, -4.815970e-02, -3.855660e-02, 2.578465e-02, -4.202578e-02, 3.829602e-02, 7.450601e-02, -4.764511e-03, 8.102932e-03, -4.738792e-02, 6.274669e-02, -3.300369e-02, -2.421271e-02, -7.380524e-03, -3.708871e-02, 1.287242e-02, -5.631422e-02, 2.188695e-02, 5.933896e-02, -5.307921e-03, -7.968544e-02, 2.077410e-02, -6.371772e-02, 2.533035e-02, 6.798595e-02, 4.286157e-02, -6.435834e-02, -1.871132e-02, -6.988158e-02, 3.189668e-02, -1.529019e-02, -6.179449e-02, 6.040588e-02, 1.069763e-02, -6.432801e-02, -1.565316e-02, -4.458527e-02, -4.814278e-02, -8.436657e-02, -6.161067e-02, 3.685305e-02, -2.766782e-02, -1.795868e-02, -6.209347e-03, -7.728647e-02, 5.892469e-02, 3.487584e-02, -5.464208e-02, -3.615850e-02, 5.665116e-02, 6.782775e-02, 2.906999e-02, 8.192782e-02, -5.449378e-02, 8.075744e-02, 4.923880e-02, 2.950763e-02, 5.435053e-02, 5.149797e-02, -7.857363e-03, 1.793410e-02, 5.323622e-02, 2.143793e-02, -8.372843e-02, -2.918022e-02, 1.673846e-02, -4.868978e-02, -5.384322e-02, 5.202616e-02, -4.022917e-04, -7.443260e-02, -2.872037e-02, 9.030194e-03, -5.670838e-02, 7.343123e-02, -3.568841e-02, -3.798049e-02, 8.353402e-02, 5.096798e-02, -8.018616e-02, -7.974583e-02, -2.142307e-02, 9.575543e-03, -6.265318e-02, 3.750320e-02, 8.839131e-03, 7.711197e-02, -1.797381e-02, -1.503741e-02, -7.707921e-03, -7.217360e-02, 5.174936e-02, -4.486370e-02, 3.377298e-02, 2.230546e-02, -2.746773e-03, 6.974282e-02, 6.574538e-02, -7.024927e-02, 5.455414e-03, 8.023368e-02, -2.155451e-02, -3.745415e-02, 1.906663e-02, -9.309606e-04, -7.212473e-02, -3.587853e-02, 7.762878e-02, 4.689311e-02, 2.436032e-02, 5.843648e-02, 2.520926e-02, -2.631104e-02, 3.989665e-02, 7.953271e-02, -8.725014e-02, 1.182025e-02, 5.130932e-02, -1.919450e-02, 6.092877e-02, -4.522827e-02, 3.537396e-03, 2.691340e-03, -4.357099e-02, 5.200846e-02, 6.911848e-02, 4.240254e-02, 7.976269e-02, -3.943005e-02, 4.373983e-02, -1.739587e-02, -4.877360e-03, -8.744726e-02, -1.256655e-02, -3.577700e-02, 3.340530e-02, 6.086071e-02, 1.757324e-02, -2.268089e-02, -6.608849e-02, -2.422127e-02, -3.893687e-02, -6.939162e-02, -8.501755e-02, 7.023983e-03, 3.753592e-02, -1.501408e-02, -4.936586e-02, -8.328477e-02, -2.801977e-02, -7.034712e-02, 2.458624e-02, 1.854520e-02, 7.379819e-02, -7.907040e-02, -3.497386e-02, 7.573634e-02, -8.298979e-02, -2.181521e-04, 5.242107e-02, -9.307415e-03, -3.599781e-02, -8.429832e-02, 9.241739e-03, -4.322804e-02, 2.514155e-02, 5.998761e-02, -7.584258e-02, 4.149897e-02, 5.502773e-02, -7.602383e-02, 1.855296e-02, -2.197135e-02, -6.452605e-02, 3.345257e-02, 8.536482e-02, -8.754239e-02, -4.999090e-02, -8.496307e-02, 4.633483e-02, -2.508435e-02, 4.200606e-02, 8.688603e-02, -7.648115e-02, 5.642767e-02, -4.871516e-02, -1.878643e-03, -5.727865e-02, 2.609205e-02, -2.543067e-02, 3.586673e-02, 4.296903e-03, 1.781842e-03, -7.558956e-02, -4.545200e-02, 8.399888e-03, 6.407734e-02, -8.432221e-02, 1.995821e-02, 3.748029e-02, 6.225869e-02, 2.269588e-02, -4.370495e-02, -2.348105e-02, 2.811171e-02, -2.028233e-03, -5.626962e-02, -4.532389e-02, 7.406921e-02, 8.291961e-03, 6.145848e-02, -1.105723e-03, -1.091215e-02, -5.319076e-02, -4.133281e-02, 7.113563e-02, -8.845696e-03, 8.599299e-02, -5.783640e-02, -4.160518e-02, -1.290698e-02, 3.762678e-02, -4.951093e-02, 8.393766e-02, -8.168918e-02, -8.806035e-02, 3.087336e-02, 7.081607e-02, -3.815698e-02, 4.554743e-02, 3.081880e-02, 1.054014e-02, -6.700814e-02, 5.284871e-02, -7.627644e-02, 1.852537e-02, 2.770731e-02, -5.507848e-02, -3.951071e-02, 4.793418e-02, 3.306412e-02, -7.960317e-02, 5.630030e-02, 4.473513e-02, 8.400167e-02, -2.530919e-02, -2.410870e-02, -8.446860e-03, 7.415152e-02, -1.901710e-02, 1.249097e-02, -6.485979e-03, 5.291898e-02, -4.804456e-03, -8.061011e-02, -8.800215e-02, -7.512823e-02, -8.194841e-02, 6.348489e-02, -3.384696e-02, -5.905508e-02, -1.296826e-02, 4.302755e-02, 3.975410e-02, 3.063271e-02, 4.906971e-02, -2.860317e-02, -5.162062e-02, 7.306363e-02, -8.467819e-02, 4.945694e-02, -4.517412e-02, -4.861005e-02, 4.216234e-02, -7.208464e-02, 6.527925e-02, -7.712089e-02, -2.928002e-02, -2.679632e-02, 6.535403e-02, -5.804332e-02, 4.454660e-02, -4.800423e-02, 1.002427e-02, -5.641908e-02, -3.319153e-02, -4.450266e-02, 7.779121e-02, -2.270907e-02, 3.367836e-02, 2.608050e-02, 5.737367e-02, 8.187874e-02, 1.554661e-02, -3.593306e-02, -2.371896e-02, 8.749339e-02, -4.274798e-02, 4.838770e-02, 2.876431e-02, -7.996304e-02, 3.546752e-03, 2.708554e-02, -5.008144e-02, -2.619378e-02, -2.224421e-02, -9.571496e-03, -2.400368e-04, -5.161903e-02, -6.982157e-02, -2.986487e-02, -3.254193e-02, -8.038365e-02, -3.441884e-02, 6.407338e-02, 5.628705e-02, 8.525497e-02, 1.906787e-03, -8.450256e-02, 1.389969e-02, -6.465469e-02, -2.405239e-02, -3.544489e-02, 8.708049e-02, -2.349740e-02, -2.745432e-02, 8.406112e-02, -2.439842e-02, -4.034406e-02, 3.994542e-02, -2.919291e-03, 5.435008e-02, -4.094619e-03, -8.121125e-02, 1.453643e-02, 1.265025e-02, 5.830044e-02, 2.686814e-02, 5.980745e-02, 8.293216e-02, -6.534898e-02, -1.091479e-02, 6.115887e-03, 6.846807e-02, 7.399641e-02, 5.379356e-02, 5.444431e-02, 2.687839e-02, -8.416325e-03, 8.767250e-02, 1.288178e-02, -3.384992e-03, 2.916719e-02, 4.016865e-02, 7.132257e-02, -1.961327e-02, 5.425626e-02, 3.348392e-02, -6.036356e-03, -3.061811e-02, -5.317035e-02, -1.483517e-02, 2.251632e-02, 4.190345e-02, 6.527183e-02, -9.110273e-03, 1.505789e-02, 6.646115e-03, -3.370882e-02, -2.677146e-02, -2.476570e-02, 3.935186e-02, -5.120373e-02, -1.644951e-02, 7.238573e-03, 7.340640e-02, -6.060938e-02, -7.391084e-02, 2.224550e-02, 8.787842e-02, -2.902970e-02, 5.505948e-03, -7.206115e-02, 4.761862e-02, -3.772021e-02, 1.649034e-02, 3.414211e-02, 8.124945e-02, 5.614781e-02, 7.181707e-02, 7.931410e-02, 8.062240e-02, 2.532753e-02, 2.725868e-02, -2.595966e-02, -7.932325e-02, -5.906628e-02, 6.904560e-03, 2.721232e-03, 2.799883e-02, 4.231013e-02, 4.949887e-02, 1.315825e-04, -4.950298e-02, 1.020277e-02, -5.676128e-02, 3.464046e-02, 6.464883e-02, -2.660204e-02, 7.635144e-03, 3.654148e-02, -4.300604e-02, 2.080337e-02, 1.798884e-02, -8.302584e-02, 6.036808e-02, -7.265820e-02, 6.976134e-02, 8.050495e-02, 8.763256e-03, 6.089920e-02, -6.302955e-02, 8.745546e-02, 8.213016e-02, 1.469241e-02, 5.942611e-03, 2.883180e-02, 2.061596e-02, -3.769713e-02, -3.053959e-02, -8.978069e-03, 1.895193e-02, 7.760512e-02, 1.987243e-02, -6.940338e-02, -4.111425e-03, 5.761977e-02, 4.949064e-02, -7.864863e-02, -1.902768e-02, 3.654409e-02, 2.367057e-02, 4.734661e-03, 2.397539e-02, 2.486789e-02, -5.547903e-02, 2.943626e-02, 6.157570e-02, -5.002471e-02, -8.505377e-02, 1.563753e-04, 6.075430e-02, 5.957218e-02, -7.496020e-02, 1.314687e-03, 6.121854e-02, 4.815982e-02, 6.553545e-02, 3.540769e-02, -5.875455e-02, 3.142021e-02, 3.579678e-02, -2.947540e-03, 1.248318e-02, 5.338449e-02, -5.058903e-02, 4.389179e-02, 2.605728e-02, 3.120148e-02, 5.256804e-02, -8.323465e-03, -5.649015e-02, 8.789173e-02, -7.266749e-02, -7.635587e-02, 4.368195e-02, 2.972258e-02, 3.731827e-02, 4.952041e-02, 4.502959e-03, 2.420598e-02, 7.966875e-02, 2.200210e-02, 7.642259e-02, 8.748871e-02, 5.317509e-02, 5.512675e-02, -6.731860e-02, -2.640526e-02, -4.068989e-02, 7.793579e-02, -6.416897e-02, -1.885734e-03, 5.537561e-02, -5.208139e-02, 6.529272e-02, 3.175700e-02, -8.478469e-02, 2.305159e-02, -7.402156e-03, 3.605179e-02, -1.360827e-02, 6.571157e-02, -7.029494e-02, 3.214186e-02, 2.396787e-02, 6.359578e-02, 8.525580e-03, 3.272026e-02, 6.990438e-02, -3.231850e-02, -6.509785e-02, 3.433562e-02, -7.176995e-02, 6.407733e-02, -5.036902e-02, 1.894997e-02, 2.640368e-02, -3.511824e-02, -3.912063e-02, -2.977428e-02, -2.305043e-03, 7.334530e-02, -4.112884e-02, -8.713043e-02, 6.638488e-02, 6.688424e-02, -3.214301e-02, -2.880593e-02, -7.666223e-02, 1.245307e-02, -1.303977e-02, -2.287742e-03, 2.649820e-02, 7.282055e-02, 7.361761e-02, 6.547378e-02, -2.763486e-02, -3.233711e-02, 6.946692e-02, 1.625323e-02, -4.635696e-02, -1.713009e-02, 2.293924e-02, -1.313716e-02, -1.794440e-02, -5.945603e-02, 6.133270e-02, 5.847950e-02, 5.960546e-02, -4.856240e-02, 1.285670e-02, -3.124366e-02, 5.296911e-02, 5.532585e-02, 3.469471e-02, -5.139928e-02, 2.309462e-02, -7.855501e-02, -3.781696e-02, -1.929607e-02, -5.572626e-02, -4.530749e-02, 3.647056e-02, -6.665273e-02, -2.896328e-02, -4.528794e-02, -1.662142e-02, -1.881626e-02, -6.289174e-03, 8.274269e-03, -3.126639e-02, -2.071981e-03, -8.294671e-02, 5.194728e-02, 4.473970e-02, -2.950716e-02, 4.876548e-03, 2.474067e-02, -1.570355e-02, 1.983241e-03, 5.671057e-02, 8.286533e-02, 1.169920e-02, -8.086050e-02, 2.540911e-02, -2.829247e-02, -4.975191e-02, 4.199496e-02, 4.111822e-02, 9.916764e-03, 8.827983e-02, 7.268666e-02, -7.846108e-02, -8.169126e-02, 4.527411e-02, -5.156920e-02, -1.640083e-02, -7.935240e-03, 6.496416e-02, -8.588485e-02, 3.003419e-02, -8.514268e-02, -8.281129e-02, -4.715293e-02, -1.936613e-02, -3.687802e-02, 3.922509e-02, 8.454404e-02, 4.798818e-02, 1.102958e-02, 1.310396e-02, -5.364035e-02, 5.204746e-02, 6.301131e-02, -1.125071e-02, 6.093026e-02, 8.410650e-02, 6.861369e-02, -4.863433e-02, 2.503071e-02, 3.691219e-02, -1.831477e-02, -1.601999e-02, 1.283818e-02, 5.816369e-02, 8.474369e-02, 8.640955e-02, 3.977022e-02, 7.385164e-02, -6.762417e-02, -1.610129e-02, -3.204602e-02, -2.133923e-02, 3.328029e-02, 8.606884e-02, -4.161150e-02, -6.746456e-03, 4.108678e-02, 5.114048e-02, -5.476457e-02, 1.605983e-02, 1.726970e-02, -2.036483e-02, -1.006123e-02, -2.185632e-02, 6.171702e-02, 3.447857e-02, 3.107061e-02, -4.599080e-02, 3.102859e-02, -5.067579e-03, 7.313261e-02, -1.876909e-02, 3.434678e-02, 2.240926e-02, 5.972821e-02, 7.402188e-02, -4.407402e-02, -6.379399e-03, 4.696853e-02, 2.992927e-02, 8.475589e-02, -8.216229e-02, 3.582482e-06, -5.180600e-02, -5.393496e-02, 3.217592e-02, 1.659955e-02, -3.825088e-02, 3.113587e-02, 7.642010e-02, -8.781643e-02, -6.441885e-02, -4.729509e-04, 7.472737e-02, 8.565304e-02, -8.487322e-02, 5.622695e-02, 3.396838e-02, -5.990753e-03, -6.536908e-02, 2.983756e-02, -5.500747e-02, -7.063208e-02, 5.912266e-02, 8.478498e-02, 7.367520e-02, -6.305378e-02, -2.179793e-02, 4.052625e-02, 7.516956e-02, 7.953902e-02, -5.287126e-02, 3.283415e-02, 6.294642e-02, -2.035403e-02, 4.428695e-02, -5.530811e-02, -3.874272e-02, -3.270653e-02, 3.223270e-02, 8.545316e-03, 4.716033e-02, -7.185879e-02, 3.961110e-02, -8.194488e-02, -2.259807e-02, -3.256937e-02, -8.531164e-03, -3.805535e-02, 3.182651e-02, -6.264482e-02, -2.954387e-02, 7.758692e-02, 4.476191e-02, -2.934144e-02, -8.110848e-02, 4.284035e-02, -8.278347e-03, -1.846357e-02, -7.426106e-03, 1.884550e-02, 3.477866e-02, 5.135835e-02, -5.847044e-02, -8.089432e-02, -8.194450e-02, 2.505339e-02, -4.415307e-02, -5.178130e-02, 2.823764e-02, -6.311890e-02, 2.621425e-02, -3.580691e-04, -1.105538e-02, -6.129982e-02, -8.591498e-02, -4.173916e-02, 8.580533e-02, 3.387479e-03, -7.658045e-02, -5.732487e-03, 2.404754e-02, -1.030664e-02, -7.417250e-02, -1.999545e-02, 6.559385e-02, -8.237412e-02, -5.506962e-02, -3.235757e-02, 2.958003e-02, 7.777625e-02, 2.813664e-02, 7.586190e-03, 3.236328e-02, -2.583271e-02, 8.401058e-03, 1.609645e-02, 5.895227e-03, -8.214231e-03, -7.895710e-02, 8.173294e-02, 7.882699e-02, 4.592078e-03, 1.159817e-02, 8.312490e-02, 2.205401e-02, 2.258007e-02, -3.797282e-02, -5.428398e-02, -6.249596e-02, -1.237125e-02, -6.654923e-02, 1.799898e-02, 4.658124e-02, -7.482884e-02, -7.370932e-02, 2.335176e-02, -1.028368e-02, -1.397271e-02, -6.029778e-02, -4.962839e-02, 4.103590e-02, 2.928056e-02, -7.525818e-02, 3.146220e-02, 6.767154e-02, 2.141313e-02, 4.834731e-02, 7.480560e-03, -6.766962e-02, 8.211845e-02, -2.800139e-02, -4.274260e-02, 5.546910e-02, -2.908480e-02, -5.890381e-02, 4.719981e-02, 1.571268e-02, -2.523437e-04, 7.937634e-02, -2.672029e-02, -3.728173e-02, 5.855531e-02, 4.316033e-02, 6.604350e-02, -7.227270e-02, -3.428329e-02, -7.984695e-02, -5.182503e-03, -6.612517e-02, -5.148018e-02, -5.521759e-02, 2.574928e-02, 4.779381e-02, 4.330643e-02, -8.129179e-03, -8.276991e-02, -7.299940e-03, 4.989815e-02, 5.352592e-02, 7.215596e-02, 1.520676e-02, 1.618901e-02, 2.909996e-02, -8.358250e-02, -2.060173e-02, -2.735717e-02, -2.168683e-02, -8.335263e-02, -7.718762e-02, -8.626931e-02, 3.812204e-02, 8.138426e-02, -2.548096e-02, -2.108459e-03, -6.363602e-02, -3.236385e-02, 3.331919e-03, 1.225752e-02, -3.328632e-03, 8.391101e-02, -2.869311e-02, -8.706369e-02, 6.260503e-02, -1.498435e-02, -4.667468e-03, 3.220151e-02, 7.526036e-03, 3.993472e-02, -5.230529e-04, -5.300368e-02, 7.398992e-02, -3.204088e-02, -3.493702e-02, 1.011901e-02, -5.254517e-02, -7.628701e-02, 5.480840e-02, -4.974679e-02, -4.270108e-04, 7.266258e-02, 4.722917e-02, -8.690327e-02, -6.486345e-02, 4.057725e-02, -5.239761e-02, -5.867170e-02, 6.644022e-02, -5.140050e-03, 5.393346e-02, 4.190572e-02, -2.517178e-03, -6.889601e-02, -1.275745e-02, -7.128050e-02, 6.309173e-04, -2.650581e-02, -2.589541e-02, -3.118978e-02, 7.937232e-02, -5.958681e-02, 5.905677e-02, 6.253195e-02, -1.229416e-02, -2.413128e-02, 8.761360e-02, -4.853133e-02, 4.579396e-02, -3.422403e-02, -6.104387e-02, 1.187164e-02, 4.936358e-02, -2.933452e-02, -6.643867e-02, -5.554853e-02, -7.909732e-02, -6.277011e-02, 2.980541e-03, -2.733687e-02, -5.780067e-02, -6.766994e-02, 2.851946e-02, 7.523204e-02, -2.400610e-02, -2.031096e-02, 2.969650e-02, -3.835696e-02, -7.348824e-02, -8.496770e-02, -6.937523e-02, 5.633127e-02, 7.348002e-02, -7.306431e-02, -5.375729e-02, 5.208835e-02, -8.551939e-02, -4.341139e-02, 1.956405e-02, -6.980611e-02, 8.798060e-02, -3.608724e-02, -3.979896e-02, 2.174098e-02, 8.738935e-02, -4.850017e-02, 8.809827e-02, -4.327092e-02, 2.165973e-02, -3.775709e-02, 4.778666e-02, -6.623984e-02, 4.073622e-02, -6.957473e-02, 2.551062e-02, 4.100814e-03, -6.265282e-02, 4.254082e-03, 7.365066e-02, -1.281118e-02, 2.995978e-02, -8.000599e-02, -1.065506e-02, -3.019793e-02, 1.091767e-02, 7.558066e-02, -4.845276e-02, 2.953907e-02, -3.988426e-02, -2.651818e-02, -3.246834e-02, -1.939076e-02, 6.592604e-02, 7.433805e-02, 8.624510e-03, -6.805153e-02, -7.213278e-02, 8.392273e-02, 6.412619e-02, -5.991623e-02, 8.145455e-02, -8.535238e-02, 1.612500e-02, -1.917843e-02, -3.595453e-03, 3.754677e-02, 7.773797e-02, 6.341559e-02, 2.842595e-02, -2.220780e-02, -8.248897e-02, 7.475083e-02, 8.356952e-02, -4.334695e-02, 2.579312e-02, 1.215424e-02, -1.356879e-02, -2.298028e-02, 2.516721e-02, -4.694139e-02, -8.392803e-02, -8.765915e-02, 6.780406e-02, 4.520476e-02, -1.218590e-02, -5.436653e-02, -5.921490e-02, -2.602932e-02, -8.129288e-02, -8.695991e-02, -7.204559e-02, -3.608852e-02, 3.892479e-02, -1.444724e-02, 3.591623e-02, 8.703212e-02, 8.416659e-02, 4.477521e-02, 8.513954e-02, -1.236436e-02, -4.083912e-02, -1.180523e-02, 2.029818e-02, 8.719797e-02, -5.152980e-02, -2.699034e-02, -4.713215e-02, 5.759730e-02, -1.057564e-02, -4.643287e-02, 5.284972e-03, -2.828574e-02, 7.545391e-02, -2.558655e-02, -7.012298e-03, 2.271599e-03, 3.365915e-02, -6.325079e-02, -5.639166e-02, -5.623594e-02, 8.191579e-02, -3.875980e-02, 7.171708e-02, -4.098835e-02, 2.461378e-02, -1.213054e-02, 1.742396e-02, 7.666749e-02, -5.142760e-02, 1.100915e-02, -7.444555e-02, 6.232698e-02, -3.145861e-02, -7.028583e-02, 2.215681e-02, 4.766119e-02, -6.256302e-02, -3.589743e-02, -9.347749e-04, -8.108895e-03, 8.286480e-02, 5.205922e-02, 1.417676e-02, 5.203107e-02, -9.563857e-04, 6.948312e-02, 6.364798e-02, 1.734544e-02, 9.853080e-03, -8.158499e-02, -8.698904e-02, -4.755246e-02, 2.605827e-02, 7.508595e-02, -5.377505e-02, 4.116093e-03, -1.545145e-02, -2.257174e-04, 4.768943e-02, -3.971195e-02, 1.295283e-02, 3.130976e-02, 8.376596e-02, 8.669326e-02, -6.400225e-02, -4.463718e-02, 4.195658e-02, -5.693333e-02, -8.706222e-02, -4.147695e-02, 2.780459e-03, 5.623432e-02, 4.146670e-02, -7.970368e-02, 6.337297e-02, 8.516956e-02, -1.105334e-02, 3.516806e-02, -6.300321e-03, -3.947621e-03, 2.653756e-02, -7.619896e-02, 8.655756e-02, 9.242235e-03, 7.575700e-02, 3.143835e-02, 6.969629e-02, 8.328044e-02, -7.965456e-02, 5.360115e-02, -8.372258e-02, -7.632230e-02, -8.399202e-03, -5.859453e-02, 4.366322e-02, 4.991406e-02, -1.107083e-02, -6.400632e-02, 6.819003e-02, -1.542913e-02, 7.954991e-02, 6.510925e-02, -7.225584e-02, 4.219106e-02, 5.025973e-02, 4.165057e-02, -6.967465e-02, -1.911610e-02, 6.798434e-02, 8.538213e-02, 6.938042e-02, -8.638092e-02, 5.264037e-02, 1.859579e-02, 7.753993e-02, -8.027705e-02, 1.685698e-02, 1.784268e-02, -8.033937e-03, -1.221401e-02, 1.665250e-02, 8.583711e-03, 6.247697e-02, 4.358848e-02, 2.899525e-02, 1.777290e-02, 5.470990e-02, -3.070054e-02, 5.685560e-02, 6.133012e-02, -7.191335e-02, -5.855022e-02, 4.705672e-02, 6.666671e-02, 8.396877e-02, 2.484943e-02, -8.104629e-02, -8.082531e-02, 3.058513e-02, -1.602989e-02, -7.385963e-02, -3.073321e-02, 3.479085e-02, -5.583340e-03, -1.654428e-02, -1.581677e-02, 2.633622e-02, 3.438215e-02, 8.473147e-02, 2.070026e-02, -6.125131e-02, 3.976756e-02, -7.749625e-02, 4.136027e-02, -3.797262e-03, -3.555884e-02, -7.834222e-02, -2.132791e-02, 1.401869e-02, 8.741903e-02, -3.611349e-02, -7.629717e-02, 7.051371e-02, 1.942615e-02, 5.877556e-02, -1.455597e-02, 4.540870e-03, 4.362367e-02, -5.155823e-02, -5.366306e-02, 7.601104e-02, 4.922086e-02, -6.100696e-02, -3.407830e-02, -7.985590e-02, 5.302059e-02, 7.908976e-02, 4.221554e-02, -7.773230e-02, -6.915532e-02, 4.164117e-02, 7.459851e-02, 8.503762e-02, -1.717429e-02, -2.759137e-02, -5.860323e-02, 4.239524e-02, -8.007986e-02, -7.208040e-02, -2.298791e-02, 2.224071e-02, 1.387801e-03, 2.083590e-02, 5.896731e-02, 2.916963e-02, 3.143824e-02, -6.192157e-02, 1.924209e-02, -7.285810e-02, -2.739552e-02, 1.175950e-03, -7.328535e-02, 2.178223e-02, -5.045216e-02, -8.793013e-02, 3.346900e-02, -8.942233e-03, -2.419881e-02, 8.563245e-02, 6.006416e-02, 7.323809e-02, -2.946606e-02, 6.377201e-02, 1.762537e-02, -3.881803e-02, 7.510573e-02, 7.876703e-02, -8.003602e-03, 8.126567e-02, 1.451506e-03, 6.661586e-02, 7.314508e-02, -6.994823e-02, 7.617808e-02, 3.380537e-02, -3.280416e-03, 6.940827e-03, -3.672149e-03, -7.641456e-02, -8.415662e-03, -6.994866e-02, -6.195912e-02, 5.207994e-02, 7.857032e-02, -8.761725e-02, 1.717600e-03, -7.477438e-02, 5.165206e-02, -7.969747e-03, -8.465590e-02, -6.480297e-02, -7.036516e-02, -8.250849e-02, 3.434918e-02, 7.580150e-02, 2.749274e-02, -1.851903e-02, -2.099288e-02, 1.538266e-02, -3.561745e-02, -5.840402e-02, -8.625080e-02, -2.339485e-02, 3.852225e-02, -2.155866e-02, -8.721080e-02, 6.614713e-02, -7.808084e-02, -2.638122e-02, -5.565560e-02, 1.893038e-02, 1.278668e-02, -4.723950e-02, -6.911412e-02, -8.129668e-02, 3.338430e-02, -5.160465e-02, -8.027224e-02, 7.188746e-02, 7.696532e-02, 7.873670e-02, 4.879088e-03, -3.259102e-02, -3.758601e-02, 6.449994e-02, 2.351301e-02, 4.752271e-02, 1.408732e-02, 6.764882e-02, 1.001376e-02, -6.452732e-02, -1.110934e-02, -3.730708e-02, 5.833387e-03, 7.996304e-02, -6.136198e-02, 3.939359e-02, 5.043877e-02, 7.121453e-02, 6.340520e-02, 5.566210e-02, 7.784289e-02, 2.808095e-02, -3.471667e-02, 8.509821e-02, -4.130882e-02, 5.194078e-02, 6.567448e-03, 2.095449e-02, -2.067498e-02, 3.239760e-02, -7.253319e-02, 5.105196e-02, 8.459750e-02, 5.208780e-02, -4.788015e-02, -6.832191e-02, 4.351227e-02, 8.580741e-02, -6.815292e-02, -5.607045e-02, 5.232151e-02, -3.892105e-02, -5.937303e-02, 1.384650e-03, -3.572038e-02, -6.867199e-02, -3.154430e-02, -2.047496e-02, 2.294466e-02, -6.717283e-02, -7.685619e-02, -4.378349e-02, 7.442205e-02, 9.505905e-03, -1.872967e-02, 2.496633e-02, 4.118632e-03, -9.894341e-03, -7.492660e-02, 6.075498e-02, 1.791773e-02, -1.318056e-02, -2.989296e-02, -6.322040e-02, -5.617106e-02, -6.331353e-02, 8.713842e-02, -4.876263e-02, 1.702138e-02, 6.694636e-02, -4.403017e-02, 7.922304e-02, 1.292486e-03, -4.557328e-02, 4.140811e-02, -2.769880e-02, -3.953093e-02, 3.602586e-02, -2.107305e-02, -3.469213e-02, 4.357155e-02, -3.539661e-03, 6.270166e-02, 7.404054e-02, -5.199353e-02, 3.170452e-02, -4.649497e-02, 6.634779e-02, 3.602196e-02, 7.612269e-02, -5.093871e-02, -2.970248e-02, -6.537629e-03, -1.051601e-02, 2.731744e-02, 2.413757e-02, -5.625882e-02, 2.542831e-02, 1.061730e-02, -6.586208e-02, 8.696184e-02, -3.409413e-02, -1.885063e-02, 3.486111e-02, -8.820715e-02, -5.584348e-02, 6.980577e-02, 1.115014e-02, 2.657867e-02, -5.367782e-02, -5.491522e-02, 4.304846e-02, 5.750044e-02, -5.706733e-02, 7.607019e-02, -8.809817e-02, 6.696765e-02, 6.860962e-02, 5.144711e-02, 3.114096e-02, -2.660059e-02, -5.002801e-02, -2.256783e-02, -7.860033e-02, 7.828124e-02, 4.013646e-02, -5.293484e-02, 4.032725e-02, 8.032424e-02, 4.048742e-02, -3.614145e-03, -8.087074e-03, -2.724924e-02, 3.459955e-02, -6.255272e-02, -8.728096e-02, 6.888993e-02, -4.354393e-02, 9.234469e-03, 6.089824e-02, 5.409080e-02, 2.103083e-02, 7.959860e-02, -1.833758e-02, -7.443763e-02, -1.298561e-02, -6.589681e-03, 5.035061e-02, -4.593262e-02, 7.731505e-02, 7.590587e-02, 7.608275e-03, -3.877316e-02, 4.508238e-02, 1.047535e-02, -3.399660e-02, 5.781480e-02, -2.588375e-03, 3.427318e-02, -1.035843e-02, -3.546752e-02, -2.889135e-02, -5.164234e-02, 6.820444e-02, 8.518315e-02, 2.208868e-02, 3.014431e-02, 6.063939e-02, 6.480383e-03, 7.188286e-02, 5.098957e-03, 1.962128e-02, -2.391275e-02, 5.048805e-02, 1.374430e-03, 1.338268e-04, 5.008011e-02, -2.562631e-02, -1.724929e-02, 7.733388e-03, -5.013523e-02, -3.926693e-02, -6.242696e-03, -8.561519e-02, -2.036238e-02, 1.166363e-02, -3.282360e-02, -6.641526e-02, -8.288126e-02, 5.741977e-02, 8.402639e-02, 3.874930e-02, -3.609931e-02, -4.195309e-02, -3.963696e-02, 5.155234e-02, 6.646758e-02, -5.070890e-02, 4.439610e-02, 8.076569e-03, -1.684382e-02, 7.410467e-02, 5.318657e-02, 6.075215e-03, 5.810817e-02, 8.680614e-02, 1.384130e-02, -6.692525e-02, 9.655579e-03, 1.698422e-02, 7.068492e-02, -4.002529e-02, 4.895449e-02, -3.136224e-02, -7.732912e-02, -7.360209e-03, -6.024185e-02, -3.108741e-02, 6.679148e-02, 6.733190e-02, -5.623011e-03, -1.745564e-03, -4.104437e-02, 6.568632e-02, 2.574496e-02, 2.080866e-02, -7.202970e-03, 3.035901e-03, -3.989297e-02, 2.644542e-02, 7.500935e-02, -1.327871e-02, -4.231943e-02, -7.845545e-02, -3.857242e-02, -4.352218e-02, -7.258958e-02, -8.854315e-04, -2.494719e-02, -4.165525e-02, -2.780480e-03, 4.892927e-02, -8.952749e-03, 1.346707e-02, -6.716472e-02, -8.531497e-02, 4.582256e-02, -5.577512e-02, 4.969258e-02, 2.561850e-02, 3.822953e-02, -4.731365e-02, 8.072462e-02, -8.271025e-02, -5.664525e-02, 5.779314e-02, -5.942386e-02, 5.387973e-02, -3.471372e-02, -5.644283e-02, -6.137962e-02, -4.766149e-02, -3.883712e-02, 2.462296e-02, 3.215539e-02, 7.542244e-02, -7.380088e-02, -5.337745e-02, 4.156520e-02, 5.727259e-02, -4.288584e-02, -3.735414e-02, 4.744737e-02, -7.606126e-03, -9.718926e-03, -2.466501e-02, -7.018588e-02, -6.938867e-02, 5.107745e-03, -6.934588e-02, -4.534720e-02, 8.791454e-02, 3.156365e-02, -6.361981e-02, 4.252318e-02, 1.924079e-02, 8.789544e-02, -1.988064e-02, -4.513544e-02, 8.040412e-02, 5.211394e-03, -8.421526e-02, 8.547981e-02, 8.553381e-02, -7.442682e-02, -2.237844e-02, -7.816416e-02, -6.487569e-02, -6.870136e-02, -1.161880e-02, 6.483875e-02, -5.660539e-02, -6.226717e-02, 2.220052e-02, -3.129548e-02, -6.024680e-02, 8.822071e-02, -7.772420e-02, 9.562688e-03, -2.270840e-02, -7.306318e-02, 2.845048e-02, -8.591286e-02, -5.116956e-02, -5.670292e-02, 4.494544e-02, 5.868759e-03, 7.053004e-02, 9.153031e-04, -4.131654e-02, 6.195181e-02, 7.725009e-02, 6.974939e-02, -1.483746e-02, -3.562661e-02, -1.425892e-02, -2.912063e-03, -2.966053e-03, -8.280881e-02, 4.924115e-02, -7.100645e-02, -2.725433e-02, -4.432014e-02, -2.944714e-02, 1.110988e-02, -8.574776e-02, -6.431328e-02, -8.388091e-02, -7.192490e-02, -4.163404e-02, 5.482620e-02, 4.143576e-02, 5.672578e-02, -8.405552e-02, -8.056849e-02, -3.651686e-02, 1.764557e-02, 5.223483e-02, -6.876181e-02, 2.680176e-02, 1.900587e-02, 1.229272e-02, -5.512454e-02, -5.772552e-02, 2.346994e-02, -7.200303e-02, -3.124997e-02, -5.693798e-02, -7.640826e-02, -4.665113e-02, 3.554804e-02, -5.068456e-02, -1.497322e-02, -7.655881e-02, 5.948880e-02, 7.186852e-02, -3.575765e-02, 2.995501e-02, -4.357329e-02, -3.735043e-03, -2.300135e-02, -3.553395e-02, -1.170360e-02, 8.354444e-02, 2.033448e-03, 3.600612e-02, -2.315807e-02, 3.962484e-02, -1.735148e-02, 4.707875e-02, -7.707854e-02, 8.245967e-03, 6.824165e-03, -6.316432e-03, 7.391328e-02, 2.508789e-02, -4.687096e-02, -3.179717e-02, -8.975277e-03, -1.484928e-02, -8.692534e-02, -6.688116e-02, 2.365071e-02, 5.354799e-02, -1.908513e-02, -2.847586e-02, -7.457811e-02, 6.812102e-02, 3.421249e-03, -4.859937e-02, -7.246273e-02, 8.765639e-02, -3.942277e-02, -9.531088e-04, 4.183253e-02, -7.057092e-02, -2.008850e-02, 1.388879e-02, 3.051238e-02, 6.070644e-02, -6.123353e-02, -6.723742e-02, 7.413986e-02, 7.029699e-02, -9.226998e-05, 6.407680e-02, 1.562030e-02, 2.076452e-02, -2.204427e-02, 6.099596e-02, 6.752006e-02, -5.323032e-02, -3.577161e-03, -6.140372e-02, -3.302285e-02, -5.581503e-02, 3.570655e-02, -3.348738e-02, -8.736363e-02, 1.793453e-02, 3.890370e-02, -6.610902e-03, -5.262403e-02, -6.374849e-02, -3.301363e-02, -2.009468e-02, 7.557063e-02, -2.122842e-03, 5.478129e-02, 6.117225e-02, 8.332197e-02, 1.222757e-02, 1.654158e-03, -3.756322e-02, -6.977554e-02, -5.940583e-02, -3.253925e-02, -2.838887e-02, -6.334685e-02, -8.309220e-02, -7.834446e-02, -4.596970e-02, 5.612999e-02, -3.652393e-02, 4.051471e-03, -4.983517e-03, 5.077905e-02, 5.177882e-02, -2.432946e-02, 1.022191e-02, 4.938320e-02, -7.374447e-02, -4.687383e-02, 2.582646e-02, 6.759477e-02, -1.915210e-02, -6.817210e-02, -6.158862e-02, 4.815548e-02, 1.816625e-02, 4.143351e-04, 2.130461e-02, 5.440060e-02, 7.574799e-02, -5.855814e-02, 6.319948e-02, -1.313549e-02, 1.040722e-02, -6.417739e-02, 2.405056e-02, -3.142247e-02, -4.953201e-02, 6.932838e-02, -1.379256e-04, -2.669107e-03, 3.928044e-03, -1.666017e-02, -5.813641e-02, 8.871205e-03, -4.208175e-02, -8.425369e-02, 4.029913e-03, 3.354318e-02, -9.471103e-03, -6.180836e-02, 5.052371e-02, -8.135437e-02, -6.539581e-02, -4.517220e-02, 6.982391e-02, -4.393103e-02, 5.806929e-02, -6.514417e-02, -2.166506e-03, 8.165108e-02, -6.696764e-02, 8.535991e-02, 5.629828e-03, -7.192416e-02, 2.852125e-02, 2.745544e-02, 4.740262e-02, -5.954228e-02, -4.794183e-03, -6.740967e-02, 7.000767e-02, 4.038674e-02, 1.284622e-02, -1.354625e-02, -3.248833e-02, 5.766670e-02, 4.650871e-02, -2.201386e-02, -3.099842e-02, -6.378291e-02, 6.018247e-02, -2.090915e-02, 1.356141e-02, 1.656449e-02, 6.113937e-02, 4.470700e-02, 8.360271e-02, -8.315269e-02, 1.211672e-02, -2.361522e-02, -8.517943e-02, 5.980182e-02, -8.028872e-02, -1.355100e-02, -8.497163e-02, -3.623016e-02, 4.840449e-03, 5.393460e-02, 2.511196e-02, 3.003855e-02, -7.767519e-02, -2.095750e-02, 4.145277e-02, 2.327975e-02, -7.579209e-02, -6.801464e-02, -7.808410e-02, 3.239550e-02, 6.182104e-02, -4.689589e-02, -1.931411e-03, -4.363828e-02, 3.841557e-02, 3.765739e-02, -1.956496e-02, -2.355573e-02, 7.167605e-02, 5.160306e-02, 4.984274e-02, 6.105738e-02, 4.799118e-02, -6.868520e-02, -2.448173e-03, -1.697398e-02, 6.285325e-02, -3.379200e-02, 5.880564e-02, -3.144424e-02, 7.712580e-02, 5.681808e-02, 3.074066e-02, 7.360500e-02, 7.470474e-02, 3.212983e-02, 9.353987e-03, 6.477347e-02, -4.966359e-02, 2.367160e-02, -6.360336e-02, -7.346458e-02, 4.925688e-02, 6.919150e-02, -8.680033e-02, 4.435972e-02, -2.162241e-02, -6.040198e-02, 7.237986e-02, 7.505386e-02, 2.495504e-02, -8.493859e-02, 1.042868e-02, -4.043644e-02, -8.075592e-02, 5.035856e-02, -3.963946e-02, 7.454309e-02, -3.822264e-02, -1.854685e-02, -6.509922e-02, -7.253576e-02, -4.117634e-02, -1.940346e-03, -4.541618e-02, 3.931884e-02, 3.845585e-02, 1.715016e-02, -1.815312e-02, 3.991593e-02, 5.089605e-02, 8.796355e-02, 1.721843e-02, -3.087156e-02, -6.115673e-02, -2.704608e-02, -3.553485e-03, -7.733358e-02, 1.107689e-02, -1.808695e-02, -3.059533e-02, 7.542121e-02, -1.880078e-02, 2.054827e-02, 5.489548e-02, -1.186851e-02, -4.341976e-02, 1.678600e-02, -6.931857e-02, 2.994199e-02, -3.985478e-02, -3.601308e-02, 3.179917e-02, -3.551835e-02, -6.097646e-02, -1.344118e-02, 1.914665e-02, -6.213393e-02, 1.769366e-02, 8.291883e-02, -7.437378e-02, -2.750455e-02, 4.656304e-02, -4.872976e-03, -8.631638e-02, -4.086372e-02, -7.854192e-03, -8.500155e-02, -8.691989e-02, 8.519365e-02, 5.128372e-02, 1.656412e-02, -6.161015e-02, -3.718550e-02, -6.372498e-02, -1.043694e-02, 8.074734e-02, 2.490183e-02, 2.161934e-02, 8.282539e-02, -5.673585e-02, 8.810227e-02, 8.519660e-02, -7.416303e-02, 7.791446e-03, -5.668475e-02, -5.955346e-02, 1.241024e-02, -3.051437e-02, -7.759108e-03, 3.429255e-02, -6.035439e-03, 8.609926e-02, 7.130145e-02, -8.589341e-02, -2.071170e-02, 2.589475e-02, -2.178810e-02, -5.273302e-02, 9.016306e-03, 8.276439e-02, -4.333171e-02, 5.744078e-03, -5.238935e-02, -2.912182e-02, 2.581347e-03, 8.614037e-02, -4.092520e-02, -3.460559e-02, -4.617156e-02, 4.247449e-02, -7.678751e-02, -6.137849e-02, -7.593173e-02, -4.534610e-02, 8.282506e-02, -7.479257e-02, 1.580055e-02, -2.215607e-02, -2.865316e-02, 6.394945e-02, 6.831704e-02, -8.149268e-02, 5.784320e-02, -3.515559e-02, -3.018484e-02, -5.291920e-02, -8.061297e-02, -2.793254e-02, 7.001119e-04, 4.614708e-02, 2.814815e-02, -2.528484e-02, 4.618741e-02, 4.868722e-02, -6.898158e-02, 5.742778e-02, -7.942099e-03, -6.354111e-02, 7.311873e-02, 3.012845e-02, -5.884892e-02, 1.217852e-02, 5.760597e-02, -2.840778e-02, 8.541618e-03, -3.094348e-03, 8.672631e-02, -6.510392e-03, 5.229705e-02, 7.219704e-02, -6.925949e-02, -3.092685e-02, 6.881942e-02, 7.671083e-02, 6.181285e-02, -5.384450e-02, 7.917312e-02, 7.218765e-03, 7.039461e-02, 6.672975e-02, -8.474199e-02, 2.486390e-03, -5.276567e-02, 4.221196e-02, -6.948455e-02, 8.384624e-02, 5.635168e-02, -5.621376e-02, 2.349842e-02, 6.506865e-02, -4.258426e-02, -4.141073e-02, 7.691663e-02, 2.887249e-02, -7.600381e-02, -6.864304e-02, -5.402879e-02, -3.920640e-02, -8.303354e-02, -4.237016e-02, -1.064605e-02, 7.473581e-02, -4.558292e-02, 3.712084e-04, 8.315529e-02, -8.066114e-02, -5.618497e-02, 4.312158e-02, 7.040695e-02, -4.579464e-02, -8.259188e-02, 3.850243e-02, -2.304481e-02, -8.270042e-02, -7.964347e-02, -4.815377e-02, 6.568323e-02, -2.667455e-02, 5.632497e-02, 4.562292e-02, 7.928220e-02, -3.270270e-02, -8.437196e-02, 3.719895e-02, -8.068776e-02, 6.487139e-02, 7.529812e-02, -3.072470e-02, 1.515047e-02, -5.421482e-02, -4.953313e-02, 8.197251e-02, -3.869074e-02, 4.811088e-02, 2.183212e-02, -2.385697e-02, 8.224066e-02, 1.748367e-03, 6.809277e-02, 5.159938e-02, 3.604767e-02, 4.368096e-02, 6.127433e-02, 1.422105e-02, 6.387895e-02, -2.586271e-02, -1.595065e-02, -5.660734e-02, 1.725460e-03, 3.081184e-02, -1.338521e-03, 1.430062e-02, -1.485936e-02, -5.324258e-02, -1.411079e-02, 5.520750e-02, -4.214222e-02, -1.488787e-02, -7.031860e-02, 6.587415e-02, 6.742005e-02, 2.499628e-02, -1.166594e-02, -3.834366e-02, 2.913763e-02, -1.081768e-02, -7.189224e-02, -4.216952e-02, -4.411364e-02, -3.431103e-02, -7.015769e-02, -5.598166e-03, 8.772317e-02, -1.183570e-02, -5.467359e-02, -4.655066e-02, 6.968771e-03, -2.275010e-02, 3.201050e-02, -3.633831e-02, -6.330109e-02, 5.172081e-02, 2.634526e-03, 4.407412e-02, 1.375041e-05, 5.131726e-02, 5.997219e-02, 2.854543e-03, -4.646964e-02, -2.217573e-02, -2.214094e-02, 5.029340e-02, 5.350230e-02, 7.964684e-02, 9.660522e-03, -1.008521e-02, 8.071468e-02, -4.181999e-02, 4.207920e-03, 6.789658e-02, -8.394989e-02, 6.500563e-02, -9.819225e-03, -6.176266e-02, 7.469907e-02, 3.104319e-02, -3.580160e-02, 9.597586e-03, -7.507429e-02, 6.569400e-02, 4.662516e-03, 2.190782e-02, 6.874112e-02, -6.486875e-02, -8.057274e-02, 5.609360e-02, -2.075097e-02, 4.362790e-02, 4.343287e-02, -6.338642e-02, -6.327926e-02, -8.492816e-02, -8.639514e-02, 3.306842e-02, 8.623297e-02, -7.162794e-02, -4.387891e-02, -6.457786e-02, -8.637961e-02, -7.160724e-02, 1.221225e-02, -3.923152e-02, -3.378689e-02, 9.068453e-03, -6.278258e-02, -7.794541e-02, 6.054845e-02, -7.471224e-02, 3.618263e-02, -3.404611e-02, 3.257759e-02, -1.561688e-03, -6.713627e-02, -4.099960e-02, -5.432740e-02, 3.792756e-02, 1.521035e-02, 2.554826e-03, 2.677958e-03, 4.398884e-02, 7.046871e-02, 6.143703e-02, 6.377661e-03, 7.960551e-02, -2.120973e-02, 1.643016e-02, 5.192966e-02, 2.613053e-02, 3.602112e-02, -6.449186e-02, 4.365806e-02, 2.927943e-02, 7.887628e-02, 8.416271e-02, 1.652715e-03, 3.286469e-02, 8.560372e-02, 1.479620e-02, -5.416906e-02, -5.205690e-02, -1.363031e-02, -6.368955e-02, -8.098491e-02, -7.163901e-02, 2.597472e-02, 5.355816e-02, 6.149557e-02, -7.477514e-03, -1.738355e-02, -4.857475e-02, 2.929251e-02, 1.954558e-02, 1.214748e-02, 4.197026e-02, 1.538265e-02, -1.335532e-02, 3.835837e-03, 6.911898e-02, -6.429873e-02, -9.206031e-03, -5.769533e-02, 8.721069e-02, -4.702049e-02, -7.982361e-02, 7.819338e-02, -7.231985e-02, -1.382800e-02, 2.955073e-03, 7.467697e-02, 3.827445e-02, -1.094889e-02, -5.259738e-02, -5.361386e-02, -7.538085e-02, 6.799045e-02, 7.991738e-03, -5.219160e-03, 4.688071e-02, -4.663862e-02, 1.608986e-02, 5.306333e-02, -4.678419e-02, 5.273634e-02, -8.417945e-02, 4.107694e-02, 7.007060e-02, -5.962493e-02, 5.361005e-02, 7.526301e-02, -8.735718e-02, 6.147552e-02, 7.059311e-02, -8.324676e-02, -1.579632e-02, -2.465403e-02, 1.980616e-02, -6.906706e-02, 2.062282e-02, -7.751152e-02, 7.092126e-02, 8.834251e-02, 4.470674e-02, 6.500974e-02, -6.874970e-02, 2.755087e-02, -6.937129e-03, 8.364884e-02, 1.245432e-02, 6.268310e-02, -3.689217e-02, 4.939289e-02, 2.199239e-02, 8.427689e-02, 4.230670e-02, -2.348931e-02, 3.313268e-02, 8.673244e-02, 8.757167e-04, -3.554459e-02, -4.871760e-02, 3.301487e-02, -1.397814e-02, -2.856896e-02, -7.314187e-02, -8.460647e-02, 6.245060e-02, -5.752156e-02, 1.183294e-03, 5.100434e-02, 8.515521e-02, 5.293955e-02, 4.299381e-02, 2.559347e-02, 8.731692e-02, 3.800853e-02, -7.875062e-02, -5.061358e-02, -5.679844e-02, 3.923232e-02, 2.692274e-02, 3.289066e-03, 8.615882e-02, -6.329516e-02, 8.693918e-02, 6.976101e-02, -1.663048e-02, -2.445091e-02, 5.158003e-02, 7.192543e-02, -7.700846e-02, 6.773631e-03, -4.986231e-02, -6.659453e-02, -3.225058e-02, 9.209160e-03, -5.769848e-02, 5.553869e-02, 6.620339e-02, -1.641687e-02, -1.897629e-02, -3.558938e-02, 4.876142e-02, -7.518871e-03, -4.657555e-02, -2.489060e-02, -8.451868e-02, -8.332759e-02, -7.591102e-02, -7.302820e-02, -4.136370e-02, -5.857500e-02, 1.562021e-02, -4.932158e-02, 5.258192e-02, -1.418959e-02, -4.445738e-02, -4.801725e-02, -1.079802e-04, -4.802888e-02, 8.814096e-02, 1.635158e-02, -1.790386e-02, -3.703677e-02, -1.187916e-02, -4.093698e-02, -4.412418e-02, -6.884583e-02, -1.137280e-02, -7.884493e-02, 5.370835e-02, 8.717673e-02, -2.749832e-02, -8.514438e-02, 6.561590e-02, -6.991325e-02, -1.635345e-02, 5.361121e-03, 7.268633e-02, 4.141514e-02, -3.338524e-02, -8.255747e-02, 3.178896e-02, 7.836469e-02, 7.423916e-02, 6.694735e-02, 5.580714e-02, 4.264151e-02, 3.047046e-02, -3.444369e-02, -4.858303e-02, 3.954944e-03, -5.735357e-02, -3.086335e-02, 2.760495e-02, -3.678979e-02, 6.514208e-02, -8.434267e-02, -7.518770e-02, 6.805174e-02, -6.575184e-02, 7.216830e-02, -1.511224e-02, 2.582770e-02, -5.686115e-02, -6.026347e-02, -3.622512e-02, 3.540102e-02, 2.476970e-04, 5.717811e-02, -6.224053e-02, -7.015727e-02, -3.856181e-02, 6.606036e-02, -2.025359e-02, -4.450503e-02, 6.490379e-02, -5.459547e-02, 6.870885e-02, -8.495509e-03, 6.042590e-02, -5.350079e-03, -6.926866e-03, 3.801731e-02, 8.137448e-02, 1.256851e-03, -3.204554e-02, 1.395036e-02, 3.573048e-02, -7.814853e-02, 3.280173e-02, 2.705619e-02, 2.686374e-02, 1.584007e-02, -6.112944e-02, -6.600581e-02, -4.195360e-03, -5.590581e-02, 1.600548e-03, -8.810944e-02, -1.332881e-02, -4.357070e-02, 1.348717e-02, -2.466140e-02, 1.378179e-02, 8.341568e-02, -3.208164e-02, 7.830414e-02, -6.429575e-02, 3.911925e-02, 1.599350e-02, -4.200186e-02, -5.496321e-02, 8.158913e-02, -6.199541e-02, -4.382303e-02, 2.340997e-02, 3.376280e-02, 3.097194e-02, 3.195705e-02, 5.506360e-02, 2.761772e-02, -7.088219e-02, 5.087437e-02, -7.439134e-02, 2.951143e-03, 7.867475e-02, -1.056548e-02, -6.373871e-02, -7.708851e-02, -8.341251e-02, 1.389456e-02, 2.665333e-02, 6.912388e-03, -1.463175e-02, -6.006453e-03, 3.370062e-03, -1.858023e-02, 3.541621e-02, -8.792754e-02, 3.090911e-02, -5.021502e-03, -3.033773e-02, -7.030179e-02, -5.939302e-02, 4.962362e-02, -5.320310e-02, 7.018978e-03, 2.887383e-02, -5.347330e-02, -4.163871e-02, 3.994932e-02, -5.697595e-02, -7.537577e-02, 5.200832e-02, -1.091911e-02, 5.066917e-02, -8.394045e-02, 2.946083e-02, 2.331049e-02, -7.908216e-02, -4.683411e-02, 5.275925e-02, 5.665316e-03, -6.143258e-02, -1.902672e-02, 3.821705e-02, 1.637500e-02, -7.098933e-02, 2.997174e-02, -4.758349e-02, -3.334244e-02, 1.506195e-02, -1.317605e-03, -5.649862e-02, 7.624494e-02, -7.972705e-02, -5.697743e-02, -9.432907e-03, -4.167301e-02, -6.042056e-02, -2.505472e-03, -2.505316e-02, 4.890332e-02, 5.787271e-02, -7.702256e-02, 4.725037e-02, 6.445466e-02, -3.904958e-03, 4.176289e-02, 2.534486e-02, -6.691273e-02, -8.338923e-03, -6.343322e-02, 9.393131e-03, 3.333515e-02, -3.320257e-02, 4.679301e-02, 1.585899e-02, -6.954068e-02, 1.664882e-02, 3.793050e-02, -1.314550e-02, -5.352876e-02, -4.075368e-03, -8.429954e-02, -6.088331e-02, 2.115281e-02, 5.231664e-02, -2.099064e-02, 2.732042e-02, 3.102661e-02, -3.270317e-02, 2.465564e-02, 8.736193e-02, 2.175783e-02, -8.705457e-02, -3.614395e-02, -5.817020e-02, 2.223758e-02, -7.364720e-02, -8.524995e-02, -3.167817e-02, 5.331156e-02, 4.726726e-02, 2.284032e-02, 6.103085e-02, -8.566125e-03, -8.519743e-03, 2.404883e-02, 4.293942e-03, 5.378443e-02, -5.017179e-02, 6.752691e-02, 7.599746e-02, -2.436762e-02, -2.787342e-02, 5.246343e-02, -6.315195e-02, 2.212373e-02, -7.932552e-02, 1.187457e-02, -1.881405e-02, -5.696283e-02, 8.562966e-02, -5.078540e-02, 1.665903e-02, -3.836206e-03, 7.805438e-02, -5.756501e-03, -5.773696e-04, 2.092403e-02, -3.739809e-02, 8.740792e-02, 2.204016e-02, -1.017177e-02, 7.682624e-02, 5.007879e-02, 8.585066e-02, 8.724605e-02, -7.977060e-03, -5.140682e-02, -5.786115e-02, -5.150411e-02, -6.412721e-02, 7.058480e-02, -7.990653e-03, -1.514840e-02, -6.429101e-03, 3.433589e-02, -2.171083e-02, -3.082329e-02, 5.106349e-02, -2.130765e-02, 1.833175e-02, 4.373603e-02, -2.439341e-02, 2.271788e-02, 6.190861e-02, 3.932009e-02, -6.066235e-02, 5.622403e-02, 8.918062e-03, 7.469352e-02, -8.330777e-02, 7.642477e-03, 5.647783e-02, 1.406961e-02, -7.015210e-02, -6.810462e-02, 1.971984e-02, -4.231458e-02, 7.329698e-02, 2.243577e-02, -1.188826e-02, 3.608266e-02, 7.992602e-03, 1.976626e-02, -8.190894e-02, 6.791160e-02, 1.179641e-02, 4.335363e-02, -2.858919e-02, -1.911408e-02, 8.281589e-02, -4.322329e-02, 6.926484e-02, 1.636613e-02, -6.658786e-02, -6.904803e-02, -8.917156e-03, -7.256486e-02, 1.008650e-02, 2.658507e-03, 5.906154e-02, -5.202881e-02, 7.546028e-02, -7.643677e-02, 6.374485e-02, 8.458946e-02, 6.867117e-02, 3.867869e-02, 4.318341e-02, 6.292303e-03, -3.931672e-02, -7.310708e-03, -8.920486e-04, 8.242133e-02, -8.607647e-02, -1.582440e-02, 7.879765e-02, 4.981008e-02, 4.570546e-02, -7.484184e-02, -8.597743e-02, 5.049256e-03, 1.546698e-02, -8.822413e-02, 1.855441e-03, -9.988572e-03, -1.647670e-02, -7.932639e-02, 2.935327e-02, -7.603816e-02, 5.622736e-02, 1.358203e-03, -8.777934e-02, -7.224525e-02, 8.318814e-02, -5.064761e-02, 3.756774e-02, 3.255633e-04, -4.417078e-02, 4.411824e-02, -2.389213e-02, -7.456830e-02, -7.750549e-02, 7.754508e-02, -7.327667e-02, 4.037653e-02, -1.516484e-02, -4.140108e-02, -3.471657e-03, -2.998139e-02, -8.644182e-02, 6.866314e-02, 5.773211e-02, -2.923585e-02, 7.778114e-02, -5.647135e-02, -4.637863e-02, -4.599512e-02, 5.685414e-02, 2.065463e-02, -5.961392e-02, 1.689437e-02, -7.602027e-03, -3.926390e-02, -8.738907e-02, -8.621985e-02, -4.844111e-02, -4.999102e-02, 2.038061e-02, -3.561775e-02, 2.162975e-02, -6.922200e-02, 2.309041e-02, 6.038529e-02, -7.931267e-02, 1.546334e-02, -4.397186e-02, 6.896976e-02, 2.574949e-02, -2.701358e-02, 7.776391e-02, -2.395390e-02, 6.051990e-02, 2.416635e-02, 8.634382e-02, 8.260306e-02, 6.675363e-02, -8.349315e-02, 3.046355e-02, -4.064621e-02, -5.587177e-02, -8.803827e-02, 4.013990e-02, 2.715738e-02, 3.848552e-02, -3.650051e-02, 6.571549e-02, 1.995373e-02, 3.058765e-02, -2.792861e-02, 1.705335e-02, 5.653581e-02, 8.592622e-02, -9.081487e-03, 7.974079e-02, 1.730211e-02, -2.513118e-02, -5.529277e-02, 5.085275e-02, 1.422300e-02, -3.178767e-02, 7.751079e-02, -8.019463e-02, 8.185099e-02, -4.651615e-02, 2.398303e-03, -5.939818e-03, 8.377564e-02, -5.824002e-02, 1.854531e-02, -3.908250e-02, 2.492397e-02, -4.507861e-02, 1.889423e-02, -7.753945e-03, 8.481934e-02, 7.088679e-02, 3.460077e-03, 5.888550e-02, 1.769061e-02, -2.636565e-02, 2.738069e-02, -5.224900e-02, -5.199075e-02, -8.732878e-02, 7.468761e-02, 3.051801e-03, 7.526468e-02, -3.140335e-02, -3.296389e-02, -5.084023e-02, -1.017970e-02, -5.678418e-02, -8.716872e-02, -1.152572e-02, 7.415549e-02, 7.324317e-02, -3.295431e-02, -6.925326e-02, -4.654484e-02, -1.086296e-02, 5.057287e-02, -3.121440e-02, -6.666050e-02, 2.938566e-02, -8.416327e-02, -5.467113e-02, 7.997356e-02, -8.159107e-02, -7.654803e-02, -5.404996e-03, 8.466697e-02, -4.894447e-02, 5.583401e-02, -4.776895e-02, -1.383255e-02, 5.000271e-02, 7.801674e-02, 5.458379e-02, 8.171553e-02, 8.702370e-02, -4.679904e-02, 7.696361e-02, 7.016926e-02, -8.661339e-02, -3.423863e-02, 8.389688e-02, 4.050534e-02, 4.550588e-02, -8.805160e-02, -6.345966e-02, -4.275167e-02, 5.585615e-02, 6.273729e-02, 4.953308e-04, -4.395548e-02, 1.766626e-02, 5.971560e-02, 4.088797e-02, -6.321478e-02, -7.212225e-02, -6.700367e-02, 5.938496e-02, 5.298499e-02, -5.723499e-02, -6.161355e-02, 1.761123e-02, 4.058694e-02, 1.119982e-02, 3.986906e-02, -1.881575e-02, 5.670036e-02, 6.307632e-02, -5.631487e-02, -2.322614e-02, 1.530720e-02, 5.222975e-02, 1.735491e-02, -5.837933e-02, 5.251172e-02, -4.376103e-02, -7.813963e-02, 1.233610e-02, -7.461140e-02, -4.465134e-02, 8.159323e-02, 3.613038e-03, 4.645682e-02, 7.915379e-02, -6.768791e-02, 7.500800e-02, -2.242834e-03, 1.581112e-02, 7.978296e-02, 6.238284e-02, 5.289043e-02, 5.370662e-02, -8.703082e-02, 1.457936e-02, 1.454109e-02, 7.262284e-02, -2.228739e-02, -1.552022e-02, 3.994576e-02, 4.765002e-02, 3.433977e-02, -8.808407e-03, -4.540187e-02, 3.096566e-02, -3.007627e-02, -4.082575e-03, -9.382605e-03, 6.442973e-02, 5.377088e-02, 4.458546e-02, -3.386813e-02, -4.670395e-02, -1.307544e-02, 2.765387e-02, -1.713837e-02, 5.713775e-02, -7.878555e-02, 4.368913e-02, -3.157064e-02, -8.586127e-02, -2.734867e-02, -1.324271e-02, -5.751906e-02, 6.103722e-02, 3.138838e-02, 2.897041e-02, -2.028029e-02, -6.641839e-02, -9.680278e-03, -1.737042e-02, 2.468010e-02, -5.454738e-02, -2.310520e-02, 7.226014e-02, -8.699091e-02, 4.348272e-02, 1.216494e-02, -4.039849e-03, -6.775990e-02, -1.498238e-02, -1.607079e-02, 8.797127e-02, 1.757861e-02, 1.441234e-02, -5.844197e-02, 3.541967e-02, 4.171707e-02, 4.661734e-02, -8.785332e-03, 7.491943e-02, 1.843479e-02, -3.938508e-02, -6.040708e-03, 1.471669e-02, 3.893010e-02, 7.803963e-03, -8.633637e-02, -4.853546e-02, 2.176215e-02, 4.854534e-02, 7.129920e-02, 7.152154e-02, -8.240426e-02, 5.990297e-02, -4.371715e-02, -1.484591e-02, 6.643856e-02, -8.755900e-02, 1.383416e-02, 1.704714e-03, 7.983219e-02, 7.450914e-02, 6.301726e-02, -5.056822e-02, 1.001754e-02, -1.600032e-02, -8.800163e-02, 8.764958e-02, 3.873801e-03, -7.678473e-02, -6.453490e-02, -1.878831e-02, 7.745495e-03, 6.201127e-02, -2.992788e-02, -1.818173e-03, -1.379445e-02, 8.203957e-03, 4.183780e-02, -5.799941e-02, 5.092679e-02, 8.648814e-02, 4.836404e-02, 8.244205e-02, -1.331800e-02, -1.226315e-02, 1.357672e-02, 1.926455e-02, -6.717641e-02, -4.838733e-02, 7.994793e-03, 1.085265e-02, -3.319544e-02, -4.334448e-02, 7.277773e-02, -7.925549e-02, 4.467149e-02, 1.868564e-02, -1.503944e-02, -2.112930e-02, 7.045140e-03, -4.386874e-02, -7.540999e-03, 1.132852e-02, -3.597768e-02, -8.790646e-02, -1.836330e-02, 2.906294e-02, -2.388274e-02, 2.031267e-02, 7.676037e-02, 7.470812e-02, 3.494343e-03, 3.468956e-02, -4.792493e-02, -3.396592e-02, -6.359257e-02, -6.399815e-02, -8.285320e-02, 7.900937e-02, 7.269026e-02, -2.121326e-02, -7.382696e-02, -8.410776e-02, -8.063746e-03, -7.849373e-02, -3.354468e-04, 6.753255e-02, -6.942846e-02, 5.633335e-02, -1.536413e-02, -4.722533e-02, 2.152772e-02, 3.581924e-03, 4.534195e-02, -8.521098e-02, 2.123086e-02, -4.405953e-02, 5.447365e-02, -1.287627e-02, 1.613645e-03, 1.864407e-02, -4.657000e-02, -5.538959e-02, 8.063130e-02, -7.643607e-02, -7.997320e-02, -8.326867e-02, 7.781730e-03, 8.396047e-02, -1.087323e-02, -6.014258e-02, 4.998253e-02, -7.191033e-02, 2.157860e-02, -3.168994e-02, 8.042047e-02, 4.818429e-02, -2.968768e-02, -1.328120e-02, -2.225357e-02, -4.093381e-02, 3.168149e-02, 2.835284e-02, -5.238208e-02, 3.416617e-02, 7.457408e-02, 5.414248e-02, 3.628315e-02, -6.242542e-02, -6.117657e-03, -5.794756e-02, 8.364153e-02, -4.342400e-02, 8.598202e-02, 6.163367e-02, -2.436066e-02, 3.888185e-02, -3.326969e-02, 2.154032e-02, 4.494843e-02, 5.956616e-02, 3.061823e-02, -2.214137e-02, 5.196734e-02, 3.795280e-02, 7.572882e-03, 1.892286e-02, -3.176216e-02, -4.795627e-02, -7.176525e-02, -6.334616e-02, -5.883700e-05, 5.137486e-02, -2.417383e-02, 6.394573e-02, 7.861257e-02, 6.524105e-02, 4.137777e-03, 3.381991e-02, 1.841789e-02, 1.876799e-04, -6.669788e-02, -1.000014e-02, 2.759482e-02, -8.423581e-02, 3.306554e-02, 6.760976e-02, 7.855105e-02, 5.537833e-02, -4.670942e-02, 3.879705e-02, -6.926335e-02, -1.369456e-02, 7.302206e-02, -6.647435e-02, -7.747196e-02, 7.805772e-02, 8.561801e-02, 1.221740e-02, 6.303057e-02, -1.101291e-02, -4.100230e-02, -7.256409e-02, -2.275308e-02, 4.176868e-02, -7.301973e-02, -5.713592e-02, 6.137707e-02, -3.858911e-02, 7.178153e-02, 7.020234e-02, -4.848678e-02, 5.263177e-02, 4.872044e-02, -8.323497e-03, 8.299726e-02, 6.284790e-02, -9.223742e-03, 7.051760e-02, 1.866600e-02, -2.013357e-02, -1.861460e-02, -4.903926e-02, -4.457775e-02, -6.754401e-03, 5.691684e-02, -1.928745e-03, 1.820963e-02, 6.040658e-02, -8.303986e-02, -6.350066e-03, -8.109943e-02, 2.445873e-02, -6.990539e-03, 7.336365e-03, 6.555884e-02, 9.852057e-03, 1.208786e-02, 1.627674e-02, -2.333448e-02, 8.093460e-03, 8.009155e-03, -7.275650e-02, 4.423255e-02, -1.322636e-02, 5.904085e-02, -8.784115e-02, -3.883140e-02, -1.725581e-02, -5.740004e-02, -3.512233e-02, 3.652225e-02, -7.200029e-02, -5.441849e-02, 3.491360e-03, 4.500497e-02, 6.796443e-02, -8.180035e-02, 6.623641e-02, 6.089124e-02, 2.821878e-02, 3.325318e-02, 5.726207e-02, 6.550457e-02, -4.737979e-02, 4.776355e-02, 7.542373e-02, 7.519911e-02, 6.923828e-02, -8.586956e-03, -8.077884e-02, 3.648857e-02, 6.085901e-02, 4.998542e-02, -3.291430e-02, 8.051103e-02, 8.442646e-04, -4.216250e-02, 8.809070e-02, -6.507456e-02, -3.050241e-02, -1.503969e-02, -5.653696e-02, 3.300980e-02, 8.794267e-03, -5.714027e-02, 5.222554e-02, 3.515816e-03, -8.268624e-02, -6.436566e-02, 1.913741e-03, -1.397020e-02, 3.489623e-02, 8.030804e-02, 4.579331e-02, 9.694450e-03, -1.619113e-02, 2.593213e-02, 5.412709e-05, 6.799689e-02, -6.503261e-02, 7.650016e-02, -2.495347e-02, 5.586019e-02, -4.823213e-02, 6.930946e-02, -8.734766e-02, 1.148675e-02, -7.235465e-02, 4.173241e-02, 8.621353e-02, -3.344542e-02, 6.713731e-02, 6.603245e-02, -3.397687e-02, -5.292952e-02, 2.506509e-02, -5.874633e-02, 7.537108e-02, 6.128827e-02, -8.491452e-03, -4.638423e-02, -1.206081e-02, 3.351739e-02, 5.186167e-02, -3.676600e-02, 4.050430e-02, 1.838772e-02, 5.238695e-02, 5.347724e-02, 7.595416e-02, -5.979247e-02, 1.171896e-02, 5.320625e-02, 3.157321e-02, 2.218955e-02, -4.366547e-02, 2.351025e-03, -7.954969e-02, -5.519564e-02, 1.801959e-02, -3.024342e-03, -3.073211e-02, -5.246933e-02, 4.225559e-02, -7.227944e-02, -2.501572e-02, -8.036328e-02, 6.850885e-02, 3.447451e-02, -5.107572e-02, -7.148570e-02, -3.972639e-02, 8.390769e-02, -4.703932e-02, -1.155829e-02, -5.751979e-02, -8.813965e-02, -3.607511e-02, 7.215407e-02, 1.344185e-02, -5.166709e-02, -7.224877e-02, 3.080385e-02, 2.755382e-02, 7.129210e-02, -7.117683e-02, 6.513342e-02, -6.343298e-02, -4.884415e-02, -3.838699e-02, 7.129445e-03, 3.619988e-02, -9.062605e-03, -8.781445e-02, 2.478561e-02, -2.505439e-02, -3.836703e-02, 7.466961e-02, -5.981774e-02, 5.835909e-02, 2.704896e-02, -5.240242e-02, 7.181180e-03, 3.714712e-02, -7.472063e-02, -8.588932e-02, -5.257814e-02, 1.513201e-02, 3.226874e-02, 7.181362e-02, -7.412954e-02, -4.482810e-02, -5.677523e-02, -2.647770e-03, 9.090021e-05, -3.121181e-02, -5.301348e-02, -1.303481e-02, -4.168561e-02, -3.459667e-02, -3.530502e-02, -5.772085e-02, 7.273186e-02, -2.182575e-04, 3.836286e-02, 8.531970e-02, -5.864837e-02, 4.181334e-02, -5.039962e-03, -2.385775e-02, -8.180723e-02, -5.488620e-02, -6.004706e-02, 5.064341e-02, 4.465511e-02, -2.434517e-02, -1.605409e-02, 8.413449e-02, -1.459573e-02, -4.861728e-02, 2.369484e-02, 1.852770e-02, -2.533053e-02, -7.937579e-02, 1.531265e-02, 3.884118e-02, -7.981555e-02, -3.357368e-02, -1.098315e-03, -1.586290e-02, -8.625770e-02, -1.637887e-02, 5.866345e-02, -3.896257e-02, 2.455977e-02, 7.535498e-02, -3.529146e-02, 5.906615e-02, 4.862380e-02, 5.002742e-02, -4.986644e-02, 2.624297e-02, -3.498770e-02, 5.200595e-02, -7.106684e-02, -6.978606e-02, -3.128970e-02, 4.611617e-02, 4.237655e-02, 2.862277e-03, -4.972316e-02, -8.538058e-02, -2.147013e-03, -2.626515e-02, -1.790019e-03, 4.059134e-02, -6.018287e-02, 3.675761e-02, 4.163100e-02, 4.321781e-02, 5.743685e-02, -5.804817e-02, -5.000812e-02, -6.603267e-02, 4.467250e-03, -5.921425e-02, 8.108137e-02, -3.325275e-02, -5.437600e-02, -7.798548e-02, -9.216431e-03, 5.061646e-02, -2.903018e-02, 4.420234e-02, 2.985812e-02, -1.482630e-02, 9.214934e-03, -2.996402e-02, 3.341202e-03, 4.045742e-02, 8.629468e-02, 3.181679e-02, 2.689127e-02, -7.468765e-02, 5.090025e-02, -5.202427e-02, -4.558907e-02, -5.726064e-02, 2.735119e-02, -8.431108e-03, 7.685117e-02, -6.831922e-02, 5.575841e-02, 4.046622e-02, 4.564973e-02, -1.971795e-02, -6.543768e-02, 8.220120e-02, -1.007817e-02, 2.489660e-02, 1.093851e-02, 4.993125e-02, -7.415404e-02, -3.003811e-02, -5.975305e-02, -6.714063e-02, -1.683903e-02, -8.247971e-02, 7.225817e-02, -1.521417e-02, -3.860176e-02, -5.436290e-03, 8.163908e-03, -2.891040e-02, 8.353449e-02, 1.755626e-02, 4.937984e-02, 3.068807e-02, 2.332341e-02, 5.815423e-02, 8.299401e-02, -1.969863e-02, -6.981014e-02, -2.207249e-02, -7.701113e-02, -5.071434e-02, 5.430656e-02, 6.809543e-02, 5.910434e-02, 7.534894e-02, 4.448878e-02, 8.464044e-02, -4.257593e-02, -1.708921e-02, 7.307725e-02, 7.108334e-02, 4.898768e-02, -5.256479e-02, -1.922966e-02, -6.210158e-02, -2.982563e-02, 7.709122e-02, 4.657629e-02, -3.357238e-02, -1.469758e-02, -2.151294e-02, 7.788453e-03, -6.564161e-03, 2.064191e-02, 2.416547e-02, -8.282693e-02, 5.077688e-02, -5.185119e-02, -2.558035e-02, 3.304189e-02, -1.559161e-02, -7.206874e-02, 5.797981e-02, -2.754125e-02, 4.754647e-02, -7.523742e-02, 6.848293e-02, 2.976481e-02, 7.784996e-02, 8.458722e-02, 8.830491e-02, -7.654445e-02, 8.487523e-02, -7.015662e-02, -1.779596e-02, 5.457713e-02, -2.476880e-02, 2.894549e-02, -1.888519e-02, -4.197826e-05, -5.447628e-03, -4.724728e-02, -1.488806e-02, -1.426078e-02, 8.301989e-02, -2.800363e-03, 5.608877e-02, 8.088990e-02, 8.418865e-02, 1.789088e-02, -4.554481e-02, 8.015197e-02, 3.071974e-02, 3.210397e-02, -2.335372e-02, -8.455374e-02, -1.171591e-02, 5.118665e-02, 6.544002e-02, 8.581787e-02, 3.810508e-02, -3.182830e-02, 4.712007e-03, -5.934194e-02, 9.762106e-03, -1.843434e-02, 1.932890e-02, -2.358837e-02, -2.080358e-03, -7.267614e-02, -5.096125e-02, 5.893011e-02, -3.521790e-04, -7.870123e-02, -7.540387e-02, -5.047623e-02, 7.811722e-02, 6.479259e-02, -3.729825e-02, -2.184788e-02, -1.660180e-02, -6.309520e-03, 3.755431e-02, -8.526006e-02, -7.204597e-02, 1.113408e-02, -3.882608e-02, -4.178125e-02, -3.176152e-02, -3.850640e-02, 1.035603e-02, 2.685257e-02, -5.007981e-02, 8.453537e-02, -5.742589e-02, 5.258866e-02, -1.142129e-02, 4.894622e-02, -4.519213e-02, 7.270487e-02, -2.687730e-02, 4.575799e-03, 1.499023e-02, -5.539157e-02, -8.263702e-02, -6.765401e-03, -1.425822e-02, -4.105150e-02, -7.618513e-02, 4.579532e-02, -6.454866e-02, 1.162843e-02, -8.472697e-02, 6.541810e-02, 8.241088e-02, 6.343669e-02, 8.737411e-02, -6.654807e-02, -2.342281e-02, -4.258550e-02, 7.049567e-02, -4.049113e-02, 3.783187e-02, -4.964324e-02, 2.700319e-02, 1.353043e-02, 2.360895e-02, -3.664866e-02, 6.701910e-02, -5.333919e-02, 4.260551e-02, 5.877378e-04, -7.426738e-03, 7.390025e-02, -6.049885e-02, -2.914064e-02, 2.741599e-02, 8.659313e-03, 6.713700e-02, 3.433914e-03, 3.161683e-02, 6.446894e-02, 8.502457e-02, 5.561903e-02, 6.020535e-02, 6.537008e-03, -1.233609e-02, -3.634859e-02, 2.618506e-02, -7.601030e-02, 3.820425e-02, 2.392044e-02, -6.127603e-02, -1.920984e-02, 2.796591e-02, -5.227010e-02, -8.468069e-02, -8.116129e-02, 1.581602e-02, 5.865742e-02, 7.416336e-02, -3.774724e-03, 2.506061e-02, 4.802379e-02, -9.739873e-03, -2.401696e-03, 2.984637e-02, -7.324246e-02, 3.549303e-02, 3.767978e-02, 8.453529e-02, 6.326853e-02, -2.091381e-02, -2.206796e-02, -5.895511e-02, 2.233000e-02, 8.534401e-02, 2.626580e-02, -6.171216e-02, -3.480698e-03, -7.960096e-03, 8.583016e-03, 4.350429e-02, 5.954032e-02, 3.213330e-02, 4.713973e-02, -3.587771e-03, -1.272810e-02, -3.187234e-02, -8.796247e-02, -2.169759e-02, -3.575003e-02, 6.893195e-02, 8.136264e-02, -6.189054e-04, -8.585069e-02, 4.444055e-02, 8.209509e-02, -3.848580e-02, 3.886097e-02, -3.979662e-02, 4.429983e-02, 1.555152e-02, 2.095737e-02, 8.656265e-02, -7.106332e-02, 4.402818e-02, 7.730675e-02, 6.642819e-02, 6.008048e-02, 7.399881e-02, 4.398508e-02, -7.091860e-03, -4.236393e-02, 5.831544e-02, 3.091666e-02, -1.136450e-02, 6.626001e-02, 3.476926e-02, -5.263997e-02, -3.784639e-02, -8.628697e-02, 4.937997e-02, 7.404711e-02, 4.798391e-02, -1.705659e-02, 1.915862e-02, 8.429356e-02, 8.770075e-02, 5.818578e-02, 7.478485e-02, 8.169134e-02, -7.673760e-02, 8.593441e-02, 4.812754e-02, 6.388481e-02, -6.126814e-03, 4.114411e-02, 8.801632e-04, -8.007024e-02, -8.513147e-02, 3.885792e-02, -3.192612e-02, 2.805869e-02, -7.916406e-02, 1.728493e-02, 7.638486e-02, 7.524250e-02, -4.983654e-03, -4.674442e-02, -5.535253e-02, 7.710080e-02, -2.734635e-02, 2.642731e-02, 8.289631e-03, 8.756261e-02, -8.009555e-02, 6.819827e-02, -7.101048e-03, -6.431535e-03, -1.169698e-02, 4.318283e-02, -2.000777e-02, 5.251545e-02, -4.147594e-02, 2.875431e-02, -9.059191e-03, -8.100349e-02, 5.172825e-02, 6.288018e-02, -6.830766e-02, 2.618921e-03, 3.503378e-02, 4.653347e-02, 6.687728e-02, 5.130403e-02, 1.557221e-03, 5.181924e-02, -5.716693e-04, -2.580307e-02, 5.063923e-02, -4.478794e-02, -1.670288e-02, -2.892221e-02, -6.482260e-02, -5.372460e-02, 7.198630e-02, 6.125990e-02, 4.728896e-02, 3.987509e-02, -6.367344e-02, -2.175319e-02, -6.965198e-02, 5.942316e-03, -3.929340e-03, -8.390454e-02, -3.164541e-02, -7.820524e-02, 1.494658e-02, -2.894944e-02, -4.892208e-02, -6.900425e-02, -7.713179e-02, 8.379497e-02, 7.455815e-02, -2.694478e-02, -3.640895e-02, -7.458299e-02, 8.957712e-03, 3.214327e-02, -3.534532e-02, 6.391232e-03, 6.671790e-02, 5.743413e-02, -2.554345e-02, 6.404544e-02, 4.515036e-02, -2.117604e-02, 8.076973e-02, 1.645673e-02, -6.630751e-02, 8.031579e-02, 7.338035e-02, 1.757771e-02, -8.475499e-03, -1.985569e-02, -8.302981e-02, -1.283775e-02, -2.428122e-03, 1.475656e-03, 4.002581e-03, 7.201893e-02, 6.109624e-02, -6.877027e-03, -3.227388e-02, -7.914539e-02, 4.016645e-02, 2.110428e-02, 5.953284e-03, -8.280835e-02, -1.344747e-02, 1.240963e-02, 6.059913e-02, 7.449238e-02, -4.485454e-02, -8.198179e-02, 4.620200e-02, 6.613125e-03, 8.359478e-02, 6.434652e-02, 6.877025e-02, 4.687651e-02, -9.908724e-03, -6.572493e-02, -8.086893e-02, 6.007916e-02, 1.895089e-02, -8.053587e-02, 5.217042e-03, 7.947041e-02, -6.834765e-02, 5.560943e-02, 4.912215e-04, 2.918030e-02, 7.768296e-02, 2.581442e-02, -7.039258e-02, -8.811188e-03, 4.652590e-02, -6.794956e-02, -1.959187e-02, -5.523966e-02, -8.215032e-02, -6.207161e-02, 1.950500e-02, 1.840901e-03, -4.396131e-02, 7.107950e-03, -4.174213e-02, 5.528434e-03, 1.005045e-02, -7.610478e-03, -7.818647e-02, -3.691391e-02, 1.714723e-02, -9.004779e-03, 7.036825e-02, 4.195658e-02, 5.123876e-02, -6.244741e-02, -2.151149e-02, -7.633977e-02, -4.173613e-02, -8.286944e-02, 6.888828e-02, -6.592568e-03, 6.241484e-02, -2.347654e-02, -8.482116e-02, -1.964639e-02, 1.936941e-02, -6.703514e-02, 3.788076e-02, 6.475127e-02, -3.762217e-02, -4.478339e-02, 7.065777e-02, 7.884024e-02, 1.379066e-02, -6.657939e-02, -6.249534e-03, -8.021411e-02, 3.694886e-02, 4.613254e-02, -4.502813e-02, -8.694251e-02, -5.164565e-02, -8.214123e-02, 3.253781e-02, -3.804302e-02, 2.632980e-02, 6.607980e-02, -6.141217e-02, -2.654594e-02, 4.559510e-02, 2.285510e-02, -5.390345e-02, -7.545023e-03, -4.380000e-02, 6.237254e-02, -6.340804e-02, 7.265637e-02, 4.382156e-02, 3.547655e-02, 5.892129e-03, -1.160727e-02, 4.569687e-02, 2.696112e-02, 1.550801e-02, -4.019035e-02, 7.583880e-02, 8.608364e-02, -8.018043e-02, 6.464110e-02, -8.545277e-02, 3.384246e-02, 6.897215e-02, 3.792268e-03, -8.812013e-02, 4.069329e-02, 1.651355e-02, -4.155890e-02, 4.634132e-02, -2.111202e-02, 8.287057e-02, -2.642067e-02, 4.310096e-02, -2.328939e-02, 5.419420e-02, 2.330685e-02, 1.147407e-02, -7.767826e-02, 5.122552e-02, 4.096164e-02, 7.075159e-02, -3.017362e-02, -5.585687e-02, -7.152566e-02, 4.626165e-02, -7.410915e-02, 5.930480e-02, -7.289195e-02, -4.691043e-02, -5.538949e-03, -1.583992e-02, 8.088908e-02, 4.753956e-02, -5.928525e-02, -6.712162e-02, 8.400552e-03, -7.659169e-02, -8.728203e-02, 8.099480e-02, 2.856759e-02, 7.454275e-02, 7.375091e-02, -7.483797e-02, -1.973552e-02, -2.887210e-02, 8.799172e-02, 5.222411e-02, 5.260161e-02, -4.104934e-03, 2.152938e-02, 3.995439e-02, -3.254639e-02, -6.862895e-02, 2.350775e-02, -8.125048e-03, -6.675842e-02, 5.212759e-02, -2.930984e-02, -3.571901e-02, -7.550523e-02, -2.913705e-02, -6.271034e-02, -1.738998e-02, -3.266279e-02, 4.883312e-02, -5.006319e-02, 6.628914e-02, 7.611274e-02, 4.139426e-02, -7.886764e-02, -7.326210e-02, 8.631425e-02, 2.054814e-02, 3.165178e-02, 5.720878e-02, -7.179353e-02, 4.999775e-02, 6.627347e-02, -3.510495e-03, -2.873725e-02, -8.323237e-02, 4.911060e-02, -5.540677e-03, 3.881054e-02, -2.835678e-02, -7.428884e-02, -7.185800e-02, -8.146446e-02, 6.745165e-02, 6.821318e-02, 8.674954e-02, -5.962891e-02, -8.745793e-02, 3.525417e-02, -7.626852e-02, 7.803925e-02, -1.625151e-03, 4.844591e-03, 2.626063e-02, 7.722115e-02, 2.801743e-03, -8.605020e-02, -3.495898e-02, -5.230616e-02, 2.657672e-02, 8.464962e-03, -8.373293e-02, -5.848851e-02, -9.242804e-05, 7.613216e-02, -4.658934e-03, 5.353075e-02, -5.360512e-02, -1.090236e-02, -8.365797e-02, -8.656176e-02, -8.369368e-02, 6.918548e-02, 6.317049e-02, 2.943179e-02, 6.872442e-02, 4.826139e-02, 6.402428e-02, -8.010634e-02, -2.136455e-03, 6.088892e-02, -1.795458e-02, 7.866830e-02, 3.731909e-02, 3.980439e-02, 3.773294e-02, 6.710921e-02, -3.197475e-02, -8.756948e-02, -6.495459e-02, 6.976417e-02, 1.442084e-02, 7.667647e-02, -6.136199e-02, 4.498127e-02, 7.574435e-02, 6.421758e-02, 8.480020e-03, 1.576551e-02, -2.728860e-02, -5.947699e-02, -8.262809e-02, -6.567278e-02, -2.962186e-02, -1.586418e-02, 2.348106e-04, 6.617526e-02, -7.059115e-02, 3.932313e-02, 1.512003e-02, -6.447929e-02, 7.835893e-02, 7.924918e-02, -1.524509e-02, -5.475499e-02, -2.639997e-02, -5.667384e-02, 3.676056e-02, 5.276153e-02, 8.057161e-02, -6.785835e-02, -6.873618e-02, 5.630251e-02, 8.695067e-02, -7.215428e-02, 3.049031e-02, -2.862580e-02, -3.503571e-02, -7.258084e-02, -6.439943e-03, -2.717094e-02, -3.624074e-02, 2.808356e-02, -1.206530e-02, -1.920325e-02, -1.234627e-02, -5.662450e-02, -1.823371e-02, -1.881899e-02, 2.213684e-02, -8.607147e-02, 5.896344e-02, -3.699718e-02, -2.138042e-02, 3.539078e-02, -3.954370e-02, -4.625459e-02, -7.740058e-03, 7.418820e-02, 5.838146e-02, 2.830424e-03, -1.315593e-02, -3.637207e-02, -1.091900e-02, 3.170693e-02, 2.481879e-02, 4.077968e-02, -3.323410e-02, -7.016374e-02, -6.281008e-02, -5.713151e-02, 1.519722e-02, 4.882986e-03, 8.110274e-02, 8.470046e-02, 8.404407e-02, -8.818220e-02, 2.654313e-02, 1.642221e-02, 5.473156e-02, 9.213227e-03, 3.107204e-02, -6.380839e-02, -7.295926e-02, -4.529237e-03, -1.784678e-02, -6.658880e-02, -8.145089e-03, -1.247084e-02, -6.153323e-02, 5.213616e-02, -3.673651e-02, 6.290781e-02, 2.601457e-02, 2.063372e-02, -1.428638e-02, -5.636579e-02, 3.705140e-03, 2.196895e-02, -2.017227e-02, -3.296953e-02, -6.714202e-02, -1.744396e-02, 1.762860e-02, 3.666480e-02, -5.425905e-02, 7.040130e-02, 4.274966e-02, 3.665724e-02, 4.649480e-02, 2.446900e-02, 6.495998e-02, 6.535922e-04, -7.901714e-02, -2.392851e-02, -1.317289e-02, -7.486677e-02, -4.284243e-02, -2.151554e-02, 1.587693e-03, 2.302610e-02, -5.578842e-02, -3.022205e-02, 2.000625e-02, 5.051676e-02, -3.732866e-02, 4.103292e-02, 4.657021e-02, 6.605694e-02, 4.395581e-02, 2.432745e-02, -1.005496e-02, 6.066309e-02, -5.694589e-02, 3.848071e-03, 3.816717e-02, 5.450958e-02, -1.422203e-02, 5.127845e-02, 5.522828e-02, 2.900723e-02, 1.287266e-02, 4.421683e-02, -4.453657e-04, 8.526918e-02, 6.723510e-02, -1.244003e-02, 8.069832e-02, 2.962829e-03, -2.093692e-02, 7.363178e-02, 8.642146e-02, -8.693368e-02, -6.425920e-02, -4.276171e-02, 8.805020e-02, -3.040620e-02, -6.711088e-02, 3.012120e-02, -4.319968e-03, 8.050701e-02, -7.637121e-02, -2.541039e-02, 5.636821e-02, 7.526006e-02, -1.612057e-02, -4.627011e-02, 6.035171e-02, 3.291511e-03, -3.079936e-02, 4.205256e-02, -6.791856e-02, 8.507651e-02, 6.172677e-02, -5.127956e-02, -2.445612e-02, 4.858027e-02, 1.595762e-02, 5.400811e-02, 6.046113e-02, 3.132616e-02, -8.164731e-02, 5.974275e-02, -1.166889e-02, 4.722299e-02, -3.507181e-02, 4.126967e-02, 8.404417e-02, -4.503606e-02, 5.355882e-02, 5.655843e-02, 4.566872e-02, 1.246084e-02, 6.433931e-02, 7.526826e-02, -4.335934e-02, 2.622403e-02, 8.258346e-02, 1.094921e-02, -6.090226e-02, 6.129458e-02, -7.023194e-02, 7.022311e-02, -7.053986e-02, -7.605758e-02, -2.636507e-03, -3.551600e-02, -5.452688e-02, 2.833182e-02, 3.270044e-02, -2.150427e-03, 6.370796e-02, 8.043952e-02, -6.257026e-03, 5.482470e-02, 5.767280e-03, 6.165483e-02, -1.718899e-02, -4.034149e-03, 3.487064e-02, -7.641772e-02, -9.567303e-03, 3.560106e-02, -5.639435e-02, -3.670586e-02, -3.851840e-02, -2.177219e-02, 5.957988e-02, -4.632292e-02, 1.444787e-02, 2.563996e-02, -8.319589e-02, 1.104849e-02, 1.324743e-02, -3.180443e-02, -7.549745e-02, 6.343029e-02, -1.932618e-02, -8.008309e-02, -3.887970e-02, 6.736089e-02, -2.274531e-02, -2.600509e-02, -5.504394e-02, 5.203780e-02, -6.403007e-02, 8.834032e-02, -5.889632e-03, 2.577675e-02, 4.271949e-02, 4.400612e-02, 4.846937e-02, 3.227620e-02, -6.323252e-02, 8.433108e-02, -1.795545e-02, -6.424326e-02, 1.414389e-02, 5.515622e-02, 5.548292e-02, -3.779177e-02, 7.145400e-02, 7.366563e-02, 7.869611e-02, -5.607491e-02, 7.006220e-02, 2.062970e-02, 3.871771e-02, 6.659714e-02, -4.115018e-02, 4.832203e-02, -7.341340e-02, 1.912606e-02, 1.976286e-02, -7.975361e-02, -5.496737e-02, -5.744256e-02, 7.575409e-02, -4.738772e-02, -1.542924e-02, -7.667543e-02, -2.603746e-02, -5.879103e-02, -2.539906e-02, -4.514388e-02, -6.547281e-03, 6.116751e-03, 6.056308e-02, -4.117193e-02, 6.289356e-02, -5.016395e-02, -7.866184e-02, -2.489121e-02, -1.903784e-03, 7.708579e-02, -8.092981e-02, -2.158298e-03, 5.614507e-02, 4.854873e-02, 6.132272e-03, -4.171041e-02, 7.428037e-02, 3.306536e-02, -2.960323e-02, 1.914118e-02, -6.235955e-02, 6.414312e-02, 2.652512e-03, 1.934930e-03, -8.029602e-02, 8.833811e-02, 2.256474e-02, 4.404708e-02, 7.114289e-02, 4.744808e-02, 1.390152e-02, -2.982142e-03, -2.287635e-02, -6.728549e-02, 3.439597e-02, -5.143803e-02, 5.691710e-02, -7.210317e-02, 3.548227e-02, -8.218723e-02, -2.522007e-02, -1.803611e-03, -4.184684e-02, -8.530204e-02, 3.348270e-02, 8.325666e-02, 3.233857e-02, -5.302717e-02, 5.614307e-02, -6.183355e-02, -2.318765e-02, -4.860564e-03, -3.220047e-02, 2.657376e-02, 4.218303e-02, 3.715635e-03, -7.347506e-02, -6.466004e-02, 3.309529e-03, -8.514473e-02, -5.804374e-02, 8.410791e-02, 5.427681e-03, -8.673876e-02, -3.221780e-02, -5.452212e-02, -5.026768e-02, -8.799301e-02, -2.263364e-02, 5.686158e-03, -1.019736e-02, -4.701453e-02, -5.493326e-02, 8.746139e-02, -1.345637e-02, 5.231604e-02, -6.521230e-02, -8.039510e-02, -2.285690e-02, -9.799395e-03, 1.836002e-02, 2.634927e-02, -3.724518e-02, -3.504449e-02, 4.373273e-03, 3.981665e-03, -7.199177e-02, -4.929711e-02, -7.357175e-02, -6.461470e-03, 3.576390e-02, 4.649211e-02, -8.417781e-02, 3.430716e-02, 8.553924e-03, -5.580140e-02, 4.423131e-02, 8.086690e-02, 2.596748e-02, -8.318172e-02, 4.661625e-02, -5.774130e-02, -4.477224e-02, 1.029429e-02, 4.778187e-02, -4.048937e-02, -7.022034e-02, 8.676493e-02, 2.262666e-02, 1.479739e-02, 1.892708e-02, 6.442121e-02, -7.071841e-02, -2.564329e-02, -5.679143e-02, 2.005201e-02, 7.894846e-02, 4.881518e-02, -5.463210e-02, -1.908534e-02, 3.745255e-02, 4.060083e-02, -7.625661e-02, 6.812362e-02, -1.335089e-02, 5.113100e-02, -5.452794e-02, 7.294148e-02, 5.376156e-02, 4.859765e-02, -9.560834e-03, -7.997344e-02, -7.022018e-02, -7.697967e-02, -5.044356e-03, -1.237109e-02, 4.465166e-02, 4.209574e-02, 5.809007e-02, -5.314064e-02, -1.130092e-02, 5.363734e-03, 7.400897e-02, -7.156404e-02, -7.135627e-02, -1.077525e-02, -1.546173e-02, 4.028754e-02, 8.789800e-02, -5.186278e-02, 2.041848e-02, 4.169798e-03, 2.813616e-02, -2.687399e-03, -3.914938e-02, 1.654661e-02, -5.853702e-02, -6.780071e-02, -5.182962e-02, 2.679756e-02, 4.021148e-02, 1.931386e-02, -4.446782e-02, 2.742580e-03, -1.743431e-02, -1.032564e-02, 3.537917e-02, 3.704552e-02, -3.174060e-02, -4.391209e-02, -5.976558e-02, -6.246651e-02, 2.511417e-02, 8.189888e-02, -3.367217e-03, 1.844936e-02, 7.804597e-02, 7.536122e-02, 4.912240e-02, -2.656999e-02, -9.158805e-03, 6.617622e-02, -6.874514e-02, 4.446493e-04, 2.728271e-03, -8.571730e-02, 1.295270e-02, 3.832350e-02, 5.773543e-02, 6.210516e-02, -8.153918e-02, 3.018926e-02, 2.582262e-02, 4.821101e-02, -2.599500e-02, 6.683215e-03, -1.825816e-02, -1.166240e-02, 1.022314e-02, -3.083961e-02, -2.519043e-03, 7.414330e-02, -8.140089e-02, 5.813858e-02, 5.649288e-02, 3.438280e-02, -4.796392e-02, 1.406513e-02, -5.799606e-02, -5.770506e-02, -1.213939e-02, 4.700872e-02, -7.518081e-03, -8.186430e-02, -1.078270e-02, -3.726334e-02, 3.917490e-02, 1.443623e-02, 6.500298e-03, -8.057432e-02, 2.791368e-02, -6.078177e-02, -7.641405e-02, 6.320868e-03, 8.196434e-02, 4.269160e-04, -6.945072e-02, -5.672717e-02, 3.303964e-02, -7.277853e-02, -3.890225e-02, -2.892450e-02, -3.811591e-02, 5.220920e-02, -5.490950e-02, -2.030370e-02, 5.311532e-02, -6.866390e-02, 8.751478e-02, -3.400090e-02, 4.451551e-02, -4.479783e-02, -4.771485e-02, -8.387356e-02, 3.947759e-02, 6.238623e-02, 6.174388e-02, 4.415468e-02, -4.510567e-02, 5.695965e-02, -3.173457e-02, 6.244281e-02, 6.537674e-02, 7.958341e-02, -6.563342e-02, 7.842382e-02, -6.761797e-02, -4.051393e-02, -4.482770e-03, -5.900754e-02, -6.159438e-02, 1.635083e-02, 3.699738e-02, -8.082846e-02, 8.267367e-03, -5.010902e-03, -4.590051e-02, 3.436576e-02, 1.764499e-02, -8.614108e-02, 4.321021e-02, -1.380461e-02, -2.281694e-02, -6.728603e-02, -3.178755e-02, 1.989373e-02, -8.599386e-02, 5.617796e-03, 1.809862e-02, -4.026991e-02, -8.597671e-02, -1.193278e-02, 7.737534e-02, -4.102033e-02, -2.904141e-02, -4.416816e-02, -4.366824e-03, 1.044889e-02, -1.647633e-02, -2.939585e-02, 6.254156e-02, 1.544333e-02, -5.093808e-02, -3.256606e-02, 3.208938e-02, -8.363765e-02, 1.423463e-02, 7.356377e-02, 2.951896e-02, -7.491080e-02, 7.605497e-02, 7.755632e-02, 3.342652e-02, -8.465069e-02, -4.532350e-02, -1.877288e-02, 2.818542e-02, 5.915843e-02, 6.357078e-02, -3.864026e-02, 8.764245e-02, 6.194083e-02, -1.346104e-02, -6.016104e-02, -6.832163e-02, 8.217141e-02, -4.420282e-02, -1.235237e-02, 9.363744e-03, -2.677311e-02, -2.706776e-03, 5.206496e-02, -8.763634e-02, -3.705931e-02, 3.766506e-02, 5.902036e-02, -5.872016e-02, -6.603591e-02, -6.241612e-02, -1.030175e-02, 3.639828e-02, -6.837675e-02, 1.272794e-02, 6.717087e-02, 6.659518e-03, 9.597237e-03, -2.314031e-02, 6.346264e-02, -5.950805e-02, -1.653571e-02, 3.594753e-02, 4.697201e-02, 4.483207e-02, 8.158237e-02, 3.604415e-02, -4.395655e-02, -4.329145e-02, 4.950571e-02, -4.323293e-02, 6.273203e-02, 3.115652e-02, 4.684895e-02, 4.937783e-02, -4.017174e-03, -6.520603e-02, -7.157269e-02, -8.614363e-02, -3.051122e-02, 6.110025e-02, 6.181989e-02, -1.533794e-02, -6.338704e-02, -2.272716e-03, 5.581971e-03, 5.230934e-02, -8.257575e-02, 4.348049e-02, 6.087224e-02, -1.641535e-02, 4.803804e-02, 8.753678e-02, -6.236564e-03, 1.294715e-02, -6.495366e-02, 3.988617e-02, 4.947118e-02, 8.672163e-02, 3.567194e-02, 2.837765e-02, 2.199003e-02, -7.607810e-02, -1.039459e-02, -2.371757e-02, 1.991637e-02, 7.866761e-02, 4.954931e-02, -4.617913e-02, 8.109686e-02, -4.179434e-02, -3.296157e-02, 7.779875e-02, 6.362157e-02, -4.345854e-02, -3.518156e-02, -6.295335e-02, -1.400947e-02, -3.959274e-02, 1.330790e-02, 6.886888e-02, 6.403118e-02, -2.204131e-02, -4.468525e-02, -3.035476e-02, 7.006447e-02, -6.435306e-02, 1.404137e-02, 4.981315e-03, 3.031174e-02, -1.273753e-02, -5.479811e-02, 3.161699e-03, -8.792500e-02, -5.879005e-02, 2.496851e-02, 1.959702e-02, -6.383844e-02, -3.531212e-02, -7.150920e-02, 3.413596e-02, 5.978826e-02, -5.428008e-03, -4.053740e-02, -7.212245e-02, -1.685667e-02, -4.267835e-02, 3.680426e-02, -4.587969e-03, 2.498965e-02, 8.369222e-02, -5.732619e-02, -5.043758e-02, -3.907046e-02, 3.952304e-02, 6.043047e-02, -3.338539e-02, 7.126700e-02, -1.104629e-02, -1.951075e-02, 5.755714e-02, -6.041559e-02, 6.385038e-02, -1.387369e-03, 8.249807e-02, 1.478575e-03, -1.156458e-02, 8.797709e-02, -7.829508e-02, -1.264606e-02, 4.332415e-02, 2.870051e-02, 3.157984e-02, -1.813722e-02, -5.859422e-02, 4.379511e-02, -1.175225e-02, -6.389751e-02, 2.675601e-02, 7.249438e-02, 2.430002e-02, 4.203061e-02, 7.463901e-03, 8.819968e-02, -2.251265e-02, 2.310757e-02, -4.959539e-02, -5.405442e-02, 4.863079e-02, 3.393717e-02, 3.910533e-02, 3.955844e-02, 3.444142e-02, -7.936820e-02, 4.449822e-02, 1.243090e-03, 4.283829e-02, -1.709563e-02, -8.042115e-02, 9.046505e-03, -1.604697e-02, -5.071245e-02, -1.778687e-02, 7.282215e-02, 8.121568e-02, 6.805957e-02, -3.280932e-02, -5.036796e-02, -8.029097e-02, -4.304388e-02, 4.150959e-02, -3.172583e-02, 4.309778e-02, -3.872000e-02, 2.521437e-02, -8.551687e-02, -8.122347e-02, 4.517993e-02, 7.512843e-02, -2.303726e-03, -7.885110e-02, 3.873987e-02, -8.156490e-02, -8.032516e-02, -5.456225e-04, -1.024218e-02, -3.759667e-02, 4.949864e-02, 9.636360e-03, 1.601280e-02, -8.702893e-02, -3.110980e-02, 2.692871e-02, 7.747255e-02, -3.422213e-02, -7.816125e-02, 5.450555e-02, 4.671972e-02, -1.692224e-02, 1.972453e-02, 1.989784e-02, -6.615033e-02, -5.606041e-02, -3.646962e-02, -5.692444e-02, 1.391942e-02, -7.529661e-02, 8.020993e-02, 5.071063e-02, -1.931066e-02, -7.500912e-02, 4.624684e-02, -2.374958e-02, 3.504833e-02, -6.027669e-02, 5.620489e-02, -6.172533e-02, 2.108323e-02, 5.301360e-02, -7.257552e-02, -1.562975e-02, -6.772651e-02, -7.291773e-03, -4.302710e-02, 1.750816e-02, -6.687411e-02, 2.993814e-02, 3.612050e-02, 3.165196e-02, -7.315744e-04, 4.640002e-02, 2.118630e-02, -2.553520e-03, 2.987055e-02, 7.401426e-02, 7.311799e-02, -2.574941e-02, 3.589250e-02, 7.761564e-02, 4.199288e-02, -3.890040e-02, 8.151604e-02, -5.876457e-02, -6.601647e-02, -2.303550e-02, 7.072356e-02, 1.231696e-02, 6.231127e-02, 2.312218e-03, 5.179729e-02, 1.858618e-02, -3.063082e-02, -7.720448e-02, -2.257241e-02, -3.042385e-02, 1.980420e-02, -3.478805e-02, 7.918774e-02, -8.006759e-02, -6.718362e-02, 5.721729e-02, -6.713768e-02, 8.170563e-02, 1.196203e-02, -8.292724e-02, -5.888585e-02, 2.967601e-02, -3.341099e-02, -2.602231e-02, 4.159769e-02, 2.815878e-02, -3.490337e-02, -3.610536e-02, -5.746232e-02, -7.141337e-02, -2.906682e-02, 4.632519e-02, -7.820898e-02, 3.471320e-04, -4.619522e-02, 9.050424e-03, -8.926976e-03, 5.892293e-02, -8.252054e-02, 1.106458e-02, -3.997284e-02, -6.735459e-02, 1.137868e-02, 7.467010e-03, -1.696668e-02, 6.028219e-02, -1.924018e-02, -1.444013e-02, 2.110942e-02, -2.497560e-02, 3.082585e-02, -5.390583e-02, 6.657021e-03, 3.623775e-03, -4.795729e-02, 8.150234e-02, 5.343420e-02, -3.840800e-02, -4.868545e-02, 5.930179e-02, 9.401803e-03, 4.540703e-02, 3.681884e-02, 1.965904e-02, 4.791866e-02, 5.160631e-02, -1.756999e-02, 3.212475e-03, 3.442877e-02, -5.565957e-02, -4.472402e-02, 5.681783e-02, -3.208502e-03, 6.718028e-03, 7.430279e-02, 3.183675e-02, 1.185168e-02, 7.663911e-02, 2.388967e-02, 6.260937e-02, 6.653757e-02, 2.303465e-02, -2.742773e-02, -4.932016e-02, 2.691869e-02, 7.327489e-02, -7.235125e-02, -3.676237e-02, 7.754073e-02, -3.766063e-03, 8.376159e-04, -4.375159e-02, -3.694214e-02, 4.374204e-02, -3.272476e-02, 7.253274e-02, -6.241035e-02, -1.103443e-02, -7.405665e-03, 4.016364e-02, -8.768074e-02, 7.992959e-02, 5.882040e-02, -1.552959e-02, 8.829888e-02, 1.315186e-02, -1.423683e-02, -4.989678e-02, 3.117980e-02, -2.768540e-02, -5.327590e-02, 4.980453e-02, -1.660667e-02, 8.347876e-02, 8.690303e-02, 5.599767e-03, -6.915812e-02, 3.630393e-02, 6.458773e-02, -6.544649e-02, 6.375975e-02, 5.616230e-02, 5.860845e-02, -8.616662e-02, 3.305820e-03, 8.085409e-02, -5.501726e-02, -5.033059e-02, 3.727395e-02, 4.194615e-02, -7.130681e-02, -5.553902e-02, 2.058248e-02, 8.218139e-02, -6.457050e-02, 7.701957e-03, -5.148132e-03, 8.437679e-02, -4.009916e-02, -1.015773e-02, 2.076792e-02, -7.232185e-02, 4.786379e-02, 3.204363e-02, 8.643265e-02, -5.750211e-02, 2.936367e-02, 7.072349e-02, 7.359737e-02, 7.739591e-02, 1.727493e-02, -5.786150e-02, -3.889872e-02, 1.998729e-02, 1.006377e-02, -3.718572e-02, -1.941789e-02, -4.070574e-03, -3.314745e-02, 4.424177e-02, 6.795120e-02, -6.490055e-02, -8.474748e-02, -5.177265e-02, -5.782967e-02, -5.616815e-02, -1.986048e-02, 6.436692e-02, 1.580348e-02, -5.568866e-02, 8.388432e-02, 2.150247e-02, 8.616790e-02, 7.829230e-02, -6.601103e-03, 7.936975e-02, 1.808523e-02, 7.996090e-03, -8.106544e-02, 4.275810e-02, -2.670604e-02, -4.734991e-02, -2.297884e-02, 3.738966e-02, 6.384841e-02, -2.124520e-02, 8.665592e-03, 1.828449e-02, -4.895819e-02, 1.792148e-02, 7.560797e-02, 4.800003e-02, -1.417676e-02, 2.075047e-02, -3.796868e-02, 3.470000e-02, 1.596985e-02, 4.770113e-02, -2.922432e-02, -7.558101e-02, 7.622500e-03, -2.349783e-02, -8.247043e-02, -5.868390e-03, -4.279403e-02, -1.041330e-02, -2.639831e-02, 3.985980e-02, -3.086036e-02, -7.243707e-02, 7.066940e-02, 9.034620e-03, -6.158686e-02, 4.791307e-02, 7.859080e-03, 5.648855e-02, -8.469567e-03, 1.762439e-02, -1.206583e-02, -2.127554e-02, -3.573721e-02, 8.522524e-02, -8.670251e-02, -6.615349e-02, -1.454933e-02, -6.632938e-02, 1.390166e-02, 3.654647e-02, 8.828379e-02, -8.278494e-02, 7.192513e-02, 7.181943e-02, 8.415182e-02, 2.851976e-02, 3.006240e-03, -3.265125e-02, -8.632401e-02, -6.838919e-02, 1.354073e-04, -4.991936e-02, -5.472282e-02, 8.269557e-02, 7.405707e-02, 7.932528e-02, 8.408804e-02, -1.424528e-02, -6.522172e-03, 6.814474e-02, 4.768663e-03, 4.586711e-02, 1.803883e-02, 5.619778e-02, 4.565118e-02, -3.505816e-02, -7.033111e-02, -2.527330e-02, -3.319030e-02, -5.706443e-02, 5.833582e-02, -6.655977e-02, 2.331479e-03, 3.679860e-02, -1.377562e-02, -1.439747e-03, -7.836773e-02, 2.024858e-02, 3.313629e-02, 2.359910e-02, -7.760210e-02, -2.018727e-02, 5.680219e-02, -2.765255e-04, -5.354653e-02, 2.805294e-03, 2.407655e-02, 8.557212e-03, 6.114344e-02, -3.716972e-02, 5.908268e-02, -1.794854e-02, -2.333853e-02, -5.907763e-02, -3.270872e-02, -7.175335e-02, 2.922233e-02, -2.241011e-02, 5.173614e-02, -1.251694e-02, 6.853215e-02, -7.576025e-02, 3.530155e-02, -9.593128e-03, 2.567764e-02, -1.358516e-02, -5.911799e-02, -5.077557e-02, -5.286294e-02, -4.099822e-02, -4.557686e-03, 5.203373e-02, -1.823749e-02, -5.494277e-02, 3.899835e-02, -8.281559e-02, 5.329880e-03, -6.355388e-02, 7.081121e-02, 7.454877e-02, -6.934294e-03, -6.810222e-02, 5.766387e-02, -3.844895e-02, -4.774131e-02, 7.915010e-02, -4.222142e-02, -6.091258e-02, -3.874023e-02, -3.514278e-02, -8.555131e-02, -4.194275e-02, 4.529557e-02, 2.154138e-02, -1.896330e-02, -5.161124e-03, 6.342789e-02, -3.475795e-02, 3.883543e-02, 2.623793e-02, -3.078273e-02, 8.216850e-02, -1.214299e-02, -8.276684e-02, 4.636808e-02, -2.612987e-02, -1.918996e-02, 1.665011e-04, -4.179554e-02, 3.837623e-02, 6.205331e-02, -1.794426e-02, 1.518626e-02, 6.190381e-03, 6.493279e-02, -2.753693e-02, 2.749186e-02, 5.705988e-02, 5.180924e-02, -1.797573e-02, 1.638666e-02, 3.303212e-02, -3.777116e-02, 8.300747e-02, 7.416046e-02, 1.463981e-03, 6.599221e-02, 7.467873e-02, 7.420780e-02, -4.326673e-02, -3.708622e-02, -2.760262e-02, 8.641722e-02, 8.404870e-02, -5.687613e-02, 1.204046e-02, 1.732837e-02, 6.321042e-02, 7.036895e-02, 2.626412e-02, 3.307768e-02, 7.005923e-03, 5.111348e-02, 6.617592e-02, -6.346834e-02, 7.211362e-02, -7.871293e-02, -3.595842e-02, 4.628173e-02, -7.041501e-02, -3.564487e-02, 1.254912e-02, 4.335751e-02, -9.022618e-03, -8.657961e-02, -1.386758e-03, 8.424058e-02, -4.420867e-03, 3.211819e-02, -4.450425e-02, 7.161669e-02, 5.204390e-02, 8.290616e-02, 9.058074e-03, -1.727936e-03, -4.697475e-02, 2.844560e-02, 5.592410e-02, 2.775243e-02, -8.280373e-02, -2.212400e-02, 9.010258e-04, 6.675313e-02, -1.184232e-03, 4.146881e-03, -8.501717e-02, 4.892695e-02, -5.474703e-02, 6.556144e-02, -7.669473e-03, 2.032105e-02, 2.887772e-02, -6.663126e-02, -9.474980e-03, -4.597232e-02, 5.487681e-02, -2.119806e-02, 9.191595e-03, 8.494059e-02, -8.224344e-02, -5.234186e-03, -5.937243e-02, 7.205451e-02, -3.891994e-02, 5.011563e-02, -5.113132e-02, 6.608386e-02, -7.382654e-02, 4.895540e-02, -6.864362e-02, 4.014866e-02, -4.480183e-02, 6.850540e-02, 4.229272e-02, -4.017869e-03, 3.179221e-03, -1.622089e-02, -5.242035e-02, -2.028348e-02, 4.462490e-02, -8.026911e-02, 2.337091e-02, 3.036922e-02, 5.577229e-03, 6.263123e-02, -2.795781e-02, -1.331861e-03, -7.758272e-02, -1.793650e-02, 2.366287e-02, -8.123600e-02, 2.608999e-02, 4.663917e-02, 6.985716e-02, 4.216170e-02, -1.039991e-02, 2.868194e-02, -5.016920e-02, 4.382263e-02, -4.344297e-02, -4.719008e-02, 4.775080e-02, -1.380434e-02, -4.749369e-02, -5.182907e-02, -2.688178e-02, -3.927622e-03, 4.014112e-02, -5.862078e-02, 5.090478e-02, 1.737042e-02, 5.177265e-02, -8.481727e-02, -7.685634e-02, -8.416785e-02, 1.667710e-02, 7.721748e-02, -8.819026e-02, 8.730563e-02, -2.863812e-02, 2.083180e-02, 4.227750e-03, -5.553101e-02, -3.791007e-02, -8.372367e-02, 6.416792e-02, -7.379753e-02, 5.784378e-02, -3.526232e-02, -8.336680e-02, 2.783362e-02, -8.407002e-02, -3.641472e-02, 2.864378e-02, 5.901939e-03, -5.966435e-02, 7.091089e-02, -4.336945e-02, 1.695042e-02, -2.385638e-02, 1.825765e-02, -5.146109e-02, -7.255940e-02, -6.730030e-02, -6.492164e-03, -1.476961e-02, 1.484861e-02, -3.373054e-02, -1.282490e-02, -1.745721e-02, -7.657433e-02, -6.072729e-02, 3.202001e-04, -8.600405e-02, 4.058046e-03, -5.700904e-02, -2.479745e-02, 1.779353e-02, -3.692530e-02, 6.167483e-02, 2.061460e-02, -5.931165e-02, 1.054475e-02, -2.080910e-02, -3.514849e-02, -1.329264e-02, -7.928159e-03, -3.928572e-02, 5.562814e-02, -4.266886e-02, -5.778142e-02, 1.248765e-02, -7.461585e-02, -1.108396e-02, 5.273182e-02, -8.274258e-02, 3.539366e-03, 1.330060e-02, -2.720928e-02, -8.348998e-02, 4.849008e-02, -5.668741e-03, 3.706267e-02, -5.195015e-02, -1.178745e-02, 3.213613e-02, -8.205058e-02, 1.379851e-02, 3.486126e-02, -8.624206e-02, -8.319817e-02, -1.638629e-02, 8.201592e-02, -3.936009e-02, 7.037999e-02, 3.137833e-04, -3.967867e-02, 6.753496e-02, -6.463212e-02, 8.077455e-02, 6.451954e-02, -3.847636e-02, -5.539447e-02, 7.497414e-02, -3.390197e-02, 4.796281e-02, -2.561068e-02, 4.551512e-02, 1.484757e-02, 3.110499e-02, -8.162421e-02, 8.336027e-02, 8.160145e-02, 2.055271e-02, -6.381457e-02, 7.516271e-02, -7.067493e-02, 1.689215e-02, 3.691384e-02, 3.689243e-02, -7.428780e-02, 2.501530e-02, 7.703369e-02, 3.958576e-02, -3.508672e-03, 8.616186e-03, -3.108643e-02, -7.129230e-02, 4.941505e-02, -3.769748e-02, -2.617960e-02, -5.445482e-02, -1.066863e-02, 3.404747e-02, 3.242242e-02, 7.372042e-03, -2.069857e-02, -8.575092e-03, -4.147953e-02, 6.793370e-02, -4.024839e-02, 1.382513e-02, 5.883822e-02, 6.695065e-02, -5.776594e-02, 2.118174e-02, -8.524260e-02, 6.776678e-02, -4.632798e-02, 8.183917e-02, 1.348356e-02, -4.603595e-02, -4.142893e-02, 2.524747e-02, -5.605625e-03, -3.938886e-03, -4.240843e-02, -1.486849e-02, 6.881602e-02, 7.448012e-02, -5.967198e-02, 6.185784e-02, 1.855854e-02, 6.890843e-02, -2.428874e-02, 8.706636e-02, 7.950889e-02, 1.827424e-02, -1.107425e-02, 2.360228e-02, -3.471793e-02, 4.840862e-02, 7.035968e-02, -6.386583e-02, 5.829670e-02, 2.831303e-02, 3.782639e-02, -3.757987e-02, -1.850516e-02, 8.323320e-02, 6.827259e-02, -2.476528e-03, 3.385568e-02, -5.474546e-02, 3.567630e-02, 1.294673e-02, -4.366437e-02, 3.069681e-03, -3.006086e-02, -8.640298e-02, -3.958427e-02, -2.102900e-02, -8.383878e-02, 4.696952e-02, 6.332482e-02, -3.088520e-02, 4.261670e-02, -5.958461e-02, -1.754643e-02, -5.599638e-02, 5.202993e-02, 2.901025e-02, 5.146878e-03, 8.210364e-03, -5.732764e-02, -7.230853e-02, 6.974022e-02, -4.004528e-02, 6.135178e-02, -8.508735e-02, -5.363882e-02, -7.509685e-02, -5.031960e-02, 7.306996e-02, 2.127060e-02, 4.216453e-02, 8.514284e-02, 3.924704e-02, -8.165415e-02, -6.226501e-02, -3.234218e-02, -5.928490e-02, -6.962995e-02, 4.559762e-03, 6.702944e-02, -1.923467e-02, 3.099900e-02, -5.501442e-02, 6.382982e-03, 3.079280e-03, -2.785809e-02, 4.820673e-02, 3.042556e-02, 7.759479e-02, 2.400132e-02, -7.053012e-02, -8.169175e-02, -3.365507e-02, 1.050984e-02, 3.669661e-02, -1.527528e-03, -6.430079e-02, 2.872172e-02, 8.280627e-02, 2.445965e-02, -8.419338e-02, -8.212088e-02, 7.800388e-02, -2.417960e-02, 7.507731e-02, 1.422457e-02, 1.703994e-02, 6.496189e-03, -3.670310e-02, 3.886543e-02, 4.594124e-02, 8.573343e-03, 1.684030e-03, -3.903452e-02, 3.130363e-02, -4.617262e-02, -1.680660e-02, 7.939187e-02, -3.462095e-02, 8.584846e-02, 5.110727e-04, -4.023914e-02, 7.984957e-02, -1.639977e-02, 4.204784e-02, 1.544591e-02, -8.164026e-02, 3.866137e-02, -1.222973e-02, 1.398226e-02, 2.099010e-02, -5.046806e-02, 8.223403e-02, -3.211244e-02, -1.799875e-02, 3.833717e-02, -1.518500e-02, 2.311897e-02, 5.586519e-02, 7.888616e-02, -2.431093e-03, -3.793332e-02, -8.308619e-03, -8.530827e-02, 1.364751e-02, 7.037744e-03, -2.530441e-02, -1.636880e-02, 2.458531e-04, -2.514980e-02, -7.623459e-02, 8.616235e-02, -3.545897e-02, -2.990168e-02, -1.771787e-02, -3.782005e-03, -3.078249e-02, -2.996290e-02, 7.487925e-02, 4.765091e-03, 1.182799e-03, 4.443231e-02, -2.495847e-02, 6.661851e-02, -7.563975e-02, -2.806878e-02, -7.421249e-03, 1.157083e-02, -8.641442e-02, -1.490867e-02, 7.577642e-02, -4.285055e-02, 1.759746e-02, 2.233526e-02, -4.555318e-02, 6.245912e-02, 6.610148e-02, -7.918286e-03, -3.947326e-02, -5.314578e-02, 7.280879e-03, 2.625861e-02, 8.611789e-02, -7.196144e-02, 9.454486e-03, 4.854726e-02, -2.228037e-02, 8.476906e-02, 4.926145e-03, 4.233796e-02, 3.538766e-02, 5.564548e-02, -4.201963e-02, -2.197871e-02, 2.051524e-02, -8.774558e-02, -3.574132e-02, -5.770028e-02, -6.067670e-02, 4.223951e-02, -3.185355e-02, 7.954457e-02, -4.187705e-02, 8.731424e-02, -5.635799e-02, 2.461826e-02, -7.690486e-02, -4.690922e-02, -7.948910e-02, -6.769459e-02, 7.250470e-03, -5.970091e-02, 3.752346e-02, 8.397055e-02, 6.975926e-02, -8.178216e-02, -8.359025e-02, 4.834376e-02, 5.582974e-02, -4.293432e-02, 2.986864e-02, 2.974973e-02, -3.479886e-03, 1.248284e-03, 3.036363e-02, 8.134610e-02, -8.692014e-02, 3.962855e-02, -3.496481e-02, 6.084870e-02, -9.607522e-03, 2.903881e-02, 2.672068e-03, 3.858551e-02, -4.342824e-02, -7.613543e-02, -3.271990e-02, 5.104569e-02, -8.061581e-02, -7.122465e-02, -2.612579e-02, 5.163667e-02, -6.608417e-02, -6.632577e-02, -2.340824e-02, 4.557665e-02, 6.341634e-02, 1.484192e-02, -3.541336e-02, 6.236153e-03, 5.590400e-03, 8.007864e-02, -6.805094e-02, -2.283411e-03, -2.959438e-02, -4.894113e-02, 3.759074e-02, -1.556499e-02, 2.805504e-02, 5.499345e-02, -4.758701e-02, -8.717901e-02, 6.145813e-02, 6.894949e-02, -3.663572e-03, 3.637422e-02, -5.311531e-02, -5.522255e-02, -5.239192e-02, -6.821783e-03, 2.012868e-02, -4.902162e-02, -1.705886e-02, 9.285351e-03, -1.193473e-02, -5.231530e-02, -5.959052e-02, -6.553427e-02, -4.506624e-02, -3.720498e-02, -6.848385e-02, -8.474984e-02, 8.179071e-02, -5.593605e-02, 1.072797e-02, -7.640988e-02, 6.848815e-02, 2.117736e-02, 7.413769e-02, -8.254410e-02, 3.454717e-02, -1.874248e-02, -4.203474e-03, -1.872497e-02, -6.169405e-02, 4.736940e-02, 4.301519e-02, -9.909472e-03, -6.891873e-02, 7.045159e-02, 9.872973e-03, 3.278164e-02, 5.262866e-03, 5.412447e-02, 6.986169e-02, -3.549772e-02, -2.436637e-02, -7.958023e-02, 1.422293e-02, -2.255816e-02, 2.463875e-02, 1.236918e-02, -7.119135e-02, 8.581223e-02, 6.922001e-02, 6.507921e-02, 2.357714e-02, -6.675723e-02, -6.994400e-02, -4.525893e-02, -5.857999e-02, -2.730047e-02, 6.520926e-02, -1.042876e-02, 2.539940e-02, 2.211405e-02, 4.594821e-02, 6.108215e-02, -4.958611e-02, 3.492350e-02, 4.774870e-02, -3.627488e-02, -5.310761e-02, 4.879479e-02, -1.686913e-02, -5.528401e-02, -1.976960e-02, -2.723751e-03, 5.109041e-04, -7.152984e-03, -8.670489e-02, 2.279158e-02, -7.396803e-02, -4.746691e-02, -4.233756e-03, 4.300454e-02, 2.739661e-03, -2.226700e-02, 4.296270e-02, -7.880786e-02, -3.402419e-02, 7.869280e-02, -2.027254e-02, -9.459607e-03, 4.288342e-02, 4.811202e-02, 2.837810e-02, 8.387300e-02, -5.465576e-02, -2.509813e-03, -3.841283e-02, -5.381231e-02, 2.934300e-02, 1.246656e-02, -8.822114e-02, 1.524241e-03, 1.439576e-02, -7.292967e-02, -6.179397e-02, -6.191455e-02, -4.363886e-02, -8.241750e-02, 3.143164e-03, 9.150397e-03, 5.129040e-03, 4.129619e-02, -1.492463e-02, 3.865842e-02, -5.028862e-02, -3.178863e-02, -1.469064e-02, -3.406414e-02, 6.457020e-02, -4.340730e-02, -7.558503e-02, -2.254894e-02, -6.978805e-02, -4.998973e-02, -5.612814e-02, -5.757533e-02, -8.114880e-02, -6.618132e-02, 6.582363e-02, -4.902897e-02, 2.633162e-02, 8.644925e-02, -3.467314e-02, -6.513300e-03, 4.518350e-02, 4.396194e-02, -1.096014e-02, 1.381542e-02, 8.689757e-02, 3.831454e-02, -5.795336e-02, 2.991668e-02, 5.685715e-02, -4.364893e-02, -8.551364e-03, -1.099406e-02, 5.473701e-02, 4.129503e-02, 4.248919e-02, 7.632046e-02, 3.844902e-02, 2.320560e-02, -4.904769e-02, -7.561742e-02, -3.409150e-02, -8.716661e-02, 8.444243e-02, 6.523316e-02, 7.277890e-02, 8.173082e-02, 3.279930e-02, 9.570338e-03, 4.085167e-02, 8.537687e-03, 4.859869e-03, 7.267349e-02, -4.589079e-02, -6.672077e-02, 3.432612e-02, 2.174011e-02, 5.007181e-02, 2.959123e-02, 6.170627e-02, -7.420383e-02, 1.713454e-02, -3.219405e-02, 5.541131e-02, -5.254678e-02, 7.078720e-02, -6.596525e-02, -9.752718e-03, 3.418320e-02, -2.869953e-02, 3.427913e-02, -8.744311e-02, 2.769897e-02, -3.856736e-02, -6.393850e-02, -4.070089e-02, 4.995881e-02, 7.692172e-02, -3.782367e-02, -8.518869e-02, 7.141345e-02, 7.792762e-03, -5.269315e-02, 2.389343e-02, 1.692359e-02, 1.408915e-02, -3.601722e-03, -2.993173e-02, -5.324554e-02, 5.087174e-02, -4.058239e-02, -3.005068e-02, -6.083202e-03, -7.101783e-02, 5.747852e-02, -6.060882e-02, 8.283889e-03, -5.500768e-02, 7.684843e-02, 6.457277e-02, 7.450934e-02, 4.558903e-02, 4.281343e-02, 6.696322e-02, 8.648241e-02, -8.260611e-02, -4.660646e-02, -7.194621e-02, 1.071827e-02, 1.104550e-02, -1.466234e-02, 6.473656e-02, 8.743116e-02, -8.817104e-02, -4.427545e-02, -5.689994e-02, -6.762247e-02, 5.174025e-02, -2.699730e-02, -5.123184e-02, -3.306273e-02, 3.439245e-02, 2.062334e-02, 4.408409e-02, -6.052499e-02, -2.283150e-02, -4.344119e-02, -4.626651e-02, -1.685046e-02, -6.628147e-02, 1.479952e-02, 2.573621e-02, 6.194212e-02, -7.472200e-02, -2.286444e-02, 7.137667e-02, 7.415753e-02, -2.652026e-02, -6.036267e-02, -4.832523e-02, 5.634359e-02, -4.011811e-03, -3.666252e-02, -8.787175e-02, 1.482257e-02, -2.624946e-02, -5.555945e-02, -2.913563e-02, -1.676688e-02, -5.772747e-02, -7.499892e-02, -6.858972e-02, 8.315463e-02, 2.683867e-02, 5.002961e-02, 6.032298e-02, -5.203797e-02, 3.951880e-02, -1.448650e-03, 1.065352e-02, -4.714993e-02, -3.515279e-03, 6.603795e-02, 1.784919e-04, 1.490559e-02, 2.317268e-02, -1.971485e-02, 1.406124e-02, -1.739667e-02, -7.654639e-02, 6.488028e-02, 4.197532e-02, 1.608730e-02, 6.886093e-02, -6.067929e-02, 2.118240e-02, 5.044853e-02, 1.961056e-02, -4.694175e-02, -4.054116e-02, 8.338701e-03, -6.403545e-02, -5.642296e-02, 1.454439e-02, -3.312449e-02, 8.790392e-02, -2.519725e-02, 5.669277e-02, -4.361325e-02, 1.267629e-02, -7.017471e-02, -8.553945e-02, -8.458813e-02, 7.096244e-02, -4.302905e-02, -5.231292e-02, 6.533509e-02, -2.101030e-02, 7.054223e-04, 8.571617e-02, 6.244835e-02, 4.515538e-02, -8.480232e-02, 7.527027e-02, 2.552511e-02, 7.768808e-02, -5.539171e-02, -6.238429e-03, -7.964204e-02, -3.655836e-02, -5.346656e-02, -5.380651e-02, -7.847019e-02, -3.083695e-03, 6.203574e-03, -7.550184e-02, 2.219591e-02, -7.701561e-02, -3.450356e-02, -6.911690e-02, -2.842350e-02, 8.199594e-02, -8.109591e-03, -5.126609e-02, 3.832004e-02, -1.175047e-02, -4.712547e-02, -9.213069e-03, 1.902343e-02, 5.712894e-02, 3.164781e-02, 2.217736e-03, -4.138578e-03, -1.653270e-02, 3.980033e-02, 2.615009e-02, 3.408352e-02, 2.426530e-02, -8.216897e-03, 2.781261e-02, -4.853551e-02, -8.221560e-02, -3.477164e-02, -1.802801e-02, -4.845160e-03, 4.613641e-02, -3.618408e-02, 2.462144e-02, 9.159437e-03, 4.880277e-02, 7.443287e-02, -8.095522e-02, -6.256245e-02, -1.423868e-03, -8.662402e-02, -5.880887e-03, -9.235671e-03, 4.211472e-02, -1.656625e-02, 2.732357e-02, 2.625951e-02, 1.191714e-02, 8.070963e-03, 2.823684e-02, -8.683383e-02, 3.313217e-02, 4.553403e-02, 6.062390e-02, 7.304773e-02, -3.595155e-02, -5.002081e-02, 8.648969e-02, 8.297060e-03, 4.846758e-02, 4.385005e-02, 1.443707e-02, -8.198306e-02, 6.359300e-02, 4.464500e-03, 7.203645e-02, 3.624798e-03, -1.276400e-02, 7.563715e-03, -2.313398e-02, -2.357410e-02, 7.440063e-02, -8.029207e-03, 5.168010e-02, 7.453907e-02, 6.393551e-02, -3.086189e-02, 2.381248e-02, 7.313826e-02, 8.808102e-02, 6.710958e-02, 8.524150e-02, -2.414498e-02, -4.451958e-02, -7.678204e-02, -8.359722e-03, 2.192974e-03, 5.250823e-02, -8.612496e-02, 8.389450e-02, -6.878870e-02, 2.132639e-02, 2.676334e-02, -6.726760e-02, 3.950631e-02, 1.918125e-02, 8.630199e-03, 4.033017e-02, 5.691346e-02, -6.085003e-02, -1.465827e-02, 3.514262e-02, -7.926425e-02, -3.101999e-02, 3.604624e-02, 3.814041e-02, 1.833334e-02, 7.845935e-02, 3.153564e-03, 7.138336e-02, -5.354769e-02, -3.208201e-02, -3.125694e-02, -7.655927e-02, 1.751046e-02, 3.073928e-02, 6.159883e-02, -3.406996e-02, 5.345242e-02, -5.191640e-02, 4.616800e-02, 8.727757e-02, -7.345363e-02, -7.094336e-02, 6.520515e-02, 1.192901e-02, -7.162520e-02, 7.281996e-02, -8.446288e-02, -4.205170e-03, -2.056641e-02, 7.981571e-02, 3.274412e-02, 5.925643e-02, 5.455432e-02, 8.014280e-02, 5.250289e-02, 4.935369e-02, -1.606583e-02, -2.892907e-02, 3.538693e-02, -2.621773e-02, -1.979603e-02, -6.408956e-02, -2.067648e-02, -6.049192e-02, 4.827829e-02, -5.300829e-02, 6.059645e-02, -4.237476e-02, -4.388670e-02, 3.277576e-02, -4.207731e-03, 6.796695e-02, -8.778297e-02, -8.358889e-03, -8.372803e-02, 8.683294e-03, -7.739985e-02, -7.028539e-02, -4.072310e-02, 6.593885e-03, 1.612612e-02, 1.850235e-02, -2.135410e-02, 8.141545e-02, 8.081777e-02, 8.034908e-02, -5.411731e-02, -8.513042e-02, -2.578174e-02, 6.129136e-02, -8.133435e-02, -6.811216e-02, -3.374366e-02, 2.032963e-02, -5.481700e-02, -2.901659e-02, 8.160309e-02, 6.407892e-02, 4.604149e-02, 4.611534e-02, -7.580413e-02, 9.559853e-04, 6.305067e-02, 6.035857e-02, -4.836736e-02, -3.861528e-02, 3.638126e-03, 8.775677e-02, -1.701442e-02, 5.406273e-02, 4.483050e-02, -3.171053e-02, -1.732628e-02, 8.298019e-03, 6.828587e-02, -3.626649e-02, 8.288651e-02, 3.829597e-02, -7.637610e-02, 7.872943e-02, -8.092368e-02, 8.531621e-02, 1.026112e-02, 5.617153e-02, -3.557685e-02, -7.711358e-02, 5.450230e-03, 8.129822e-02, -9.590051e-03, 2.398823e-02, 5.457978e-02, -3.235392e-03, 2.979006e-02, -6.657752e-02, 8.441181e-03, 3.807562e-02, -7.280548e-02, 8.006874e-02, 5.015956e-02, 5.903748e-02, -1.716476e-02, -3.579182e-02, 4.988158e-02, -1.496910e-02, 5.377252e-02, -4.055057e-02, 6.797852e-02, 2.866179e-02, 8.116734e-02, 3.715447e-02, 5.227022e-02, -3.681646e-02, -6.101853e-02, 6.440946e-02, -3.809872e-02, -8.737808e-02, 9.187791e-03, -2.534722e-03, 6.266768e-02, -7.808914e-02, 3.729016e-02, -1.615921e-02, 1.151935e-02, -6.462412e-02, -1.127962e-02, -3.535231e-02, 1.586280e-02, 1.585466e-02, 5.790958e-02, -3.294377e-03, 4.391372e-02, 3.137405e-02, -1.475836e-02, 6.734695e-02, -7.031512e-02, -4.274555e-02, 7.412103e-03, 1.054789e-02, -1.944855e-02, 6.749198e-02, -5.985990e-02, 7.298714e-02, -3.566292e-02, 3.910946e-02, 7.864798e-02, 5.813903e-02, -2.387702e-02, 8.601767e-02, -6.749159e-02, 5.820214e-02, 3.598773e-02, 9.703901e-03, 4.825940e-02, 5.127088e-02, -5.339107e-02, 2.077453e-02, -7.274742e-02, 5.738454e-02, 8.838112e-02, -5.718356e-02, 6.292821e-02, 7.620738e-02, 6.118716e-02, 3.390644e-02, 7.792316e-02, 5.601189e-02, 7.759412e-02, -4.417337e-03, 6.265519e-03, 6.582141e-02, -3.317498e-02, -6.431150e-02, 3.163094e-02, 2.858329e-02, 3.281699e-02, 2.730121e-02, -2.719377e-02, -6.942502e-02, -4.653070e-02, -7.426523e-02, 1.432015e-02, 2.485269e-02, -7.840198e-03, -6.072192e-02, -1.954467e-02, 1.313659e-02, 8.611435e-02, -8.672708e-02, 1.665647e-02, 1.191251e-02, -7.156956e-02, 9.111548e-03, 8.405113e-02, 3.224172e-02, 6.163022e-02, 3.842318e-02, -7.682823e-02, 1.054680e-02, 8.478048e-02, -2.816996e-02, 2.665020e-02, 2.688911e-02, -2.344738e-02, 8.088212e-03, 3.931454e-02, -6.784613e-02, -2.132184e-02, -8.800693e-02, -6.826325e-02, 8.224256e-02, -1.585391e-02, -3.754945e-02, -1.279191e-02, 4.877708e-02, -5.253365e-02, -2.129333e-02, -9.468194e-03, 7.391043e-02, 4.787666e-02, -3.705886e-02, 7.063241e-02, 3.002145e-02, -2.572199e-02, 6.358432e-03, -1.225452e-02, 7.370476e-02, 5.610135e-02, -1.439153e-02, 5.112861e-02, 1.569725e-02, 7.396767e-02, -5.270039e-02, -4.188622e-02, 3.749466e-02, -3.758489e-02, -4.064305e-03, -6.101873e-02, 6.965067e-02, -3.997458e-02, -1.555867e-02, -4.048397e-02, -3.633472e-02, 1.663784e-02, -6.804337e-02, 3.502403e-03, 7.386624e-02, -1.470264e-02, 5.219095e-02, -1.866559e-02, 8.535101e-02, -1.140454e-02, 4.316451e-02, 6.219395e-02, -5.084425e-02, -4.402025e-02, 5.546106e-02, -7.649583e-02, -3.179579e-03, -4.511255e-02, 4.688944e-02, -9.299480e-03, 5.323506e-02, 2.649410e-02, 2.207651e-02, 2.070745e-02, 2.129030e-02, -6.889459e-02, 6.288923e-02, -1.504429e-02, -1.135923e-02, 6.308802e-02, -6.683150e-02, 3.402072e-03, 2.058275e-02, -4.690754e-02, 1.585621e-02, -7.302403e-02, 4.906457e-02, 6.570799e-04, -4.401442e-02, -2.869126e-03, 1.801447e-02, -3.719612e-02, -7.437062e-02, 5.618374e-02, 3.620955e-02, -2.964043e-02, 1.502376e-02, -1.019156e-02, 5.829965e-02, -2.721689e-02, -1.687590e-02, -1.871478e-02, -7.608538e-03, 3.714001e-03, 3.501839e-02, 6.463430e-03, 7.949018e-02, 1.159127e-02, -5.120973e-02, -7.905344e-02, 5.004517e-04, -8.719682e-02, 5.989902e-02, 7.078504e-02, -5.564144e-02, 4.937506e-02, -4.004116e-02, -6.765429e-02, -7.902838e-02, -6.145307e-02, -2.386092e-02, 2.308920e-02, 1.620494e-02, 7.108171e-02, -1.233226e-02, -3.979021e-03, -7.278157e-02, -4.899427e-02, 4.572345e-02, 3.247827e-02, -8.458149e-02, 8.106748e-02, -1.250887e-03, 8.352051e-03, -4.770330e-02, -1.510663e-02, -1.066544e-02, 7.179561e-02, -8.036868e-02, 7.086280e-02, -8.566128e-02, -5.305931e-02, 5.206753e-02, -5.769081e-03, -3.445092e-02, 1.749421e-03, 6.660792e-02, 7.292564e-03, -6.266498e-03, -8.034995e-02, 3.928412e-02, 6.521890e-02, -8.405659e-02, -4.170599e-02, -1.084466e-02, -6.726138e-02, -3.298667e-02, -6.695029e-02, 6.330348e-02, -4.212488e-02, -4.009234e-02, -5.880283e-02, -5.962226e-02, -2.044321e-02, -6.463253e-02, -6.018135e-02, -1.801337e-02, 3.212681e-02, -7.728878e-02, 3.354214e-02, -4.873013e-02, 1.269591e-02, -6.049075e-02, -7.609287e-03, -8.101495e-02, -8.744765e-03, 8.649798e-02, 2.130847e-02, 7.402788e-03, -6.540769e-03, 4.673759e-03, -5.662575e-02, 5.494259e-02, 1.251632e-02, -4.529712e-02, -8.424803e-02, -6.793911e-02, 6.716826e-02, 3.400513e-03, 4.723747e-02, 7.985923e-02, 3.992255e-03, 1.044021e-02, 2.792887e-02, -8.762672e-02, -6.296311e-02, -8.096909e-02, -8.037800e-02, 2.073091e-02, -1.651269e-02, -5.601805e-02, -5.374987e-04, -4.183772e-02, -7.724506e-02, 8.448941e-02, 7.106148e-03, 3.846843e-02, -5.055578e-02, -6.559078e-02, 3.665716e-02, -8.032176e-02, -6.887178e-02, 6.674838e-03, 8.450846e-02, -4.834566e-02, -5.639437e-02, -6.389984e-02, 1.411837e-02, -2.747058e-02, 2.968312e-02, 8.331008e-02, -1.765463e-02, -5.308346e-02, -8.759604e-02, 6.350474e-02, 2.832696e-02, 1.324020e-02, -4.008092e-03, -6.000886e-02, -2.220580e-03, -6.776042e-02, -3.082576e-02, 6.878888e-02, -2.105464e-02, 1.825179e-02, 1.760636e-02, 7.259826e-02, 1.777301e-02, 1.005224e-02, -6.668331e-02, -5.072570e-02, 3.169091e-02, -5.633250e-02, -2.772017e-02, 7.299589e-02, 2.872264e-02, 5.754674e-02, 2.045174e-02, 6.600422e-02, -3.672982e-03, 4.340552e-02, 4.095069e-02, -5.816785e-02, 4.117371e-02, -3.371295e-02, -6.550557e-02, 3.963868e-02, -5.197908e-02, -4.935052e-02, -2.741656e-02, 7.761864e-02, -5.373346e-02, -1.009220e-02, -5.845235e-02, 2.121187e-02, 3.419246e-02, -9.016169e-03, -8.211480e-02, 5.953495e-02, 2.249533e-02, 5.510173e-02, 1.474629e-02, 